tree
version=v4
num_class=1
num_tree_per_iteration=1
label_index=0
max_feature_idx=97
objective=regression
feature_names=wind_speed_lag_1 wind_speed_lag_2 wind_speed_lag_3 wind_speed_lag_4 wind_speed_lag_5 wind_speed_lag_6 wind_speed_lag_12 wind_speed_lag_24 wind_speed_lag_48 wind_speed_lag_72 wind_speed_lag_168 wind_speed_roll_mean_6 wind_speed_roll_std_6 wind_speed_roll_mean_12 wind_speed_roll_std_12 wind_speed_roll_mean_24 wind_speed_roll_std_24 wind_speed_roll_mean_48 wind_speed_roll_std_48 dir_sin dir_cos wind_x wind_y wind_accel_1 wind_accel_3 wind_accel_6 dir_change_sin dir_change_cos wind_ewm_6 wind_ewm_12 wind_ewm_24 wind_volatility_6 wind_volatility_24 wind_volatility_72 hour_sin hour_cos dow_sin dow_cos month_sin month_cos hour_x_month_sin hour_x_month_cos hour_x_month_sin2 hour_x_month_cos2 is_sw_monsoon is_ne_monsoon is_dry_season pressure_tendency_1h pressure_tendency_3h pressure_tendency_6h pressure_tendency_12h pressure_tendency_24h temp_tendency_1h temp_tendency_3h temp_tendency_6h temp_tendency_12h temp_tendency_24h humidity_tendency_1h humidity_tendency_6h humidity_tendency_24h surface_pressure_lag_1 surface_pressure_lag_6 surface_pressure_lag_12 surface_pressure_lag_24 surface_pressure_lag_48 temperature_lag_1 temperature_lag_6 temperature_lag_12 temperature_lag_24 temperature_lag_48 humidity_lag_1 humidity_lag_6 humidity_lag_24 surface_pressure_roll_mean_6 surface_pressure_roll_std_6 surface_pressure_roll_mean_24 surface_pressure_roll_std_24 temperature_roll_mean_6 temperature_roll_std_6 temperature_roll_mean_24 temperature_roll_std_24 ws_x_pressure_tend_6h ws_x_temp_tend_6h pressure_x_humidity regional_ws_mean regional_ws_std regional_pressure_mean regional_pressure_std regional_humidity_mean regional_humidity_std ws_vs_region pressure_vs_region humidity_vs_region ws_anomaly pressure_anomaly Longitude Latitude Index
feature_infos=[0.029999999329447746:18.090000152587891] [0.039999999105930328:17.610000610351562] [0.039999999105930328:18.090000152587891] [0.029999999329447746:17.700000762939453] [0.039999999105930328:18.709999084472656] [0.039999999105930328:18.090000152587891] [0.039999999105930328:18.739999771118164] [0.019999999552965164:22.120000839233398] [0.019999999552965164:23.549999237060547] [0.019999999552965164:23.549999237060547] [0.029999999329447746:18.030000686645508] [0.15833333134651184:16.976665496826172] [0.0054773511365056038:3.9413988590240479] [0.29249998927116394:16.048334121704102] [0.037284784018993378:4.8793058395385742] [0.74291664361953735:14.947500228881836] [0.10270173102617264:6.1003446578979492] [0.91666668653488159:14.255000114440918] [0.2245752215385437:6.3414454460144043] [-1:1] [-1:1] [-16.429006576538086:17.609003067016602] [-16.066776275634766:14.705811500549316] [-2.8600006103515625:2.4800000190734863] [-6.2399997711181641:6.2300000190734863] [-9.2900009155273438:8.6399993896484375] [-1.9967226982116699:1.980518102645874] [-1.9739724397659302:1.9827420711517334] [0.21245099604129791:16.993406295776367] [0.39262494444847107:15.969316482543945] [0.78044503927230835:14.696194648742676] [0.0054773511365056038:3.9413988590240479] [0.10270173102617264:6.1003446578979492] [0.28826215863227844:5.7913470268249512] [-1:1] [-1:1] [-0.97492791218182362:0.97492791218182362] [-0.90096886790241903:1] [-1:1] [-1:1] [-1:1] [-1:1] [-1:1] [-1:1] [0:1] [0:1] [0:1] [-0.17000579833984375:0.18000030517578125] [-0.51000213623046875:0.4499969482421875] [-0.720001220703125:0.6100006103515625] [-0.45999908447265625:0.68999481201171875] [-0.8300018310546875:0.57999420166015625] [-4.2700004577636719:4.5200004577636719] [-8.9300022125244141:11.370000839233398] [-12.25:16.560001373291016] [-16.30000114440918:17.130001068115234] [-6.7999992370605469:6.6599998474121094] [-2.9899997711181641:4.2699995040893555] [-7.3899993896484375:6.8400001525878906] [-6.5899991989135742:6.6600003242492676] [92.410003662109375:101.87999725341797] [92.360000610351562:101.90000152587891] [92.44000244140625:101.87999725341797] [92.449996948242188:101.90000152587891] [92.209999084472656:101.87999725341797] [13.479999542236328:39.009998321533203] [13.140000343322754:39.520000457763672] [12.789999961853027:39.049999237060547] [12.800000190734863:39.549999237060547] [12.520000457763672:39.520000457763672] [4.5799999237060547:23.680000305175781] [4.880000114440918:23.680000305175781] [3.8499999046325684:23.860000610351562] [92.421669006347656:101.80166625976562] [0.0081642186269164085:0.27396443486213684] [92.512916564941406:101.66542053222656] [0.064217276871204376:0.26991903781890869] [13.943333625793457:38.775001525878906] [0:5.9559311866760254] [18.012916564941406:33.677501678466797] [0.027396241202950478:6.718207836151123] [-8.2360258102416992:6.5135869979858398] [-81.016006469726562:108.58750152587891] [427.54299926757812:2380.55029296875] [0.64709675312042236:15.462580680847168] [0.090692684054374695:3.8519964218139648] [99.748382568359375:101.53484344482422] [1.3302267789840698:1.4573099613189697] [11.549677848815918:22.648065567016602] [0.17324060201644897:2.8523437976837158] [-9.0025806427001953:8.1680641174316406] [-7.6858139038085938:0.7203216552734375] [-11.687097549438477:5.7787094116210938] [-5.2638306617736816:5.0656752586364746] [-5.3580875396728516:0.52707028388977051] [77.5:80.156303405761719] [7.5:10] [0:30]
tree_sizes=5708 5993 5988 5962 5983 5968 5979 5970 6002 6005 5979 6009 6034 6030 6041 6033 6051 6048 6037 6011 6069 6068 6065 6049 6060 6047 6032 6048 6082 6081 6100 6064 6044 6045 6060 6075 6089 6036 6029 6080 6076 6086 6084 6060 6065 6109 6109 6091 6071 6067 6063 6105 6034 6088 6087 6094 6088 6058 6055 6079 6041 6113 6080 6116 6037 6027 6101 6077 6090 6067 6085 6070 6043 6068 6126 6119 6033 6096 6077 6022 6085 6050 6092 6034 6014 6095 6045 6059 6108 6133 6030 6056 6095 5951 6022 6004 6105 6111 6052 5980 6047 6104 6038 6032 6045 6030 5937 6008 6018 6018 6050 6044 5926 6038 5999 5994 5982 6000 5957 6067 6067 6143 5942 5989 6030 5931 6139 5867 6002 6085 6069 5963 6030 6047 5955 6079 6018 5958 6021 5927 6048 6032 5993 6039 6036 5847 5930 5657 5970 5973 5867 5999 6077 6062 6026 6035 6002 5980 5942 5974 5968 6039 5945 6077 5935 6014 6020 5927 5986 5823 6015 6029 5356 5934 5906 6054 5921 6001 5974 6031 5980 5934 6086 5871 6072 6090 6105 6031 5934 6141 6106 5847 6054 6069 5973 6016 6111 6039 6007 6050 5987 5880 6063 6118 5983 5978 5981 6070 5884 6099 6024 6070 6008 4466 5986 6019 6018 5870 6022 6062 6027 5918 5913 6029 5943 6104 5927 6023 6014 6137 6048 5888 5970 5955 6103 5953 5980 6032 5145 5991 6031 5609 5932 5977 5991 6097 4785 5975 6126 6030 6069 5891 5868 5891 5987 6099 6063 5957 5961 5745 6052 6023 5953 5928 6009 5881 5967 5927 5956 6048 5811 6010 6066 6068 6056 5983 6019 6011 5869 5922 6019 6031 6001 6083 5980 6096 4391 5892 5925 6114 6070 5947 5785 5989 5982 5932 5938 6052 6073 6019 6053 5970 5835 4740 6027 6009 5898 5884 6012 5960 6033 5932 6008 5949 5921 6051 6167 5753 6107 6017 5828 6024 5995 6070 5904 5926 6020 5918 5901 5942 4479 5949 5939 5841 6004 6086 5969 6093 6009 6056 5856 4870 6078 6091 5899 5955 3953 5954 6042 5957 5975 5966 6061 5063 5971 6083 5965 5983 6056 6038 5913 4642 5914 5961 6061 4899 6035 5773 6109 5985 5935 6044 6061 6059 5941 5910 5940 5920 6030 6014 6013 6117 6034 6076 6016 5945 5925 5954 5925 5936 6101 6042 5969 6020 6066 6024 5938 6032 5994 6032 6031 5937 6089 5943 6009 5956 6014 5962 5907 5998 5944 6018 5912 6047 5917 5897 6001 5887 6042 5844 6097 5977 5994 5940 6052 6018 6058 5943 5909 5956 5810 6050 5961 6096 5848 4343 5912 5945 5130 5959 5985 5962 6039 5881 4691 6091 5892 5990 5829 6048 6015 6007 5053 5999 5947 5918 6071 6041 5821 6002 6103 5902 5926 5996 5991 6002 5991 6100 6071 5521 5809 5953 5974 4392 6016 5990 6043 5935 6014 5964 6042 6060 6022 5943 6024 6100 5870 5948 5991 5260 5923 4705 5993 5948 5947 5879 5925 6020 5933 5983

Tree=0
num_leaves=63
num_cat=0
split_feature=0 0 15 23 23 23 84 28 0 15 0 84 84 23 15 23 23 23 23 23 23 23 23 23 23 15 15 28 23 28 23 15 15 23 28 15 15 0 15 23 15 15 28 27 28 28 28 0 28 15 0 23 15 23 28 90 27 11 23 35 55 15
split_gain=1.49362e+06 282120 211122 93917.4 87828.8 57049 40171.3 26158.7 25979.7 24827.8 22798.4 19895.4 17397.5 14676.8 14407.5 10526 9981.28 9452.14 8620.66 8289.89 7918.08 6378.51 5835.1 5277.95 4941.44 4905.06 4861.97 4799.34 4626.74 4545.43 4015.55 3903.24 3789.76 3721.5 3457.77 3380.6 3110.37 3040.03 2953.31 2912.04 2901.68 2766.95 2608.64 2402.15 2321.2 2311.8 2247.56 2123.75 1892.71 1857.85 1751.88 1743.62 1672.52 1667.62 1588.34 1563.29 1540.58 1539.92 1529.97 1456.82 1408.45 1268.72
threshold=6.6050000190734872 9.2650003433227557 4.7343750000000009 0.010000169277191164 -0.059999704360961907 0.1300003528594971 9.8556456565856951 7.9751923084259042 4.0450000762939462 7.9147915840148935 3.4650000333786015 4.5601611137390146 5.2188706398010263 -0.13000035285949704 10.230000019073488 0.29999996721744543 0.36000037193298345 -0.28999997675418848 -0.34999978542327875 0.36000037193298345 -0.37000024318695063 0.049999833106994636 -0.23000007867813108 0.47499990463256841 -0.16000056266784665 6.4056248664855966 9.6664586067199725 2.6066457033157353 -1.0000000180025095e-35 7.2419338226318368 0.4200000017881394 7.0343749523162851 9.3610415458679217 0.40000021457672125 2.0051230192184453 6.4585416316986093 8.693125247955324 8.2849998474121112 6.5414583683013925 -0.33000063896179194 6.3760416507720956 6.6522917747497567 12.215489387512209 -0.1039798855781555 4.3680803775787362 11.999729633331301 4.1484434604644784 5.1449999809265146 2.0967853069305424 7.2031250000000009 5.1050000190734872 -0.47000020742416376 6.1781249046325692 0.20499992370605472 8.7541427612304705 -0.033387660980224602 -0.083401560783386217 4.2174999713897714 0.22499990463256839 -0.70710678118654757 0.66000080108642589 3.3118749856948857
decision_type=2 2 2 2 2 2 2 2 2 2 2 2 2 2 2 2 2 2 2 2 2 2 2 2 2 2 2 2 2 2 2 2 2 2 2 2 2 2 2 2 2 2 2 2 2 2 2 2 2 2 2 2 2 2 2 2 2 2 2 2 2 2
left_child=2 4 5 11 7 8 13 18 24 15 23 39 33 26 21 29 35 38 49 37 54 55 50 34 61 -19 51 -26 42 52 44 -20 53 46 -7 -14 -22 60 -13 43 -18 -17 -16 -4 -12 -30 -5 -24 -25 -2 -10 -3 -6 -15 -9 -8 -40 -41 -34 -37 -11 -1
right_child=1 6 3 12 9 10 14 20 22 19 30 17 16 32 28 41 40 25 31 -21 36 -23 47 48 27 -27 -28 -29 45 -31 -32 -33 58 -35 -36 59 -38 -39 56 57 -42 -43 -44 -45 -46 -47 -48 -49 -50 -51 -52 -53 -54 -55 -56 -57 -58 -59 -60 -61 -62 -63
leaf_value=6.5217361628020756 6.6924920036711244 6.808314169921645 6.6595469781963956 6.6724346363114897 6.7630255972907332 6.5669406549605807 6.8837781065706762 6.7527080265134671 6.5728109824044445 6.8332951820960819 6.6629973457970078 6.6380146360566297 6.743086712825475 6.8900791233932805 6.9562601100892847 6.8319444686105522 6.7984287528327529 6.6870431181309771 6.7403112302379133 6.9239328118768197 6.8065908198941054 6.9649506932451137 6.6289552340287941 6.6262262342869631 6.5426638381487034 6.7335573930440118 6.8933523641562751 6.5935717611089384 7.0064845496979968 6.8251513033120741 6.7361016672730702 6.780202811514191 6.9335293195748617 6.7603810185451465 6.6232129753396158 6.8079275487352939 6.8445855543838903 6.8846193856522788 6.7391481110045177 6.6101259082129582 6.8455134106887536 6.8744802623013257 7.012137525548698 6.583850805772963 6.7134908617582525 7.0632558218282968 6.7214251964382852 6.6711750636216296 6.6826505460946564 6.7327006038439094 6.6192793742724749 6.8534982439437275 6.7999456359781902 6.929633214438172 6.7916411703500881 6.9262328682009997 6.6721652098517019 6.6564278263407797 6.9767398095853661 6.7666666578023786 6.8681250728147498 6.5485065217293776
leaf_weight=8740 7217 2949 1280 3278 5008 4120 4638 6278 4958 6417 5355 8631 10006 7590 7455 6231 7259 12474 12281 8851 14293 8317 7461 2434 8028 10392 7610 11020 7972 16668 6323 12245 7279 4668 8164 3994 8649 12396 1028 2702 5961 9925 2928 5927 3966 2347 8205 4981 3839 4778 3474 7769 7914 4136 4494 4110 5241 5420 2885 4606 5319 9289
leaf_count=8740 7217 2949 1280 3278 5008 4120 4638 6278 4958 6417 5355 8631 10006 7590 7455 6231 7259 12474 12281 8851 14293 8317 7461 2434 8028 10392 7610 11020 7972 16668 6323 12245 7279 4668 8164 3994 8649 12396 1028 2702 5961 9925 2928 5927 3966 2347 8205 4981 3839 4778 3474 7769 7914 4136 4494 4110 5241 5420 2885 4606 5319 9289
internal_value=6.76656 6.85354 6.66439 6.71429 6.8132 6.60965 6.93059 6.77256 6.57943 6.84947 6.66087 6.66848 6.765 6.89581 6.96762 6.82562 6.78645 6.68798 6.74324 6.88253 6.80431 6.93358 6.62406 6.62339 6.55431 6.70818 6.86279 6.57211 6.99567 6.8079 6.70534 6.76023 6.92345 6.72273 6.60432 6.76284 6.82092 6.86734 6.65699 6.62044 6.81966 6.85808 6.97204 6.59728 6.68447 7.01942 6.70743 6.64585 6.66074 6.7085 6.59194 6.84107 6.78564 6.90404 6.76895 6.90374 6.68314 6.64101 6.94581 6.78583 6.84909 6.53552
internal_weight=420173 226949 193224 101072 148964 92152 77985 70235 57951 78729 34201 53095 47977 40218 37767 45746 31826 37766 36521 32983 33714 17065 20874 18557 37077 22866 18328 19048 20702 29590 15644 24526 21890 16151 12284 18606 22942 24132 14900 15329 13220 16156 10383 7207 9321 10319 11483 12442 6273 11995 8432 10718 12922 11726 10772 8748 6269 8122 10164 8600 11736 18029
internal_count=420173 226949 193224 101072 148964 92152 77985 70235 57951 78729 34201 53095 47977 40218 37767 45746 31826 37766 36521 32983 33714 17065 20874 18557 37077 22866 18328 19048 20702 29590 15644 24526 21890 16151 12284 18606 22942 24132 14900 15329 13220 16156 10383 7207 9321 10319 11483 12442 6273 11995 8432 10718 12922 11726 10772 8748 6269 8122 10164 8600 11736 18029
is_linear=0
shrinkage=1


Tree=1
num_leaves=63
num_cat=0
split_feature=0 0 0 23 23 23 84 28 29 28 28 28 23 23 93 23 29 23 23 23 23 23 23 84 23 27 30 30 23 23 23 28 29 55 29 55 6 55 29 29 29 28 23 30 23 29 23 30 23 27 23 30 23 28 30 55 84 23 55 81 27 23
split_gain=1.34694e+06 239826 208151 85457.1 76067.6 62023.9 36986.9 22201.9 19793.2 17188.1 16656.1 16394.8 13823.3 12836.9 12523.3 10336.2 10288.3 9737.93 9624.83 8961.25 7831.03 7395.39 7144.8 6765.85 5836.54 5169.85 4769.65 4150.82 4054.06 4029.81 3214.34 3151.63 3125.57 2848.19 2801.67 2528.29 2524.34 2378.7 2348.47 2345.82 2342.85 2328.87 2202.98 2174.22 2135.48 2128.04 2054.49 1865.11 1846.29 1833.51 1814.07 1772.69 1732.64 1682.55 1649.05 1601.14 1597.15 1506.43 1448.42 1432.61 1382.75 1341.07
threshold=6.7249999046325692 9.2650003433227557 4.4949998855590829 0.030000448226928714 -0.019999742507934567 0.19000000506639483 9.8124194145202654 8.110051631927492 3.1241974830627446 3.2489259243011479 5.8332908153533944 7.844980239868165 0.42000019550323492 -0.10500001907348631 0.16689082235097888 -0.16000005602836606 5.5695197582244882 -0.27999979257583613 -0.28999997675418848 0.36999991536140447 -0.23000007867813108 -0.29999947547912592 0.32999995350837713 11.05467748641968 0.60500001907348644 -0.1263284087181091 5.6335768699646005 10.022926807403566 0.52000004053115856 -0.039999976754188531 -0.089999437332153306 7.2936429977417001 4.4363551139831552 0.57000064849853527 6.7218379974365243 0.74000072479248058 8.4149999618530291 0.36999988555908209 2.4776005744934086 4.2672040462493905 8.5835437774658221 1.9113134741783144 0.039999976754188545 10.190370559692385 -0.36999964714050287 4.5555272102355966 -0.55500006675720204 6.8256213665008554 -0.4000000655651092 -0.086051225662231431 -0.53999984264373768 8.9682269096374529 -0.54999947547912587 10.585548400878908 7.1503405570983896 0.16000080108642581 12.018064498901369 0.22499990463256839 0.34999942779541021 -1.1984111070632932 -0.17084701359272 -0.49999998509883875
decision_type=2 2 2 2 2 2 2 2 2 2 2 2 2 2 2 2 2 2 2 2 2 2 2 2 2 2 2 2 2 2 2 2 2 2 2 2 2 2 2 2 2 2 2 2 2 2 2 2 2 2 2 2 2 2 2 2 2 2 2 2 2 2
left_child=2 4 5 10 7 9 13 17 28 30 20 19 16 27 29 25 45 46 49 34 61 52 40 42 39 -11 -14 44 41 43 60 -19 -17 -20 -6 -18 -15 -22 -32 -10 -13 -7 -16 -8 -3 -5 -2 -21 -27 -12 -51 -23 -9 -31 -48 -36 -25 -38 -33 -28 -1 -4
right_child=1 6 3 12 11 8 14 21 24 15 18 22 26 36 23 32 35 31 33 47 37 51 -24 56 -26 48 59 -29 -30 53 38 58 -34 -35 55 -37 57 -39 -40 -41 -42 -43 -44 -45 -46 -47 54 -49 -50 50 -52 -53 -54 -55 -56 -57 -58 -59 -60 -61 -62 -63
leaf_value=-0.17965985284300029 -0.073524914611296732 0.049462232653580823 -0.16717584394165941 -0.072503518015034407 0.017823339207532041 -0.18530779361179422 0.10431230882795775 -0.012996797596766125 -0.085562024636169437 -0.10127585835960606 -0.029089872984247062 0.083508102832714592 0.01649935211361565 0.12798288333702923 0.17791364603998563 -0.14044162307292116 -0.0082789734890052202 -0.016216091577495938 -0.050211742391674787 0.07663864786054124 -0.10449178489127767 0.052347834910142811 0.14854162981376892 0.23997376037884216 -0.0016694993198889986 -0.20844389004803554 0.093841336901521299 0.12399863728816281 -0.096148928280678919 0.16625591079748719 -0.21264689346052254 0.011471169590102139 -0.093450218578508146 -0.0063056599732369953 0.037577317327049053 0.029869197128664385 0.1523645349455845 -0.063417871229191319 -0.16976039122850833 -0.036855992776890827 0.11716594712189932 -0.13360381348598646 0.2137696668091835 0.15852482237830909 0.091675496272520543 -0.032295094878480021 -0.053080179837368457 0.11623922790507611 -0.17430256830120724 -0.12682238933157683 -0.085649134060731366 0.085494801068016685 0.025934568010854815 0.22130349747585984 -0.016518236542693899 0.06797885402665213 0.29549237160522396 0.1912449521130922 0.045914087855895701 0.048521012618772973 -0.22888435148765507 -0.13219856883334127
leaf_weight=1629 4038 4854 4019 4808 6927 3303 4215 4085 7885 1868 1006 14026 7965 8042 8739 10803 8465 9248 12933 5649 10352 13082 9105 5026 4244 7080 3797 6789 5126 5534 5851 11547 5278 5171 7437 8918 8112 5356 7122 3605 8210 6468 8522 3313 7848 10437 5482 6305 9151 4023 8038 5839 9508 1872 7053 10389 1784 3634 4149 3233 12982 8788
leaf_count=1629 4038 4854 4019 4808 6927 3303 4215 4085 7885 1868 1006 14026 7965 8042 8739 10803 8465 9248 12933 5649 10352 13082 9105 5026 4244 7080 3797 6789 5126 5534 5851 11547 5278 5171 7437 8918 8112 5356 7122 3605 8210 6468 8522 3313 7848 10437 5482 6305 9151 4023 8038 5839 9508 1872 7053 10389 1784 3634 4149 3233 12982 8788
internal_value=-8.10566e-06 0.085225 -0.0940584 -0.046691 0.0465057 -0.14907 0.155496 0.0114297 -0.0908936 -0.17792 -0.0865469 0.084665 0.00326113 0.121241 0.189987 -0.154213 -0.0150007 -0.0128017 -0.0612804 0.0619841 -0.114164 0.0423702 0.111226 0.212311 -0.051779 -0.180138 0.0429961 0.0924308 -0.132199 0.153992 -0.207289 0.00693646 -0.125025 -0.0376723 0.0448126 0.0112925 0.149613 -0.0904919 -0.189118 -0.0702854 0.0959402 -0.1511 0.195628 0.128189 0.0755495 -0.0449804 -0.0425085 0.0975339 -0.189207 -0.093983 -0.0993924 0.0625812 0.0142344 0.180199 -0.0325114 0.0552984 0.25456 0.164409 0.0205783 0.0730097 -0.223409 -0.143187
internal_weight=420067 220363 199704 107309 142079 92395 78284 74031 30631 61764 59686 68048 47623 39279 39005 34180 32628 41517 31171 36707 28515 32514 31341 24071 15734 18099 14995 19491 14897 14934 27584 24944 16081 18104 24753 17383 19788 15708 12973 11490 22236 9771 17261 7528 12702 15245 16573 11954 16231 13067 12061 18921 13593 7406 12535 17826 6810 11746 15696 7030 14611 12807
internal_count=420067 220363 199704 107309 142079 92395 78284 74031 30631 61764 59686 68048 47623 39279 39005 34180 32628 41517 31171 36707 28515 32514 31341 24071 15734 18099 14995 19491 14897 14934 27584 24944 16081 18104 24753 17383 19788 15708 12973 11490 22236 9771 17261 7528 12702 15245 16573 11954 16231 13067 12061 18921 13593 7406 12535 17826 6810 11746 15696 7030 14611 12807
is_linear=0
shrinkage=0.05


Tree=2
num_leaves=63
num_cat=0
split_feature=84 29 84 90 24 84 55 24 29 93 29 17 90 29 29 24 29 81 84 24 24 55 55 24 84 24 97 29 84 84 24 90 24 27 24 24 55 29 24 55 20 55 24 55 29 29 24 29 17 84 29 24 24 90 55 24 65 84 81 90 89 90
split_gain=1.16254e+06 238013 158720 64681.6 48888.7 44934.2 35765 22896.8 21828.2 21691.6 17687.6 16382.2 15600.9 13392.8 12451.5 11141.3 10702.5 9816.7 8766.89 8704.72 8694.27 8330.96 6772.23 6226.03 5404.64 4935.14 4306.74 3619.56 3462.9 3096.11 2944.21 2891.81 2856.45 2798.18 3076.37 2783.21 2619.7 2605.12 2499.18 2368.97 2293.35 2018.79 2018.29 1964.45 1906.53 1897.07 1884.26 1838.45 1790.62 1687.6 1621.3 1607.41 1606.09 1603.64 1584.78 1571.76 1544.39 1537.93 1503.04 1497.85 1387.13 1325.78
threshold=6.5087096691131601 8.9472079277038592 4.4311289787292489 -2.2787096500396724 -0.019999742507934567 9.4891939163208026 -0.075000762939453111 0.26499986648559576 7.4664385318756112 -0.97773841023445118 3.837974071502686 4.9215624332427987 -0.54903256893157948 10.811708927154543 7.5641212463378915 -0.32999968528747553 2.8627060651779179 -0.57055580615997303 5.3269355297088632 0.21000027656555179 1.000000059604645 0.050000190734863288 0.27999973297119146 -0.74000018835067738 5.4285483360290536 0.025000095367431644 27.500000000000004 9.9869475364685076 5.3269355297088632 9.3030648231506365 -0.80999982357025135 -2.1829030513763423 -0.67000004649162281 -0.11369279772043227 -0.80999982357025135 1.2799998521804812 0.68999958038330089 3.837974071502686 1.0999999642372134 -0.31500053405761713 0.5228705406188966 -0.25999927520751948 -1.0900000929832456 0.41000080108642584 12.030807018280031 6.530081272125245 1.1999998688697817 6.8026204109191903 3.5226042270660405 12.018064498901369 2.8026137351989751 -0.56500005722045887 -0.63000005483627308 0.63983869552612316 -0.10999965667724608 1.000000059604645 30.045000076293949 5.4285483360290536 -0.74749305844306935 0.77516150474548351 1.08488005399704 1.1480638980865481
decision_type=2 2 2 2 2 2 2 2 2 2 2 2 2 2 2 2 2 2 2 2 2 2 2 2 2 2 2 2 2 2 2 2 2 2 2 2 2 2 2 2 2 2 2 2 2 2 2 2 2 2 2 2 2 2 2 2 2 2 2 2 2 2
left_child=2 3 7 11 14 15 12 10 21 26 36 48 31 19 32 27 38 28 61 51 39 45 30 54 59 44 58 42 -11 56 -12 -4 -5 -24 -35 -23 -1 46 -9 -10 52 -17 -3 -25 -15 -6 -18 -34 -2 -27 -38 -7 -20 -26 -16 -21 -13 -33 -8 -19 -30 -14
right_child=1 5 6 4 8 13 9 16 20 17 22 29 18 25 23 41 37 24 40 55 -22 35 33 43 53 49 -28 -29 60 -31 -32 57 47 34 -36 -37 50 -39 -40 -41 -42 -43 -44 -45 -46 -47 -48 -49 -50 -51 -52 -53 -54 -55 -56 -57 -58 -59 -60 -61 -62 -63
leaf_value=-0.20437811183744145 -0.16586239473049341 0.035715486944871054 -0.18875830751806785 -0.046725630721536376 -0.0027027117090224701 0.099405123490208663 -0.035872787530003829 -0.16122897663202615 0.063781501339109301 -0.0120034264648419 -0.17411747898433202 -0.073378928929612355 -0.10427964553889105 0.17001338895813051 -0.0074330104958643872 0.10945076739201286 -0.111083931621414 -0.065891929340103919 -0.079057477814261229 0.16529009898153016 0.13537752419438473 0.049802111162629913 -0.057621300471783932 0.035577200396657481 -0.02139194002068984 0.22288237760277119 -0.16210966907890789 0.10524553442877538 0.010653589689920962 0.018072627951164495 -0.13222101163195696 -0.1502620230441373 -0.033247183885667844 -0.1520636884932591 -0.09589044027313659 0.082649296104300565 -0.19362309339457895 -0.05226293429649731 -0.11232570399920656 0.094436742253218908 -0.029049649982465925 0.14625906623649287 0.075557999198810302 0.069187020093841839 0.21745259446423504 0.032619537749685429 -0.062697998364232038 0.00596895943195199 -0.10854849030643246 0.27878874911311086 -0.15537715650914671 0.13553867965426541 -0.04778432100529182 0.017283519591040734 0.032941378541621415 0.19917818423306799 -0.0020167174138045864 -0.1022199709290719 -0.099920913508825107 -0.020470443206052381 0.043565091101645755 -0.052672074300854965
leaf_weight=16112 2887 4909 2405 6882 6749 4780 1400 6992 9977 8276 9720 2512 13480 7771 10791 6111 6066 9637 7321 8795 11300 15654 2298 17567 10602 6923 2424 7179 5640 2826 7419 3151 4484 4120 5994 10978 5136 5872 4193 17167 8081 9629 9035 5780 2940 8701 3019 8956 2602 1704 6118 8738 9368 3586 3136 5678 1086 3565 2659 2238 7408 1375
leaf_count=16112 2887 4909 2405 6882 6749 4780 1400 6992 9977 8276 9720 2512 13480 7771 10791 6111 6066 9637 7321 8795 11300 15654 2298 17567 10602 6923 2424 7179 5640 2826 7419 3151 4484 4120 5994 10978 5136 5872 4193 17167 8081 9629 9035 5780 2940 8701 3019 8956 2602 1704 6118 8738 9368 3586 3136 5678 1086 3565 2659 2238 7408 1375
internal_value=0.000169425 0.0742419 -0.0932721 0.036485 0.0461266 0.141526 -0.0516807 -0.144655 0.0712841 -0.0236005 -0.162448 -0.0752958 -0.0827113 0.173764 0.0109528 0.100131 -0.105911 -0.0118639 -0.0691369 0.151642 0.0985203 0.0464006 -0.135615 0.0281185 -0.0324481 0.205774 -0.109373 0.0763955 0.0132951 -0.0210898 -0.155991 -0.141669 -0.0205315 -0.107468 -0.118786 0.0633449 -0.191418 -0.0782354 -0.142908 0.0831721 -0.05092 0.131977 0.0615353 0.0439008 0.183054 0.0171903 -0.0950142 -0.00711589 -0.138719 0.233957 -0.172848 0.12277 -0.0615072 -0.0116159 0.00165961 0.178598 -0.0518473 -0.12478 -0.0778454 -0.0573345 0.0293414 -0.099507
internal_weight=419902 234227 185675 150035 138122 84192 102616 83059 80526 53870 56917 11913 48746 47329 57596 36863 26142 47387 39625 27991 38444 42082 29551 37274 26063 19338 6483 21123 21324 6424 17139 9121 20322 12412 10114 26632 27366 14957 11185 27144 24770 15740 13944 23347 10711 15450 9085 13440 5489 8627 11254 13518 16689 14188 13927 14473 3598 6716 4059 11875 13048 14855
internal_count=419902 234227 185675 150035 138122 84192 102616 83059 80526 53870 56917 11913 48746 47329 57596 36863 26142 47387 39625 27991 38444 42082 29551 37274 26063 19338 6483 21123 21324 6424 17139 9121 20322 12412 10114 26632 27366 14957 11185 27144 24770 15740 13944 23347 10711 15450 9085 13440 5489 8627 11254 13518 16689 14188 13927 14473 3598 6716 4059 11875 13048 14855
is_linear=0
shrinkage=0.05


Tree=3
num_leaves=63
num_cat=0
split_feature=0 0 15 23 23 23 15 15 0 23 0 15 0 23 23 23 23 1 23 23 23 23 0 23 15 0 0 23 15 0 2 23 0 0 23 23 15 0 15 35 23 0 15 15 1 2 23 0 81 0 15 0 15 15 0 23 35 35 81 15 15 15
split_gain=1.0992e+06 206726 159260 68944.4 65438.4 46701.9 34393.8 21442.5 20191.4 19475.1 18146.1 15234.5 13947.3 11115 8519.51 7978.89 7561.89 7122.73 6148.8 5285.96 5259.48 4958.15 4533.25 4487.94 4470.85 4442.9 4419.92 3903.75 3594.86 3461.21 3450.31 3367.36 3298.38 2779.94 2629.94 2514.51 2448.21 2429.35 2347.58 2343.78 2202.55 2105.15 2016.34 1977.68 1672.76 1614.4 1606.07 1573.61 1571.41 1563.19 1561.35 1516.56 1390.28 1352.08 1294.85 1288.96 1284.36 1261.52 1248.3 1247.91 1199.11 1158.66
threshold=6.6050000190734872 9.1549997329711932 4.8531250953674325 0.030000448226928714 0.019999988377094272 0.1300003528594971 10.230000019073488 7.3039584159851083 3.9450000524520878 -0.035000324249267571 3.4650000333786015 7.7435417175292978 5.2249999046325692 0.40000021457672125 -0.34999978542327875 -0.029999852180480954 -0.27500009536743159 5.0050001144409189 -0.32999980449676508 0.40999990701675421 -0.16000005602836606 0.38999992609024053 10.215000152587892 -0.23999983072280881 3.1168749332427983 11.234999656677248 8.1050000190734881 -0.13000035285949704 6.2347917556762704 10.25500011444092 2.6149998903274541 0.40999990701675421 11.234999656677248 7.5950000286102304 -0.34999978542327875 0.36999991536140447 6.7281250953674325 7.9249999523162851 6.5414583683013925 -0.70710678118654757 0.52999979257583629 5.3450000286102304 8.7252082824707049 6.8310415744781503 4.2650001049041757 4.2550001144409189 -0.46000002324581141 5.1849999427795419 -1.3230940699577329 2.0749999284744267 5.8843750953674325 7.5350000858306894 8.7585415840148944 6.6772916316986093 4.3949999809265146 -0.42499995231628412 -0.70710678118654757 -0.70710678118654757 -1.7820294499397276 11.401458263397219 8.4768748283386248 3.5360416173934941
decision_type=2 2 2 2 2 2 2 2 2 2 2 2 2 2 2 2 2 2 2 2 2 2 2 2 2 2 2 2 2 2 2 2 2 2 2 2 2 2 2 2 2 2 2 2 2 2 2 2 2 2 2 2 2 2 2 2 2 2 2 2 2 2
left_child=2 4 5 12 7 8 9 18 27 22 24 21 23 17 37 25 43 48 51 42 41 38 34 50 49 55 57 61 54 35 -29 44 -17 -20 -3 60 -18 -9 -6 -19 -26 -10 -13 -14 -12 -25 -24 -22 -5 -7 -4 -2 -28 -23 -15 -8 -47 -16 -30 -27 -11 -1
right_child=1 6 3 13 11 10 15 14 20 29 31 19 16 28 26 32 36 39 33 -21 47 53 46 45 40 59 52 30 58 -31 -32 -33 -34 -35 -36 -37 -38 -39 -40 -41 -42 -43 -44 -45 -46 56 -48 -49 -50 -51 -52 -53 -54 -55 -56 -57 -58 -59 -60 -61 -62 -63
leaf_value=-0.20956736140880952 -0.071457378367382876 0.040022728409019832 -0.15037803929312243 -0.01310980183822193 0.019860026603967667 -0.16621319131052861 0.091791254680339163 -0.02831138734713215 -0.16035350691404626 0.097575117295412378 -0.089518270670522565 0.078073388463326385 -0.10283124442972971 -0.011425321527582088 0.047928585061659805 0.18528493920557004 -0.053841258316343392 0.027551320753637934 -0.022746125010555653 0.13814274950124114 -0.11428607576023292 0.062542649873743458 0.074325261163774539 -0.12267742355824721 -0.11399675018557574 0.16273794553056461 0.048802350632580843 -0.19109821003181673 0.088989047387795631 0.16993606398400465 -0.14584597963080934 -0.024006622605942385 0.23331146567564962 0.013367587401174592 0.081843873195575734 0.1637772708708837 -0.016603860877301681 0.014405485698005975 0.05298308834154123 -0.0099648421235994621 -0.062180692620058819 -0.11573190918015351 0.10980968967684304 -0.062578675784817378 -0.048170258046134028 -0.050344567155753299 0.12108007928234804 -0.075864112240586257 -0.058772078766416581 -0.12569023343995483 -0.1128884274189256 -0.03325532582891047 0.077433342742218803 0.099088394183203143 0.02972960832596945 0.14028963259266902 -0.092560478423412043 0.017224292410678212 0.046350974280510937 0.20423049723146464 0.13072204882642058 -0.18465853470543256
leaf_weight=11149 5755 5637 6244 2481 8410 4730 1759 5847 8776 4133 5010 13080 8539 2857 4473 7946 11026 6783 12759 7915 7175 4597 2409 2495 6283 3656 10577 7664 2956 8853 9421 7054 6562 9149 11307 4376 7363 7724 14709 10775 3052 3805 8129 4760 4790 2937 7829 4257 7844 4844 5045 4742 7090 5657 5769 6342 4682 13274 4106 3673 8147 8231
leaf_count=11149 5755 5637 6244 2481 8410 4730 1759 5847 8776 4133 5010 13080 8539 2857 4473 7946 11026 6783 12759 7915 7175 4597 2409 2495 6283 3656 10577 7664 2956 8853 9421 7054 6562 9149 11307 4376 7363 7724 14709 10775 3052 3805 8129 4760 4790 2937 7829 4257 7844 4844 5045 4742 7090 5657 5769 6342 4682 13274 4106 3673 8147 8231
internal_value=-0.00014043 0.0745565 -0.0878531 -0.0425203 0.038359 -0.133383 0.137588 0.0088112 -0.160168 0.113268 -0.088085 0.0768382 -0.0807741 0.00409224 0.0296846 0.180387 -0.0597087 -0.0148502 -0.0227418 0.103265 -0.124555 0.053774 0.0838147 -0.111958 -0.12171 0.15533 0.0425924 -0.183616 0.0377586 0.144648 -0.166156 -0.0503552 0.207022 -0.00766453 0.0679341 0.131198 -0.0389333 -0.00399923 0.0409355 0.00452885 -0.0970649 -0.146869 0.0902421 -0.0884301 -0.0693159 -0.0877495 0.110087 -0.099987 -0.0478027 -0.145726 -0.133636 -0.054205 0.0602964 0.0827127 0.0160984 0.129772 -0.0762963 0.0249656 0.0642091 0.183558 0.119575 -0.198999
internal_weight=419419 226516 192903 96662 143887 96241 82629 81390 60478 52691 35763 62497 53091 43571 48985 29938 31688 27883 32405 29124 24013 33373 27182 21403 18909 15430 35414 36465 15688 25509 17085 16854 14508 21908 16944 16656 18389 13571 23119 17558 9335 12581 21209 13299 9800 10114 10238 11432 10325 9574 11289 10497 17667 10254 8626 8101 7619 17747 7062 7329 12280 19380
internal_count=419419 226516 192903 96662 143887 96241 82629 81390 60478 52691 35763 62497 53091 43571 48985 29938 31688 27883 32405 29124 24013 33373 27182 21403 18909 15430 35414 36465 15688 25509 17085 16854 14508 21908 16944 16656 18389 13571 23119 17558 9335 12581 21209 13299 9800 10114 10238 11432 10325 9574 11289 10497 17667 10254 8626 8101 7619 17747 7062 7329 12280 19380
is_linear=0
shrinkage=0.05


Tree=4
num_leaves=63
num_cat=0
split_feature=0 0 0 23 23 23 28 23 23 28 28 28 30 28 23 30 23 23 23 30 23 23 23 81 23 23 28 23 23 23 30 28 28 35 30 55 35 28 30 81 30 30 23 23 28 23 23 55 28 30 0 28 23 55 26 23 30 28 30 65 65 55
split_gain=992158 176745 155363 69403 58873.8 43414.6 26559 18460.2 15980.3 15469.9 15216.1 12810.8 12613.3 11111.3 11040.9 9970.29 7360.21 7316.8 6748.27 5894.88 5588.18 4828.36 4363.71 3797.4 3729.82 3702.8 3306.37 3155.07 2531.91 2432.44 2421.58 2358.01 2343.17 2295.25 2256.12 2204.43 2200.9 2198.22 2179.41 1980.73 1902.59 1901.63 1759.95 1740.21 1706.42 1689.69 1581.67 1579.91 1555.1 1522.39 1458.01 1457.89 1400.03 1370.6 1243.76 1229.75 1224 1156.56 1087.27 1084.41 1055.2 1030.66
threshold=6.7249999046325692 9.3350000381469744 4.3450000286102304 -0.050000131130218499 -0.099999666213989244 0.19000017642974856 10.793376445770265 -0.069999814033508287 0.30999995768070226 8.0004000663757342 8.110051631927492 5.7663216590881357 3.4730099439620976 3.1973510980606084 0.24000048637390139 5.6335768699646005 -0.11500024795532225 -0.21000002324581143 0.21999984979629519 5.5729024410247812 -0.37000024318695063 -0.4000000655651092 -0.43000018596649164 -0.70950558781623829 -0.32000011205673212 0.30000042915344244 2.0967853069305424 -0.41000005602836603 -0.014999866485595701 0.57000041007995617 6.6144814491271982 12.215489387512209 11.999729633331301 -0.70710678118654757 7.1967320442199716 0.78999996185302745 -0.70710678118654757 9.9974260330200213 5.0788068771362314 -1.6983836293220518 9.2503924369812029 4.4948694705963144 0.63000035285949718 0.64499998092651378 8.7226667404174822 0.56000030040740978 0.53999999165534984 0.32000064849853521 6.9747447967529306 5.2890808582305917 5.7850000858306894 1.9113134741783144 0.15999990701675418 0.48000049591064459 0.075227968394756331 -0.42499995231628412 6.9545814990997323 6.503875970840455 9.0682487487792987 29.954999923706058 29.814999580383304 0.25499916076660162
decision_type=2 2 2 2 2 2 2 2 2 2 2 2 2 2 2 2 2 2 2 2 2 2 2 2 2 2 2 2 2 2 2 2 2 2 2 2 2 2 2 2 2 2 2 2 2 2 2 2 2 2 2 2 2 2 2 2 2 2 2 2 2 2
left_child=2 4 5 11 10 13 7 27 15 14 21 24 26 28 30 41 32 38 47 43 56 -2 -12 42 -4 37 -7 -3 59 48 -6 52 55 -22 -23 -19 -17 -9 -15 -21 -29 -5 -14 -10 -24 -28 -20 -11 -16 -26 -38 -30 -18 -32 -37 -8 -13 -35 -27 -1 -40 -36
right_child=1 6 3 8 9 12 16 25 19 18 22 20 23 17 29 36 31 35 46 39 33 34 44 -25 49 58 45 40 51 -31 53 -33 -34 57 61 54 50 -39 60 -41 -42 -43 -44 -45 -46 -47 -48 -49 -50 -51 -52 -53 -54 -55 -56 -57 -58 -59 -60 -61 -62 -63
leaf_value=-0.19726604980441104 -0.049564632654641207 0.050663053367873828 -0.1344630673207072 -0.075142915801736737 0.0063230567161148572 -0.14174001805601474 0.10467325244878851 0.11544640922686918 -0.01001384410583504 0.066618143890894432 -0.001396034691687046 -0.10519839545319463 -0.035174167125167397 -0.17412470870616462 0.042523534415006829 0.017798346179707367 0.17738186358397734 -0.12789991202549328 0.11233516450027187 0.079085621832669609 -0.0098284790267064766 -0.024172701901128649 0.029605912705701728 -0.069662024058656222 -0.10869769725413055 0.14844107097577064 -0.10637527408224808 0.071245895500475678 -0.18903044288215631 0.10412843722353482 0.027733247329796835 0.24652137756394887 0.1844029007291228 -0.064211491702706486 -0.0022508155826419631 -0.10188589441468093 -0.03842080442122639 0.15007293546342401 -0.14678478980475107 0.036016416376675797 0.10616536029978432 -0.040794911160216912 0.021177455974813436 0.031044888215898736 0.05856931115808163 -0.05849886400745874 0.15266467743713522 0.0941168487862869 0.078100225119209304 -0.076133488920811065 -0.002684863364199189 -0.14630114268857203 0.21364452122760735 0.053740852428028729 -0.048525797834044426 0.14687311108006826 -0.069348893133224745 -0.034647859580667621 0.18426483445570707 -0.16571899264973458 -0.090758511827769658 0.028802394042079266
leaf_weight=13642 9422 6168 9786 6535 7822 5682 2540 11234 8241 13731 7701 6067 4114 10236 4527 8213 6357 10237 9379 4478 3770 10688 11222 7154 8288 3739 6749 6389 2843 6275 11709 2523 3170 9267 9040 5414 4466 7784 3072 6618 10064 10527 2088 3756 9307 2542 3299 8452 9588 6358 7907 6864 4666 8936 1372 5490 3937 5153 5010 3463 1167 3792
leaf_count=13642 9422 6168 9786 6535 7822 5682 2540 11234 8241 13731 7701 6067 4114 10236 4527 8213 6357 10237 9379 4478 3770 10688 11222 7154 8288 3739 6749 6389 2843 6275 11709 2523 3170 9267 9040 5414 4466 7784 3072 6618 10064 10527 2088 3756 9307 2542 3299 8452 9588 6358 7907 6864 4666 8936 1372 5490 3937 5153 5010 3463 1167 3792
internal_value=5.28532e-05 0.0733194 -0.0805467 -0.0420217 0.0410482 -0.130955 0.13555 0.114713 -0.00560677 0.0682925 0.00376206 -0.0840508 -0.0801713 -0.155626 0.0501348 -0.0256924 0.177974 -0.135477 0.0937377 0.0271379 -0.0610821 -0.0193224 0.0306995 -0.0448404 -0.110552 0.14203 -0.111681 0.0811761 -0.179291 0.0782193 0.0300166 0.202783 0.147952 -0.0445693 -0.00720565 -0.113239 -0.00226658 0.129626 -0.161619 0.0534038 0.092611 -0.0539546 -0.0162014 0.00284185 0.0427392 -0.0932846 0.122841 0.0770995 0.0666942 -0.0945677 -0.0155861 -0.158834 0.19275 0.0389927 -0.091107 0.13354 -0.0910989 -0.0536504 0.168974 -0.19089 -0.131387 0.0069269
internal_weight=420030 220024 200006 113367 144890 86639 75134 50388 60741 83718 61172 52626 28329 58310 48857 37648 24746 31498 34861 23093 28194 32942 28230 13356 24432 27767 14973 22621 26812 20390 28467 13546 11200 18190 23520 17023 20586 19018 14475 11096 16453 17062 6202 11997 20529 9291 12678 22183 14115 14646 12373 9707 11023 20645 6786 8030 10004 14420 8749 17105 4239 12832
internal_count=420030 220024 200006 113367 144890 86639 75134 50388 60741 83718 61172 52626 28329 58310 48857 37648 24746 31498 34861 23093 28194 32942 28230 13356 24432 27767 14973 22621 26812 20390 28467 13546 11200 18190 23520 17023 20586 19018 14475 11096 16453 17062 6202 11997 20529 9291 12678 22183 14115 14646 12373 9707 11023 20645 6786 8030 10004 14420 8749 17105 4239 12832
is_linear=0
shrinkage=0.05


Tree=5
num_leaves=63
num_cat=0
split_feature=0 0 15 23 23 23 15 15 28 0 23 15 23 84 84 28 23 23 23 15 23 23 23 23 23 23 23 27 23 28 15 23 28 23 23 28 15 35 15 84 28 0 84 84 0 0 28 28 81 28 15 28 84 28 23 15 84 15 23 23 0 35
split_gain=898124 175180 126813 57501.9 54422.5 35368.8 31322.5 16435.2 14629.1 14537 13998.1 13734.5 12941 10114.9 9517.2 6842.68 6408.58 5596.96 5075.52 4577.35 4403.07 4034.15 3945.53 3916.94 3613.25 3579.06 3173 2896 2781.4 2759.05 2675.04 2660.28 2903.72 2616.57 2510.96 2473.97 2443.05 2407.98 2255.67 2151.65 2151.31 1929.95 1880.75 1711.74 1663.84 1625.71 1555.66 1535.17 1437.46 1426.82 1313.65 1279 1266.54 1192.99 1146.66 1116.45 1036.31 1029.29 994.038 990.364 963.047 927.307
threshold=6.5450000762939462 9.0749998092651385 4.7343750000000009 -0.039999976754188531 -0.019999742507934567 0.10500001907348634 9.8077082633972186 7.4268751144409189 2.8665081262588505 3.9450000524520878 -0.035000324249267571 7.4018750190734872 0.32000041007995611 10.200806617736818 4.903064727783204 5.123420476913453 0.40000021457672125 -0.30999982357025141 -0.27999979257583613 6.0904166698455819 -0.19000002741813657 0.23000004887580874 -0.37000024318695063 0.47499990463256841 -0.31000004708766932 0.47499990463256841 0.05000042915344239 -0.089139558374881731 -0.34999978542327875 4.1017179489135751 6.6235415935516366 -0.20000022649765012 2.5411310195922856 -0.42499995231628412 0.34000039100646978 8.1381740570068377 8.599375247955324 -0.70710678118654757 11.401458263397219 7.2145164012908944 7.2936429977417001 10.25500011444092 3.9382257461547856 7.0846776962280282 5.305000066757203 3.8950001001358037 12.215489387512209 9.7519750595092791 -1.6213480830192564 6.8940966129302987 6.292708396911622 1.8090135455131533 3.8933871984481816 10.048243522644045 0.15999990701675418 6.4327082633972177 8.8740324974060076 6.9839582443237314 0.15000033378601077 0.60500001907348644 5.7850000858306894 -0.70710678118654757
decision_type=2 2 2 2 2 2 2 2 2 2 2 2 2 2 2 2 2 2 2 2 2 2 2 2 2 2 2 2 2 2 2 2 2 2 2 2 2 2 2 2 2 2 2 2 2 2 2 2 2 2 2 2 2 2 2 2 2 2 2 2 2 2
left_child=2 4 5 14 7 9 10 18 25 31 28 21 15 20 27 52 36 39 43 42 56 49 55 29 -11 51 38 57 53 -10 -24 -1 -33 -29 47 -19 58 -17 -15 -9 -20 -30 -14 -2 -26 -35 -28 -12 -21 -6 -23 -7 -5 -3 -22 -16 -8 -4 -13 -44 -39 -38
right_child=1 6 3 12 11 8 13 17 23 24 34 16 19 26 22 37 -18 35 40 48 54 50 30 -25 44 -27 46 33 41 -31 -32 32 -34 45 -36 -37 61 60 -40 -41 -42 -43 59 -45 -46 -47 -48 -49 -50 -51 -52 -53 -54 -55 -56 -57 -58 -59 -60 -61 -62 -63
leaf_value=-0.18435247204018768 -0.060669974499816787 0.030329452044940169 -0.081452093913590054 -0.086236412197443629 -0.000199773986122118 -0.16334047286642764 0.072341408436316548 -0.022235532730769704 -0.090164553276705708 -0.14733497833551867 0.10043646521608435 0.050902800939540187 -0.047642221303769494 0.14367010274466593 -0.10866246093794428 0.013902406398332214 0.11925884646595127 0.021512330102681977 -0.022654511469409631 0.073618837318200833 0.13659696967747634 0.039162632839725292 -0.065419880840387343 -0.025391590998539344 -0.11333455727324371 -0.087768281403746373 0.19129503782043722 -0.1461351349243093 0.069096492396664044 -0.047149982471176979 -0.026630436511971757 -0.18017472203098214 -0.13984400238341615 -0.13890818466620355 0.14891386752108945 0.052511276916473532 0.11185666585393719 -0.037366913881950112 0.18948990065996882 0.016041164512297198 0.010801053576592978 0.10838958841712142 -0.00062231742552824941 -0.025717640371024603 -0.076952130201902988 -0.091793357377322901 0.24684571734129224 0.13319276383899215 0.034401369212255145 0.032144268728557766 0.069632157643184353 -0.12623631143493219 -0.047267870801904935 0.06986735538140143 0.16919579554731545 -0.072535059907414212 0.11182427144878367 -0.013744279428536753 0.073825395473466157 0.032484264237211236 -0.0099649626342105425 0.080462646802115192
leaf_weight=14977 8117 5382 2145 2842 5171 3623 2436 6329 8896 6339 10192 9854 1524 7130 4405 7640 9798 11901 9789 4083 7958 5803 11254 6339 10289 5007 7950 5439 11071 6425 7350 7467 11189 2412 6527 14024 3824 5491 4342 8741 9436 4362 5849 6167 4541 7680 1516 5540 5471 10008 9085 6585 7857 2958 4130 4181 5294 761 9124 3679 7709 6173
leaf_count=14977 8117 5382 2145 2842 5171 3623 2436 6329 8896 6339 10192 9854 1524 7130 4405 7640 9798 11901 9789 4083 7958 5803 11254 6339 10289 5007 7950 5439 11071 6425 7350 7467 11189 2412 6527 14024 3824 5491 4342 8741 9436 4362 5849 6167 4541 7680 1516 5540 5471 10008 9085 6585 7857 2958 4130 4181 5294 761 9124 3679 7709 6173
internal_value=0.0001526 0.0665249 -0.0804727 -0.0408598 0.0325804 -0.122718 0.122589 0.00296602 -0.0848538 -0.148194 0.0943204 0.0646309 -0.00499129 0.154513 -0.0818511 -0.0251247 0.084298 0.0241974 -0.0230083 0.0258238 0.128894 0.039267 -0.0630423 -0.058454 -0.115722 -0.12243 0.178754 -0.109584 0.0676351 -0.0721306 -0.0500976 -0.168628 -0.155995 -0.118158 0.122816 0.0382826 0.0724719 -0.00843629 0.161028 -3.41094e-05 -0.00623391 0.080209 0.0039118 -0.0455828 -0.1022 -0.103067 0.200217 0.11198 0.0511678 0.0211261 0.0577596 -0.13942 -0.0576267 0.0443599 0.147748 -0.0910811 0.0993934 -0.0637339 0.0619268 0.0121625 -0.0213661 0.0924818
internal_weight=419581 230132 189449 97772 143344 91677 86788 74504 36875 54802 46032 68840 52145 40756 45627 31539 38773 40995 33509 20606 19818 30067 27190 21660 21169 15215 20938 18437 23773 15321 18604 33633 18656 15531 22259 25925 28975 20840 11472 15070 19225 15433 11052 14284 14830 10092 9466 15732 9554 15179 14888 10208 10699 8340 12088 8586 7730 2906 18978 9528 13200 9997
internal_count=419581 230132 189449 97772 143344 91677 86788 74504 36875 54802 46032 68840 52145 40756 45627 31539 38773 40995 33509 20606 19818 30067 27190 21660 21169 15215 20938 18437 23773 15321 18604 33633 18656 15531 22259 25925 28975 20840 11472 15070 19225 15433 11052 14284 14830 10092 9466 15732 9554 15179 14888 10208 10699 8340 12088 8586 7730 2906 18978 9528 13200 9997
is_linear=0
shrinkage=0.05


Tree=6
num_leaves=63
num_cat=0
split_feature=15 84 84 23 15 23 23 1 84 15 23 15 11 15 84 23 23 23 15 1 75 1 15 23 93 23 23 1 23 1 1 81 15 15 84 1 15 1 23 23 15 25 23 84 25 11 23 25 81 23 23 23 15 1 24 27 81 25 23 1 27 15
split_gain=798953 158856 122289 39239.7 37106.1 36036.3 26823.2 18894.1 16104.2 14537.3 11211.3 10960.1 10700.7 10383.7 8396.71 8376.92 6191.59 5883.92 4749.56 4731.3 4623.63 4516.41 4037.98 3992.71 3650.09 3608.98 3587.57 3366.58 3293.73 3087.58 3074.94 2964.4 2373.16 2257.61 2248.6 2095.76 2089.75 2024.55 1919.87 1901.27 1829.44 1705.41 1484.79 1476.52 1447 1439.02 1291.24 1271.06 1264.99 1260.87 1233.6 1203.4 1173.74 1089.23 1080.04 1065.26 1051.25 1046.28 1042.76 1037.38 1028.53 1027.34
threshold=6.6235415935516366 8.5911288261413592 4.7920966148376474 -0.11000007390975951 9.5347914695739764 0.11000037193298341 0.065000057220458998 4.805000066757203 6.8682258129119882 4.1685416698455819 0.099999934434890761 3.6264582872390752 3.7108333110809331 7.9147915840148935 10.313709735870363 -0.19000002741813657 0.23000004887580874 -0.28999997675418848 8.1689581871032733 6.8849999904632577 100.08229064941408 7.5150001049041757 8.2477083206176776 0.049999833106994636 0.16689082235097888 0.47499990463256841 0.23000004887580874 6.3750000000000009 -0.47000020742416376 6.6449999809265146 2.185000061988831 -1.0980134606361387 3.6264582872390752 3.9647916555404668 11.760483741760256 7.9949998855590829 8.1947913169860858 6.4649999141693124 0.38000035285949713 -0.44000004231929774 5.1477084159851083 -0.47999998927116388 0.29999996721744543 3.2820967435836796 0.67999988794326793 4.9758331775665292 -0.46000002324581141 -0.18000018596649167 -1.7279761433601377 -0.51999995112419117 -0.34000009298324579 -0.090000391006469713 5.353541612625123 8.8649997711181658 1.4699998497962954 0.034685492515563972 -1.4797084927558897 1.8000004291534426 -0.12000009417533873 10.434999942779543 -0.11934400349855422 5.3202083110809335
decision_type=2 2 2 2 2 2 2 2 2 2 2 2 2 2 2 2 2 2 2 2 2 2 2 2 2 2 2 2 2 2 2 2 2 2 2 2 2 2 2 2 2 2 2 2 2 2 2 2 2 2 2 2 2 2 2 2 2 2 2 2 2 2
left_child=2 3 6 8 10 7 12 32 28 20 22 30 33 16 23 21 29 45 49 52 -7 39 47 50 51 27 35 48 55 -5 38 -13 -4 -1 58 -15 57 -30 -8 -9 -19 -24 -32 -33 -18 60 -20 -3 -11 -10 -6 -16 -17 -48 -38 -2 -28 -12 -26 -52 -14 -27
right_child=1 4 5 13 14 9 11 15 18 25 36 31 17 26 24 19 44 40 46 -21 -22 -23 41 -25 34 61 56 -29 37 -31 42 43 -34 -35 -36 -37 54 -39 -40 -41 -42 -43 -44 -45 -46 -47 53 -49 -50 -51 59 -53 -54 -55 -56 -57 -58 -59 -60 -61 -62 -63
leaf_value=-0.17144487971471248 -0.052852717299625068 0.015950943158963189 -0.15177002445683893 -0.0029121213247472987 0.087236014769686496 -0.12751289142496122 -0.15330829827093276 -0.10479873159378512 -0.033579452464704763 0.018262584216760063 0.071018959731987477 -0.02627851773553402 -0.092422814583708865 0.044448711036850691 0.11591760897038716 -0.058488519040056842 0.041884489465573466 -0.10996021134388896 0.013677690942115829 0.0025842068246961173 -0.038918060558249923 -0.032461869255768792 0.056290521098545557 0.15053499692960215 0.15029699636284749 0.016369030559935147 0.11648402460449257 0.031478741168108816 -0.048585662629291017 0.033525419904583596 -0.10852706647782906 -0.093212332123940853 -0.10146796394855206 -0.13702823355697366 0.22616698917247935 0.077692229326074988 0.11525789942723241 -0.010583703858972199 -0.10496034286513939 -0.070721916261354476 -0.075237770077862184 0.08822534765973411 -0.067813412622327041 -0.058056617640449774 0.072593654152648221 -0.12472631103138548 0.030747132891375473 0.051453566230089058 -0.018288662939346136 0.0054587058278973109 0.10296226696781147 0.15676809707711881 -0.032576570901898999 0.060348836403618371 0.14940686028029249 -0.097780907844878265 0.083739185503397151 0.10694439984359372 0.18348420813122179 0.1337448017984767 -0.1617773994674771 0.047874082887602414
leaf_weight=18007 5447 3773 4561 8788 4516 2016 4900 6063 2402 2955 3631 5654 583 8704 3165 7466 6293 11580 4265 8155 5464 6181 6318 9459 3438 3947 4805 6798 5204 17175 5258 4394 4852 6522 2478 10430 9687 10733 3557 12655 5660 12411 3916 9363 9851 6614 6215 7607 11882 14853 5517 4254 10557 6225 3066 1744 5044 4621 7897 5493 7165 7523
leaf_count=18007 5447 3773 4561 8788 4516 2016 4900 6063 2402 2955 3631 5654 583 8704 3165 7466 6293 11580 4265 8155 5464 6181 6318 9459 3438 3947 4805 6798 5204 17175 5258 4394 4852 6522 2478 10430 9687 10733 3557 12655 5660 12411 3916 9363 9851 6614 6215 7607 11882 14853 5517 4254 10557 6225 3066 1744 5044 4621 7897 5493 7165 7523
internal_value=-7.50666e-05 0.0639466 -0.0743999 0.0273775 0.112105 -0.0363095 -0.11572 -0.0607637 -0.00349395 0.000138787 0.0827454 -0.0826911 -0.137514 0.0521683 0.144572 -0.0487656 0.0363127 -0.118271 0.0184213 -0.0290156 -0.0628105 -0.0695279 0.0631825 0.124912 0.167699 0.0143637 0.0752013 0.00234258 -0.0356729 0.0211921 -0.111229 -0.0567652 -0.125856 -0.1623 0.182909 0.0625732 0.110783 -0.0229953 -0.132989 -0.0817651 -0.0985659 0.0774564 -0.0911579 -0.0692917 0.0606267 -0.141916 0.0374246 0.0396857 -0.0110079 2.24381e-05 0.109293 0.13936 -0.0433135 0.0455639 0.123479 -0.0637617 0.099725 0.0911478 0.173433 0.118331 -0.156572 0.0370355
internal_weight=419757 225509 194248 128178 97331 101075 93173 60490 57088 40585 51114 37042 56131 71090 46217 51077 42107 31602 33960 26178 7480 24899 30109 24985 21232 33105 28983 21635 23128 25963 17631 19411 9413 24529 13813 19134 21005 15937 8457 18718 17240 18729 9174 13757 16144 14362 16705 11380 14837 17255 15526 7419 18023 12440 12753 7191 9849 8252 11335 11010 7748 11470
internal_count=419757 225509 194248 128178 97331 101075 93173 60490 57088 40585 51114 37042 56131 71090 46217 51077 42107 31602 33960 26178 7480 24899 30109 24985 21232 33105 28983 21635 23128 25963 17631 19411 9413 24529 13813 19134 21005 15937 8457 18718 17240 18729 9174 13757 16144 14362 16705 11380 14837 17255 15526 7419 18023 12440 12753 7191 9849 8252 11335 11010 7748 11470
is_linear=0
shrinkage=0.05


Tree=7
num_leaves=63
num_cat=0
split_feature=0 15 0 23 23 24 15 15 0 23 15 29 23 0 28 23 23 23 23 23 23 23 27 15 0 23 23 29 28 0 23 35 0 23 0 0 23 23 15 15 81 0 15 28 0 29 81 28 23 23 29 0 81 23 27 2 27 23 11 35 27 23
split_gain=730386 125683 125195 49848.4 43251 34363.6 17090.6 15177 12462.8 12081.3 11632.7 10212 9992.11 8605.76 7271.93 6999.77 5389.59 5199.07 4988.7 4988 4195.23 3421.29 3374.75 3363.65 3258.58 3188.3 3014.93 2979.93 2760.42 2610.02 2431.54 2392.74 2292.72 2228.4 1972.34 1936.93 1838.12 1813.31 1756.44 1705.55 1608.88 1504.44 1498.91 1471.71 1469.67 1367.61 1364.2 1330.35 1301.68 1212.56 1208.57 1196.15 1125.73 1086.8 1043.29 1035.06 1027.55 977.14 972.919 955.693 923.29 915.323
threshold=6.8450000286102304 4.9685416221618661 9.5250000953674334 -0.080000102519989 -0.11000007390975951 0.47999966144561773 10.291041851043703 8.2212500572204608 3.7949999570846562 0.33999994397163397 7.7685418128967294 3.4247946739196782 -0.080000102519989 5.5050001144409189 5.5334150791168222 0.23000004887580874 -0.020000338554382321 -0.12000009417533873 0.26000000536441809 -1.0000000180025095e-35 0.38000035285949713 0.34000039100646978 -0.099552646279335008 6.4585416316986093 8.4650001525878924 -0.43000018596649164 -0.44000004231929774 2.6825497150421147 7.5509147644042978 11.614999771118166 -0.42499995231628412 -0.70710678118654757 5.2650001049041757 0.30999995768070226 7.8650000095367441 11.614999771118166 -0.49999998509883875 -0.46000002324581141 6.8047916889190683 6.7022917270660409 -1.2586753964424131 8.555000305175783 3.5360416173934941 10.396868705749513 3.995000004768372 2.1576732397079472 -1.3685069680213926 10.333554267883303 0.53999999165534984 -0.38999962806701655 2.2445931434631352 5.1050000190734872 -1.8659381866455076 -0.41000005602836603 -0.069769129157066331 5.2650001049041757 -0.056342707946896546 0.61999997496604931 4.6524999141693124 -0.5 -0.036037594079971307 -0.27999979257583613
decision_type=2 2 2 2 2 2 2 2 2 2 2 2 2 2 2 2 2 2 2 2 2 2 2 2 2 2 2 2 2 2 2 2 2 2 2 2 2 2 2 2 2 2 2 2 2 2 2 2 2 2 2 2 2 2 2 2 2 2 2 2 2 2
left_child=1 5 4 13 10 8 12 15 16 14 26 20 36 22 40 28 42 32 41 29 50 58 -3 46 37 -15 -2 -18 59 61 -24 -16 53 47 -28 -21 -4 -12 -27 -17 -5 60 -1 -38 -32 -22 -11 -14 -41 -26 -7 -48 -25 -10 -40 -19 -39 -20 -13 -6 -9 -8
right_child=2 3 6 9 7 11 19 18 17 23 24 21 33 25 31 39 27 55 57 35 45 -23 30 52 49 38 34 -29 -30 -31 44 -33 -34 -35 -36 -37 43 56 54 48 -42 -43 -44 -45 -46 -47 51 -49 -50 -51 -52 -53 -54 -55 -56 -57 -58 -59 -60 -61 -62 -63
leaf_value=-0.16934451731047798 -0.044498910790100106 -0.045790839264460953 0.041866789054395961 -0.012927857360550214 0.035607800410623919 -0.14587754290759211 0.096354887145961049 0.08839866255921891 -0.15333905727145078 0.03651695980223351 -0.019021489216354871 -0.074118626847267041 0.10364177919897488 -0.077574308722789392 0.023954616903161099 0.04706181649911817 -0.14644276236990159 -0.083453966652969003 0.10775296358645613 0.16031605487271192 -0.10135384836463153 -0.012999272246082045 -0.12962825613894943 0.078616483106747834 0.023215075443052492 -0.051547193047061901 -0.020115650567458787 -0.10226879548015094 0.044524884306056979 0.15858361671150764 -0.12530650811438829 -0.0091288754481776233 -0.092028364947922367 0.14855362333620678 0.010923467610014977 0.20154349150592538 0.070239226566927007 0.065644176895043191 0.029861687525331155 0.068003381372622643 -0.050539756106264579 0.08772852932738559 -0.14420058342936889 0.10402560659576759 -0.07954696225669286 -0.05681016447599159 -0.019738742749028235 0.13612533210613051 0.10100840060120693 0.053672516764526369 -0.10454940800667947 0.020550036331947984 0.041536024910568327 -0.12027553855143146 -0.026816773279694246 -0.04883395910200912 0.016169934030503898 0.14257064550872761 -0.039660847192960903 0.0077445748777987822 0.052854746259429569 0.12858026052135837
leaf_weight=14701 7334 3140 3698 3742 4277 2539 3656 2377 3749 4629 3712 4658 10749 7086 8335 6571 6787 7687 8255 7954 2309 7892 5470 3390 4785 10355 12381 8767 17869 5859 2201 15869 5571 6333 8723 4484 9833 1161 919 10036 11853 10850 10050 4808 8739 6824 3426 4485 4265 10326 5922 3983 5180 7520 6914 3011 10868 2686 3666 10972 7949 5633
leaf_count=14701 7334 3140 3698 3742 4277 2539 3656 2377 3749 4629 3712 4658 10749 7086 8335 6571 6787 7687 8255 7954 2309 7892 5470 3390 4785 10355 12381 8767 17869 5859 2201 15869 5571 6333 8723 4484 9833 1161 919 10036 11853 10850 10050 4808 8739 6824 3426 4485 4265 10326 5922 3983 5180 7520 6914 3011 10868 2686 3666 10972 7949 5633
internal_value=0.000155072 -0.0667487 0.0651718 -0.0284453 0.0390475 -0.1064 0.121449 0.0616761 -0.126922 0.00119868 0.00618333 -0.0652161 0.100524 -0.0683943 -0.0148915 0.0454842 -0.144639 -0.100988 0.088893 0.151714 -0.0915969 -0.0365893 -0.093305 0.0322722 0.0274462 -0.0491221 -0.0168844 -0.121553 0.03119 0.132425 -0.102393 0.00226422 -0.118307 0.123598 -0.00728598 0.175194 0.0733842 0.0115235 -0.0380333 0.0681623 -0.0415166 0.0747207 -0.159141 0.0813411 -0.0887643 -0.0680821 0.0152255 0.113214 0.0778532 0.0440305 -0.116968 0.00191925 0.0562118 -0.131288 -0.0201634 -0.073716 0.0209505 0.116313 -0.0589502 0.0155617 0.0610451 0.115909
internal_weight=419773 206884 212889 105231 145397 101653 67492 86107 67843 60407 59290 33810 39906 44824 39799 53990 40305 27538 32117 27586 17594 16216 19550 20608 30852 25274 28438 15554 33118 15148 16410 24204 16840 21567 21104 12438 18339 15741 18188 20872 15595 21176 24751 14641 10940 9133 12038 15234 14301 15111 8461 7409 8570 11269 7833 10698 12029 10941 8324 15249 10326 9289
internal_count=419773 206884 212889 105231 145397 101653 67492 86107 67843 60407 59290 33810 39906 44824 39799 53990 40305 27538 32117 27586 17594 16216 19550 20608 30852 25274 28438 15554 33118 15148 16410 24204 16840 21567 21104 12438 18339 15741 18188 20872 15595 21176 24751 14641 10940 9133 12038 15234 14301 15111 8461 7409 8570 11269 7833 10698 12029 10941 8324 15249 10326 9289
is_linear=0
shrinkage=0.05


Tree=8
num_leaves=63
num_cat=0
split_feature=0 0 15 23 23 0 23 23 15 0 15 81 15 0 23 23 0 23 15 23 23 23 23 15 28 15 23 23 23 23 23 23 1 29 23 0 23 23 29 1 23 35 35 1 55 0 15 0 23 28 1 23 1 55 0 23 57 1 23 28 35 23
split_gain=665786 143065 82373.4 44634.5 41213 29603 22773.1 14979.2 13441.5 9970.48 8622.31 8422.13 7815.38 7186.83 6718.88 5810.86 4645.88 4381.59 4215.31 3529.24 3511.54 3485.56 3468.6 3118.39 3064.31 3062.02 2851.13 2484.2 2315.49 2262.08 2231.59 2121.37 2059.08 2048.07 1834.56 1764.02 1755.39 1663.46 1588.43 1584.82 1581.08 1415.16 1386.95 1328.52 1326.29 1312.69 1277.75 1277.28 1236.59 1217.52 1200.45 1098.4 1056.66 1007.97 964.411 946.777 944.188 936.036 925.916 914.814 868.61 811.284
threshold=6.3550000190734872 8.8249998092651385 4.4968750476837167 -0.0099998712539672834 0.030000448226928714 10.494999885559084 0.19000000506639483 0.019999988377094272 7.1554167270660409 3.6350001096725468 7.5002083778381357 -1.4797084927558897 5.9454166889190683 3.054999947547913 -0.12000009417533873 -0.26999992132186884 5.0250000953674325 -0.23500013351440427 9.0614581108093279 -0.33000063896179194 -0.12000009417533873 -0.38000008463859553 0.44000017642974859 10.966249942779543 11.540012359619142 9.026041507720949 0.4200000017881394 -0.13000035285949704 0.48999983072280889 0.25000001490116125 0.57000041007995617 -0.32000011205673212 7.9049999713897714 2.4010121822357182 0.65999990701675426 4.9449999332427987 -0.27999979257583613 -0.67999958992004383 6.2751562595367441 7.305000066757203 0.56000030040740978 -0.70710678118654757 0.78656609248549303 8.1149997711181658 0.76999950408935558 4.8250000476837167 6.2060418128967294 7.5050001144409189 0.28000044822692877 1.9113134741783144 4.2149999141693124 0.46000009775161749 5.4449999332427987 0.89000034332275402 7.7750000953674325 -0.57999980449676503 1.0000000180025095e-35 4.7550001144409189 0.20499992370605472 12.959925174713137 0.60355339059327384 -0.53999984264373768
decision_type=2 2 2 2 2 2 2 2 2 2 2 2 2 2 2 2 2 2 2 2 2 2 2 2 2 2 2 2 2 2 2 2 2 2 2 2 2 2 2 2 2 2 2 2 2 2 2 2 2 2 2 2 2 2 2 2 2 2 2 2 2 2
left_child=2 4 6 12 8 7 9 18 17 27 26 30 19 34 23 37 28 47 31 -4 45 56 41 55 42 51 38 -1 53 -18 46 -3 -17 -29 49 -21 -20 -10 -6 -19 50 -12 58 -39 52 -11 -5 61 -27 -8 -15 -9 -23 -13 -43 -7 -14 -22 -16 -26 -34 -2
right_child=1 5 3 11 10 14 13 25 15 20 22 16 21 40 24 32 29 39 36 35 57 44 -24 -25 59 48 -28 33 -30 -31 -32 -33 60 -35 -36 -37 -38 43 -40 -41 -42 54 -44 -45 -46 -47 -48 -49 -50 -51 -52 -53 -54 -55 -56 -57 -58 -59 -60 -61 -62 -63
leaf_value=-0.16044138542031672 -0.080057463499439749 0.018544936383787524 -0.11684450120790223 -0.0029925290049449683 0.0019208717106288754 0.056958620173322108 -0.13033553252372121 0.083855010448250417 -0.04601609514226393 -0.13364776336831197 0.079640034088388698 -0.066289752037801672 -0.089508471354831573 -0.068777791555000245 0.13864772891409724 0.015588365254849988 -0.018895612091333804 -0.021938698207437237 0.056902452529114647 -0.09580202266682368 -0.093705859786852641 -0.079169912479191071 0.10319464740321729 0.14135571715782183 0.17706509645795537 0.11257186823325538 0.058724078853140398 -0.1559868449843208 -0.0066954322659690275 0.016011393310628886 0.059162135661394048 0.054379527836811582 0.050854597691609972 -0.11948752825085021 -0.058495038211120058 -0.062366005105971706 0.08931123944897805 -0.015844120598538968 0.033308721703790477 0.0078645447704768848 -0.018208191657568054 0.036273945825565611 0.11629212088371804 0.012916278979721314 -0.020519745195699338 -0.10048039251447294 0.034009906189191662 -0.025563204127828334 0.14356693111526161 -0.094550564982823437 -0.032784122627436421 0.11910706646153353 -0.041204672291880545 -0.037477014884857281 0.063929167382869245 0.10053264811909811 -0.044531524200188473 -0.063429622615255962 0.16781964489805479 0.23436366267996572 0.026665157721961659 -0.046866654273157685
leaf_weight=15432 2439 6275 10305 5223 5329 1487 3892 10466 2259 7879 8236 5654 6311 6930 6198 13580 10540 9549 6939 7961 6834 2500 7318 5404 5409 7920 9293 6015 3932 8291 3742 12092 10199 10751 2259 7842 10538 7391 16550 8369 3579 5141 3738 8789 5571 4837 4215 5859 5469 6169 3485 2812 6889 6569 8176 7882 1436 4095 4938 813 5842 7554
leaf_count=15432 2439 6275 10305 5223 5329 1487 3892 10466 2259 7879 8236 5654 6311 6930 6198 13580 10540 9549 6939 7961 6834 2500 7318 5404 5409 7920 9293 6015 3932 8291 3742 12092 10199 10751 2259 7842 10538 7391 16550 8369 3579 5141 3738 8789 5571 4837 4215 5859 5469 6169 3485 2812 6889 6569 8176 7882 1436 4095 4938 813 5842 7554
internal_value=3.03385e-05 0.0544288 -0.0729267 -0.0417192 0.0222988 0.100762 -0.109764 0.0799837 -0.000785295 -0.127835 0.0537587 -0.00757046 -0.0754129 -0.0714105 0.136971 0.0162013 -0.0204032 -0.0249598 0.0588693 -0.0940718 -0.103171 -0.0539558 0.073447 0.111093 0.155087 0.108361 0.0355218 -0.145944 -0.040074 -0.00352629 0.0264924 0.0421388 0.0299182 -0.132591 -0.09926 -0.0792152 0.0764481 -0.00583417 0.0256643 -0.00801849 -0.0468867 0.063342 0.142734 -0.000221287 -0.0398536 -0.121041 0.013534 -0.044107 0.125243 -0.108406 -0.0567386 0.0913294 -0.0513215 -0.0508097 0.0532568 0.0936242 -0.0811789 -0.0823689 0.151598 0.184589 0.0420475 -0.0549753
internal_weight=419391 240253 179138 96981 141873 98380 82157 62511 81830 55843 60043 48166 48815 26314 35869 48060 34986 33770 35844 26108 23645 22707 28871 14773 21096 26667 31172 32198 16155 18831 13180 18367 29621 16766 12320 15803 17477 18439 21879 17918 13994 21553 14874 16180 14960 12716 9438 15852 13389 10061 10415 13278 9389 12223 13317 9369 7747 10929 11136 6222 16041 9993
internal_count=419391 240253 179138 96981 141873 98380 82157 62511 81830 55843 60043 48166 48815 26314 35869 48060 34986 33770 35844 26108 23645 22707 28871 14773 21096 26667 31172 32198 16155 18831 13180 18367 29621 16766 12320 15803 17477 18439 21879 17918 13994 21553 14874 16180 14960 12716 9438 15852 13389 10061 10415 13278 9389 12223 13317 9369 7747 10929 11136 6222 16041 9993
is_linear=0
shrinkage=0.05


Tree=9
num_leaves=63
num_cat=0
split_feature=0 0 15 55 24 24 15 84 24 84 15 0 28 81 84 84 21 27 15 15 15 21 15 24 24 25 84 15 81 24 24 84 24 24 24 15 15 84 21 84 24 28 94 91 24 91 24 24 21 27 28 24 27 89 21 81 90 24 81 84 55 42
split_gain=600593 121309 81319.2 28112.9 28083.3 25198.1 23820 13676.7 8689.61 8419.16 8279.48 7868.25 7713.93 7043.43 5684.26 4420.65 3806.22 3790.92 3593.3 3117.57 3009.7 2919.58 2739.87 2604.22 2492.08 2367.09 2283.27 2217.11 2124.94 2033.54 1936.39 1922.58 1771.67 1724.89 1661.15 1551.69 1483.47 1476.63 1469.85 1447.71 1304.83 1297.61 1272.91 1172.17 1140.9 1083.26 1076.74 1052.64 1048.78 997.06 984.407 967.165 948.867 872.371 827.952 769.387 761.625 755.991 730.085 726.522 714.434 702.214
threshold=6.4749999046325692 8.9449996948242205 4.8531250953674325 0.14000034332275393 -0.24999999254941938 0.3599997758865357 10.109791278839113 7.3711290359497079 0.21000027656555179 7.4930644035339364 6.4056248664855966 3.4050000905990605 3.5454852581024174 -1.7556010484695432 10.313709735870363 5.1887094974517831 -4.1050982475280753 -0.083401560783386217 8.4468750953674334 8.6285414695739764 8.0677084922790545 4.4138197898864755 3.1168749332427983 -0.7900000512599944 -0.33999979496002192 -2.5650000572204585 4.2308065891265878 2.7318749427795415 -0.065664026886224733 0.82500004768371593 -0.70000052452087391 11.760483741760256 1.4100005626678469 -0.4199997186660766 -0.42999958992004389 6.6235415935516366 6.4868750572204599 9.0330643653869647 -2.4290261268615718 5.9770967960357675 1.2600000500679018 4.5764532089233407 0.15590816736221316 0.21500015258789065 -0.97999998927116383 0.11306381225585939 1.2399998307228091 1.6100003719329836 -5.7926149368286124 -0.11934400349855422 7.7374103069305429 -0.23000000417232511 -0.1263284087181091 1.0367358326911928 -2.7669053077697749 -0.70950558781623829 0.36838746070861822 -1.3400000929832456 -0.081012155860662446 3.8933871984481816 -0.19999980926513669 0.30618621408939367
decision_type=2 2 2 2 2 2 2 2 2 2 2 2 2 2 2 2 2 2 2 2 2 2 2 2 2 2 2 2 2 2 2 2 2 2 2 2 2 2 2 2 2 2 2 2 2 2 2 2 2 2 2 2 2 2 2 2 2 2 2 2 2 2
left_child=2 3 5 7 10 11 8 21 19 28 26 27 22 39 33 55 42 38 61 -3 24 30 46 59 -9 -19 49 -1 45 36 50 48 -14 -8 52 -32 -17 -21 -12 -6 -20 60 -11 -18 -28 -5 -7 -24 -16 -4 -2 -22 -29 -47 -30 -15 -33 -51 -45 -13 -25 -10
right_child=1 6 4 9 13 12 14 20 18 16 17 23 32 15 31 29 43 25 40 37 51 -23 47 41 -26 -27 44 34 54 -31 35 56 -34 -35 -36 -37 -38 -39 -40 -41 -42 -43 -44 58 -46 53 -48 -49 -50 57 -52 -53 -54 -55 -56 -57 -58 -59 -60 -61 -62 -63
leaf_value=-0.15513166867772371 -0.052560478465301132 0.038547996724923289 -0.059241323418749936 0.016050992993455245 0.01435563471428118 -0.11559514954364972 0.092391850571405379 -0.005650004910586837 0.066659918264181758 0.063412104176166426 0.039256961998128191 -0.13842442674919464 -0.050931341414243131 -0.023108733082691752 0.15597742938123016 -0.025551382017532705 0.037657936147231667 -0.07781031418988707 0.10490873101726789 0.055874219107821414 0.030867717222489217 0.0060118617765453578 -0.07610799140747132 -0.11211077623281362 0.025382625044816046 -0.034462839207413533 -0.084420117232956116 -0.10326259590789842 0.032807145205294826 0.01931705127293153 -0.02672392206903117 0.15692318001062244 -0.014531885168250045 0.1250425961809179 -0.10998748734157134 0.0054630896126770306 0.0058970325557842398 0.082831161731939343 -0.021375552807435628 0.052515855305393128 0.13643635976824095 -0.075420239319608673 0.10028094670779751 0.073653202725083924 -0.058468780208712282 0.0329171562954775 -0.080169183057676716 -0.03464406561170192 0.12793057595453322 -0.13084087022389285 -0.022954348130354657 0.055602171179071881 -0.1439564878677326 0.061554633497807237 0.0065705165308216785 -0.04932389071661733 0.20285220827311209 -0.096385011694585757 0.050509343012061482 -0.10952008971895438 -0.086897170861301609 0.094879346653983954
leaf_weight=10393 7189 10606 1241 2906 5455 7126 7465 10406 6991 3247 1891 4030 11417 4342 6982 9307 6955 4507 12813 8613 10032 9870 6862 6483 17098 10465 7181 1666 4545 7153 9626 1616 4729 8886 8646 6127 6279 12430 2118 4567 4436 8609 8469 7326 10369 4380 3087 1974 6478 2399 4612 6529 10844 6790 8886 7894 2130 4823 6399 4811 5012 3236
leaf_count=10393 7189 10606 1241 2906 5455 7126 7465 10406 6991 3247 1891 4030 11417 4342 6982 9307 6955 4507 12813 8613 10032 9870 6862 6483 17098 10465 7181 1666 4545 7153 9626 1616 4729 8886 8646 6127 6279 12430 2118 4567 4436 8609 8469 7326 10369 4380 3087 1974 6478 2399 4612 6529 10844 6790 8886 7894 2130 4823 6399 4811 5012 3236
internal_value=-0.000104238 0.0531639 -0.0672557 0.0240212 -0.0331346 -0.0993443 0.0976222 0.00490548 0.0785232 0.0500246 -0.0610666 -0.118916 -0.0657022 -0.00520359 0.13127 -0.0157931 0.0672972 -0.0359542 0.0990972 0.0606592 0.0237825 -0.0173213 -0.0872533 -0.10008 0.0136416 -0.0475163 -0.0793882 -0.136192 0.0296801 -0.00275263 -0.0256794 0.151339 -0.0402722 0.110143 -0.126881 -0.0142052 -0.0128821 0.071801 0.00722553 0.0317492 0.113025 -0.0901229 0.0900697 0.0543917 -0.0690919 0.0432548 -0.104897 -0.0668503 0.14249 -0.100729 -0.0409933 0.0406221 -0.138546 0.0503297 0.015451 -0.0400244 0.183087 -0.107848 0.0628677 -0.12271 -0.101126 0.0755979
internal_weight=419754 234074 185680 141392 89991 95689 92682 81489 59125 59903 44994 60494 35195 44997 33557 34975 32396 18981 27476 31649 44065 37424 19049 28945 27504 14972 26013 31549 27507 22739 27554 17206 16146 16351 21156 15753 15586 21043 4009 10022 17249 20104 11716 20680 17550 14076 10213 8836 13460 8463 11801 16561 12510 11170 13431 12236 3746 7222 13725 8841 11495 10227
internal_count=419754 234074 185680 141392 89991 95689 92682 81489 59125 59903 44994 60494 35195 44997 33557 34975 32396 18981 27476 31649 44065 37424 19049 28945 27504 14972 26013 31549 27507 22739 27554 17206 16146 16351 21156 15753 15586 21043 4009 10022 17249 20104 11716 20680 17550 14076 10213 8836 13460 8463 11801 16561 12510 11170 13431 12236 3746 7222 13725 8841 11495 10227
is_linear=0
shrinkage=0.05


Tree=10
num_leaves=63
num_cat=0
split_feature=0 0 0 23 23 23 15 15 15 15 15 15 15 23 23 23 23 23 23 23 23 23 23 23 27 28 81 23 28 27 23 84 0 0 23 28 15 84 84 0 23 55 84 55 15 0 29 35 28 28 55 23 23 23 15 23 55 27 15 23 0 23
split_gain=541834 100583 87284.1 41255.2 32756 27795.1 11950.3 11656.5 11338.3 9081.83 8343.31 8326.77 7770.43 7310.13 4989.59 4284.79 4167.04 4143.67 3849.47 3715.97 3167.95 3155.99 3092.74 2727.98 2664.13 2590.83 2342.4 2306.95 2205.29 1859.78 1813.85 1761.5 1561.51 1561.22 1547.29 1515.67 1455.84 1359.09 1353.84 1339.11 1335.75 1326.16 1285.33 1236.07 1217.6 1207.2 1164.69 1148.5 1054.57 1036.14 1026.09 988.483 923.096 847.697 814.102 774.595 727.796 718.18 713.86 698.732 675.973 662.021
threshold=6.9649999141693124 4.5450000762939462 9.5950002670288104 0.070000410079956069 0.019999988377094272 0.23000000417232516 10.356041431427004 6.0047917366027841 7.8902082443237314 4.0847916603088388 8.2212500572204608 3.9225000143051152 6.0622916221618661 -0.11000007390975951 -0.23000007867813108 -0.26999992132186884 -0.23999983072280881 -0.21999955177307126 -0.13999962806701657 -0.27999979257583613 0.59000039100646984 -0.15000033378601071 0.48000004887580877 0.47499990463256841 -0.1263284087181091 2.6066457033157353 -0.76594972610473622 0.44000017642974859 2.180703997612 -0.035226285457611077 0.32999995350837713 11.270000457763674 8.0749998092651385 8.0150003433227557 -0.55500006675720204 5.5334150791168222 9.2437500953674334 3.3348387479782109 7.9727418422698983 12.00500011444092 -0.50000005960464466 1.1300001144409182 7.1127419471740732 0.78999996185302745 7.0839583873748788 5.6250000000000009 4.514728546142579 -0.5 10.651347637176515 10.333554267883303 0.66000080108642589 0.69999986886978161 -0.65999960899353016 0.65999990701675426 7.3785417079925546 0.73000013828277599 0.74000072479248058 -0.080784797668457017 6.6235415935516366 -0.54999947547912587 3.054999947547913 0.1449999809265137
decision_type=2 2 2 2 2 2 2 2 2 2 2 2 2 2 2 2 2 2 2 2 2 2 2 2 2 2 2 2 2 2 2 2 2 2 2 2 2 2 2 2 2 2 2 2 2 2 2 2 2 2 2 2 2 2 2 2 2 2 2 2 2 2
left_child=1 5 4 7 8 9 13 16 15 21 22 28 23 40 29 42 45 24 39 38 41 60 32 46 -11 -23 51 50 -7 56 49 61 47 58 -31 -18 -21 -19 52 59 -4 -14 -2 -39 -16 -3 -5 -6 -42 -15 -12 -13 -10 -30 -43 -28 -9 -46 -17 -8 -1 -20
right_child=2 3 6 12 10 11 18 14 19 17 27 26 20 30 44 33 35 37 31 36 -22 25 -24 -25 -26 -27 55 -29 53 34 -32 -33 -34 -35 -36 -37 -38 43 -40 -41 48 54 -44 -45 57 -47 -48 -49 -50 -51 -52 -53 -54 -55 -56 -57 -58 -59 -60 -61 -62 -63
leaf_value=-0.15280951577070379 -0.03967568700592599 -0.1020529054360315 0.03467031621811912 -0.043099991579976085 0.049056832092560149 -0.10343768119094519 0.059960055427524445 -0.043078638979733616 -0.034869918823614753 -0.058089626271301167 0.06626474455328972 -0.01469627527169419 0.0086950856159725264 0.089916749536877671 -0.023613005867408741 -0.014959612998100386 -0.067444169743622634 -0.096760973167223832 0.12629537143353814 0.038093413616379933 0.069124601920905165 -0.13458686986927862 0.076756193781606835 0.016905689399092122 -0.12224108476042712 -0.10050100190852607 -0.05179218213764504 0.11411850761554927 -0.07055330796273511 -0.091557750519562109 0.13180057774782236 0.17356409654391824 0.055636629032595031 0.02585463782845231 -0.049917692033662198 -0.039514237372276349 0.065324223474130291 -0.0794323734293787 0.030733121558956168 0.13555092727905929 0.062098425215629506 0.025579761324058314 -0.011458530311860012 -0.04548472647636178 0.041255698048972979 -0.074175600354607671 -0.012729899754282637 0.02256753571716914 0.095120282864615768 0.11663013896341352 0.090145964256246519 0.028290841698476073 0.0085223267563413734 -0.031814060461900856 0.057180715616888173 -0.0086507683312922311 -0.00081340077415047857 -0.0039170755060809479 0.0079994250105333269 0.10260276526280171 -0.13256264899191972 0.15061366460629597
leaf_weight=9324 7089 8456 3330 4137 6337 5452 1157 1954 1477 1941 9391 4190 9401 11112 11396 5403 10583 4000 6610 18289 4404 9818 7712 7058 9831 12963 5483 5752 7860 2955 5533 4543 11390 9102 9135 8992 6714 5410 6960 3002 9957 6824 9373 5330 994 7219 13325 11561 3201 5423 8675 1963 7177 1725 2908 1285 2127 7603 9064 5832 7563 4955
leaf_count=9324 7089 8456 3330 4137 6337 5452 1157 1954 1477 1941 9391 4190 9401 11112 11396 5403 10583 4000 6610 18289 4404 9818 7712 7058 9831 12963 5483 5752 7860 2955 5533 4543 11390 9102 9135 8992 6714 5410 6960 3002 9957 6824 9373 5330 994 7219 13325 11561 3201 5423 8675 1963 7177 1725 2908 1285 2127 7603 9064 5832 7563 4955
internal_value=-9.55573e-05 -0.0559 0.0577361 -0.0254436 0.0357392 -0.0945516 0.105864 -0.049546 0.0148454 -0.112211 0.0634447 -0.0527479 0.0103734 0.0881732 -0.0296009 -0.0040389 -0.0700067 -0.089546 0.131994 0.0334571 0.0308939 -0.127356 0.0485836 -0.00932463 -0.11167 -0.115197 -0.0233081 0.0865275 -0.0780414 -0.0502509 0.106994 0.147127 0.0411627 0.00963207 -0.0601024 -0.0546172 0.0454082 -0.0718702 0.0143176 0.107585 0.0629782 0.0220906 -0.0236116 -0.0625913 -0.0128965 -0.0892201 -0.0199274 0.0319489 0.0701388 0.0986848 0.0777368 -0.000978855 0.00111271 -0.063586 0.0350278 -0.0436044 -0.021057 0.00130949 -0.000575198 0.0955537 -0.14375 0.136727
internal_weight=419730 213609 206121 119471 141466 94138 64655 71414 80648 66180 60818 27958 48057 38556 36164 40031 35250 26512 26099 40617 23537 39668 37000 24520 11772 22781 12921 23818 15037 16171 22068 16108 29288 23569 12090 19575 25003 14740 15614 9991 16488 19133 16462 10740 19993 15675 17462 17898 13158 16535 18066 6153 8654 9585 9732 6768 4081 8597 14467 6989 16887 11565
internal_count=419730 213609 206121 119471 141466 94138 64655 71414 80648 66180 60818 27958 48057 38556 36164 40031 35250 26512 26099 40617 23537 39668 37000 24520 11772 22781 12921 23818 15037 16171 22068 16108 29288 23569 12090 19575 25003 14740 15614 9991 16488 19133 16462 10740 19993 15675 17462 17898 13158 16535 18066 6153 8654 9585 9732 6768 4081 8597 14467 6989 16887 11565
is_linear=0
shrinkage=0.05


Tree=11
num_leaves=63
num_cat=0
split_feature=15 84 84 24 15 24 84 15 15 15 24 24 25 25 25 15 65 15 62 15 15 24 15 15 15 24 24 27 11 15 15 97 65 34 81 24 15 19 84 15 15 25 95 29 15 19 27 24 24 24 90 22 84 25 22 27 24 25 84 81 84 35
split_gain=487484 89032.2 84533 23139.9 21602.4 19642.6 14296.6 11655 9888.24 9103.6 6936.5 6515.87 5106.71 4582.9 4494.33 4322.1 4208.81 3776.93 3407.24 3024.52 2982.63 2797.2 2692.04 2571.89 2535.09 2493 2142.93 2059.42 1959.14 1509.44 1482.35 1476.31 1465.83 1371.23 1321.19 1304.33 1297.64 1232.48 1227.42 1165.45 1095.26 1017.43 993.66 964.604 958.026 926.225 921.656 903.728 869.274 822.617 789.004 777.104 731.568 720.539 709.569 700.312 678.701 678.038 673.073 663.989 653.986 652.756
threshold=6.8047916889190683 8.6208062171936053 4.8646774291992196 0.26499986648559576 9.6664586067199725 -0.1700000464916229 3.3348387479782109 4.417708396911622 4.4968750476837167 8.3602080345153826 -0.10999977588653563 0.38000035285949713 -0.13000006973743436 -2.1050000190734859 -1.0099995136260984 8.041875362396242 30.295000076293949 4.0043749809265146 100.20499801635744 4.8118748664855966 5.826458454132081 0.6499997377395631 10.966249942779543 8.3306250572204608 11.162708282470705 1.1399999260902407 -0.050000131130218499 0.021818697452545169 3.7574999332427983 5.7956249713897714 8.1947913169860858 27.500000000000004 28.505000114440922 0.37940952255126054 -0.70950558781623829 0.63000035285949718 9.403541564941408 -0.97403529286384571 6.6743547916412362 5.9164583683013925 3.7585417032241826 -0.92999958992004383 79.171901702880874 2.4776005744934086 5.7314581871032724 -0.92067518830299366 -0.080784797668457017 1.4699998497962954 0.96000015735626232 1.2600000500679018 -1.1327419281005857 1.8443713784217837 12.018064498901369 -1.9000000357627866 -7.366105079650878 -0.10836089774966239 1.4100005626678469 -0.65000006556510914 6.5087096691131601 -1.9898982644081114 6.3712904453277597 0.60355339059327384
decision_type=2 2 2 2 2 2 2 2 2 2 2 2 2 2 2 2 2 2 2 2 2 2 2 2 2 2 2 2 2 2 2 2 2 2 2 2 2 2 2 2 2 2 2 2 2 2 2 2 2 2 2 2 2 2 2 2 2 2 2 2 2 2
left_child=2 5 6 7 11 9 16 28 18 13 19 23 22 37 39 21 26 31 -5 50 -16 58 -6 57 35 29 40 36 -4 -10 56 48 -17 55 -19 -14 53 -2 -15 -9 -1 -25 -18 -28 -27 54 -39 -32 -12 -20 -8 -44 -26 -11 -29 -21 -13 -3 -7 -23 -22 -40
right_child=1 4 3 8 12 15 10 14 25 27 17 30 24 38 20 32 42 34 49 33 60 59 -24 41 52 44 43 45 -30 -31 47 -33 -34 -35 -36 -37 -38 46 61 -41 -42 -43 51 -45 -46 -47 -48 -49 -50 -51 -52 -53 -54 -55 -56 -57 -58 -59 -60 -61 -62 -63
leaf_value=-0.13977378034484886 -0.078888320520764249 0.01093404642985058 -0.12235689282458367 -0.091970676434123183 0.081045613259998636 0.0085181155871060302 -0.12797352423782846 -0.071412058092358413 -0.013045675925231101 0.0098420033553270753 -0.077005712130299206 0.060183202479274979 0.10958476255875876 -0.013263829174483252 -0.04183822284877442 0.052052354195607532 -0.06325181876949415 -0.019245829490276326 -0.039924149531820302 -0.01438055342837774 -0.023871663045110656 0.069126852846208911 0.11903555297490667 0.041818658157321296 0.1490003605476711 0.014254745457087601 -0.11761766554289384 0.00069014447969551265 -0.076826391829657406 0.013097169108505011 0.090165138702876624 -0.11225801948071255 0.079120109356530452 -0.084386062802977044 -0.050217992300850549 0.13754416112651491 0.05544060027867901 0.004672069288609527 0.016363140316407256 -0.045335526979702945 -0.11643447850520067 0.069133117055614493 -0.10772446307785258 -0.088250720080889217 0.038856310239758086 0.017602099833333686 -0.039379970332787693 0.11968090004930305 -0.048885418606341297 -0.0083111124763159145 -0.099549407320689134 -0.061247560175680893 0.18995804691738397 0.036418588705260546 -0.061676352646913693 -0.061112121471730445 0.089640139368814598 0.039629839436146362 0.029065635336271507 0.045388339227493552 -0.0039606909430624972 -0.00171065508415343
leaf_weight=11590 1641 2816 4040 2554 11643 5341 3104 7346 9736 3782 7313 5423 10078 10978 14254 11004 4138 6222 4664 1031 6463 4328 7797 4455 4604 7287 5422 1088 5716 12752 10866 2069 9190 8747 7716 7175 6674 1455 10237 10311 8979 14624 3743 5829 8666 3753 6444 3426 4418 3684 11761 1191 1455 7840 784 3620 3073 7667 15724 9276 11396 9755
leaf_count=11590 1641 2816 4040 2554 11643 5341 3104 7346 9736 3782 7313 5423 10078 10978 14254 11004 4138 6222 4664 1031 6463 4328 7797 4455 4604 7287 5422 1088 5716 12752 10866 2069 9190 8747 7716 7175 6674 1455 10237 10311 8979 14624 3743 5829 8666 3753 6444 3426 4418 3684 11761 1191 1455 7840 784 3620 3073 7667 15724 9276 11396 9755
internal_value=5.99429e-06 0.0527675 -0.0549694 -0.0247351 0.0888542 0.0239984 -0.0889401 -0.0457222 0.000583475 0.00527614 -0.0725252 0.0673166 0.115225 -0.0091661 -0.0359252 0.0459852 -0.111418 -0.0547582 -0.0414443 -0.0899595 -0.0247823 0.0352724 0.0962882 0.0518254 0.131011 0.0125036 -0.119985 0.0297335 -0.0956919 0.00177853 0.0874094 -0.0733011 0.0643741 -0.0727179 -0.0363946 0.12122 0.0378678 -0.039465 0.000167999 -0.0561881 -0.129592 0.0627579 -0.0813553 -0.102413 0.0276207 0.003273 -0.0312654 0.0972487 -0.0664209 -0.0259765 -0.105493 -0.0965213 0.158866 0.0277721 -0.0254455 -0.0507594 0.0708476 0.0319237 0.0238567 0.0529454 -0.0111675 0.00754422
internal_weight=420158 214396 205762 108869 95102 119294 96893 59526 49343 64431 56001 52350 42752 40510 49770 54863 40892 27738 10902 28263 32113 34669 19440 29562 23312 38441 31820 23921 9756 22488 22788 13800 20194 13398 13938 17253 18296 9540 30970 17657 20569 19079 9072 11251 15953 5625 7899 14292 11731 8348 14865 4934 6059 11622 1872 4651 8496 10483 21065 13604 17859 19992
internal_count=420158 214396 205762 108869 95102 119294 96893 59526 49343 64431 56001 52350 42752 40510 49770 54863 40892 27738 10902 28263 32113 34669 19440 29562 23312 38441 31820 23921 9756 22488 22788 13800 20194 13398 13938 17253 18296 9540 30970 17657 20569 19079 9072 11251 15953 5625 7899 14292 11731 8348 14865 4934 6059 11622 1872 4651 8496 10483 21065 13604 17859 19992
is_linear=0
shrinkage=0.05


Tree=12
num_leaves=63
num_cat=0
split_feature=0 0 0 23 23 0 23 23 23 23 28 28 23 55 28 23 81 28 28 0 23 30 23 23 28 27 23 27 23 55 28 55 28 23 23 30 23 0 55 23 30 23 55 23 55 55 55 30 54 26 23 30 28 51 81 81 27 26 27 26 26 28
split_gain=444162 98966.3 50456.6 31029.8 30826.5 20443.8 18285 10777.9 9219.1 6366.62 6313.61 5730.55 5603.1 4926.8 4475.59 4526.58 4401.97 3910.77 3629.38 2966.71 2919.83 2687.18 2653.14 2435.5 2212.53 2129.32 1966.27 1928.18 1731.62 1703.94 1615.76 1601.11 1600.3 1553.82 1516.14 1479.62 1404.13 1351.17 1292.22 1258.06 1211.33 1139.13 1135.56 1111.28 1105.52 1093.83 1089.63 1055.33 1049.31 1046.6 919.466 817.19 774.308 772.366 755.318 749.923 726.37 710.574 689.52 687.923 678.049 657.201
threshold=6.2650001049041757 8.7950000762939471 4.0450000762939462 -0.13999962806701657 0.079999953508377089 10.394999980926515 0.28000044822692877 0.030000448226928714 0.19000017642974856 -0.23999983072280881 7.6326305866241464 7.4487702846527108 -0.21999955177307126 0.27999973297119146 2.8665081262588505 -0.2300000116229057 -0.78601297736167897 5.2941815853118905 7.2419338226318368 11.795000076293947 -0.27999979257583613 5.7844626903533944 0.59000039100646984 -0.48000000417232508 5.0463418960571298 -0.17084701359272 -0.46000002324581141 -0.083401560783386217 0.71000009775161754 0.30000019073486334 11.419160366058351 0.55000019073486339 2.180703997612 0.17999988794326785 0.38999992609024053 9.2125115394592303 0.61999997496604931 5.4649999141693124 0.16000080108642581 0.0099998712539672869 8.7012481689453143 -0.58999943733215321 0.55000019073486339 0.69999986886978161 0.41000080108642584 0.34999942779541021 0.14000034332275393 9.2503924369812029 -0.19500064849853513 0.088439106941223158 -0.50999996066093434 4.9320459365844735 1.7015119791030886 -0.29499816894531244 -1.6460623145103452 -0.59029039740562428 -0.089139558374881731 0.0022690892219543461 -0.048639416694641106 0.1640805006027222 0.0095501244068145769 6.9215128421783456
decision_type=2 2 2 2 2 2 2 2 2 2 2 2 2 2 2 2 2 2 2 2 2 2 2 2 2 2 2 2 2 2 2 2 2 2 2 2 2 2 2 2 2 2 2 2 2 2 2 2 2 2 2 2 2 2 2 2 2 2 2 2 2 2
left_child=2 3 6 10 9 7 14 20 11 21 26 38 30 37 39 25 43 46 28 33 47 50 24 60 -15 -16 -2 -23 48 -17 -7 -19 -18 -14 40 -22 54 -6 -5 59 -9 -29 61 -8 -13 -25 -11 -3 -10 -31 -4 -24 -41 -21 -20 -26 -33 -49 -46 -1 -12 -28
right_child=1 5 4 8 13 12 16 34 18 17 23 44 19 22 15 29 32 31 36 53 35 27 51 45 55 -27 42 41 -30 49 -32 56 -34 -35 -36 -37 -38 -39 -40 52 -42 -43 -44 -45 58 -47 -48 57 -50 -51 -52 -53 -54 -55 -56 -57 -58 -59 -60 -61 -62 -63
leaf_value=-0.13788641179588149 -0.053438023232983869 0.014964190609589631 -0.11509589077311051 -0.0057374812935239317 -0.042665047158414814 0.066744592136209452 -0.028361511374504766 0.064396430708274499 0.018512889044705702 -0.07543953304653464 -0.032213888769248508 0.029723072897650485 0.10178531666593577 -0.018744157487187874 -0.048754358347779123 -0.094482472084353439 -0.088930343885029739 -0.040119494990178535 0.077458903387525313 0.26911784177356296 0.045551127761977096 -0.012612505946410375 0.014680448587434084 0.0067267806769708231 0.025110212327575522 -0.12325394270605561 -0.040028540311818704 -0.098056806059796608 0.072123812676685758 -0.07301483148449002 0.10473815395422821 0.036099899537342786 -0.052643831319451134 0.13107254603231142 0.10779879736969947 0.071520642941177784 0.097086261067192078 -0.0093560456109854414 0.017330898641658828 -0.13195732934617424 0.091213742206372253 -0.060567631429354563 0.0022266373568828276 0.018337199169853352 0.078641164101592109 0.035299198375747486 -0.048510468142074277 0.02808978562278841 0.044265919772066092 -0.032709545937208484 -0.085944732430538018 0.051198799723703572 -0.10049675987989984 0.14766195892684417 0.054623934849313341 -0.00056467484350405451 -0.015151542088025089 0.060376473848826641 0.044224598674192102 -0.10671540661447002 0.0054574442702163767 -0.019695510301938009
leaf_weight=11280 6695 7144 3743 14545 7467 7234 4076 6859 8146 8861 4786 18313 12312 8912 1045 9620 4732 11828 5410 134 11833 1711 2528 16536 6776 11949 6668 2679 3058 8335 4576 800 8515 7203 7443 10242 3490 5142 10418 2732 10972 8373 3856 1852 1799 4200 6539 3859 7694 2000 9897 3893 7042 7215 11027 4900 5048 3057 7670 2126 1591 9849
leaf_count=11280 6695 7144 3743 14545 7467 7234 4076 6859 8146 8861 4786 18313 12312 8912 1045 9620 4732 11828 5410 134 11833 1711 2528 16536 6776 11949 6668 2679 3058 8335 4576 800 8515 7203 7443 10242 3490 5142 10418 2732 10972 8373 3856 1852 1799 4200 6539 3859 7694 2000 9897 3893 7042 7215 11027 4900 5048 3057 7670 2126 1591 9849
internal_value=0.000136066 0.0434321 -0.0608934 0.0171432 -0.0374487 0.0817159 -0.0917448 0.0637804 0.0348891 -0.060208 -0.0128487 0.0212769 0.110193 -0.00327893 -0.106146 -0.094295 -0.0495869 -0.0455897 0.0533806 0.122814 0.0462595 -0.0785183 0.00876834 0.00420514 1.59193e-05 -0.117267 -0.0299305 -0.0620173 0.0376786 -0.079331 0.0814739 -0.0295388 -0.065612 0.112602 0.0888274 0.057603 0.0682688 -0.0290837 0.00388993 -0.122986 0.0809025 -0.0696635 -0.022203 -0.0137706 0.0368988 0.0125157 -0.0640094 0.0284466 0.0310243 -0.0652195 -0.0939524 0.0368265 -0.109304 0.149914 0.0621443 0.0143358 -0.00813457 0.0423685 0.0507715 -0.132952 -0.0228151 -0.0279063
internal_weight=420235 245834 174401 145751 99097 100083 75304 61409 91570 59479 54181 52745 38674 39618 56129 32949 19175 33076 38825 26864 36135 26403 27009 27113 20588 12994 27068 12763 18898 19955 11810 17676 13247 19515 25274 22075 19927 12609 24963 23180 17831 11052 20373 5928 27782 20736 15400 14060 15840 10335 13640 6421 9774 7349 16437 11676 5848 6916 9469 13406 6377 16517
internal_count=420235 245834 174401 145751 99097 100083 75304 61409 91570 59479 54181 52745 38674 39618 56129 32949 19175 33076 38825 26864 36135 26403 27009 27113 20588 12994 27068 12763 18898 19955 11810 17676 13247 19515 25274 22075 19927 12609 24963 23180 17831 11052 20373 5928 27782 20736 15400 14060 15840 10335 13640 6421 9774 7349 16437 11676 5848 6916 9469 13406 6377 16517
is_linear=0
shrinkage=0.05


Tree=13
num_leaves=63
num_cat=0
split_feature=0 0 15 23 23 15 23 23 23 28 23 23 15 0 15 0 23 15 1 23 27 0 15 23 84 23 23 23 28 65 23 23 23 2 28 55 1 28 28 15 28 23 1 28 23 84 2 15 23 28 23 65 27 35 27 35 15 55 35 27 27 94
split_gain=399388 88063.2 49281.7 26990.5 25741.4 18716 17025 8901.02 8205.78 7574.16 5895.15 5521.43 5446.35 5336.67 5166.6 3690.26 3616.6 3449.18 2697.6 2682.9 2254.56 2464.37 2229.72 2139.37 1909.34 1864.46 1760.74 1670.5 1510.67 1500.12 1455.91 1438.48 1369.6 1697 1326.43 1272.99 1253.81 1225.62 1191.11 1118 1107.3 1087.65 1068.14 1032.33 996.392 983.806 873.669 833.76 828.15 824.107 822.058 781.286 744.195 739.558 738.672 713.564 684.096 680.493 679.817 653.348 647.325 642.516
threshold=6.2950000762939462 8.7650003433227557 4.7343750000000009 -0.13999962806701657 0.10500001907348634 9.7610416412353533 0.059999704360961921 -0.04999947547912597 0.23000004887580874 3.0909662246704106 -0.23999983072280881 0.11000037193298341 7.2772917747497567 4.0450000762939462 7.2772917747497567 11.055000305175783 0.52000004053115856 7.2031250000000009 5.1250000000000009 0.59000039100646984 -0.086051225662231431 5.0650000572204599 6.0047917366027841 0.34000039100646978 8.9361290931701678 0.3799999356269837 -0.46000002324581141 -0.44999957084655756 11.297258853912355 29.045000076293949 -0.3900002241134643 -0.32000011205673212 -0.26999999582767481 2.685000061988831 1.9113134741783144 0.55000019073486339 7.6949999332427987 6.9215128421783456 9.4079227447509783 6.7022917270660409 12.490896224975588 -0.57999980449676503 8.2650003433227557 7.3195331096649179 -0.57999980449676503 4.3527421951293954 4.055000066757203 7.0839583873748788 0.65999990701675426 4.1484434604644784 -0.36000007390975947 28.795000076293949 -0.017297610640525814 -0.70710678118654757 -0.036037594079971307 0.78656609248549303 8.3018746376037615 0.52999973297119152 -0.70710678118654757 -0.062474533915519707 -0.071872219443321214 -5.3335137367248526
decision_type=2 2 2 2 2 2 2 2 2 2 2 2 2 2 2 2 2 2 2 2 2 2 2 2 2 2 2 2 2 2 2 2 2 2 2 2 2 2 2 2 2 2 2 2 2 2 2 2 2 2 2 2 2 2 2 2 2 2 2 2 2 2
left_child=2 3 6 12 10 7 13 24 14 19 20 15 27 32 37 31 22 48 46 34 47 -22 45 49 41 38 52 -2 -13 -19 -15 -7 -1 -34 -8 -20 53 -5 55 -18 50 -3 59 -29 -23 -6 -12 -4 -10 -11 -17 -24 -14 -16 -38 -9 -26 -36 -48 -28 -37 -25
right_child=1 5 4 8 16 11 9 25 17 23 18 28 26 30 36 40 39 29 35 -21 21 44 51 61 56 -27 42 43 -30 -31 -32 -33 33 -35 57 60 54 -39 -40 -41 -42 -43 -44 -45 -46 -47 58 -49 -50 -51 -52 -53 -54 -55 -56 -57 -58 -59 -60 -61 -62 -63
leaf_value=-0.12810799963921221 -0.050532255100992921 -0.0082878880483168004 -0.050455769227963555 -0.0074176300284874881 -0.044505512875731151 0.05099219637002305 -0.1098064280268341 0.067337856253216102 0.028981823565885537 -0.063087422819508479 -0.080171863573854904 0.11768139616034673 0.0034428058635441426 -0.1072962042710553 0.038291883007948668 0.077841548761212617 0.019645260849092273 0.055017851214165192 -0.035168423783047111 -0.042467133262472673 -0.097884936383867194 -0.089227844967307013 -0.0016317215857325211 -0.079383604048812284 0.034265266263301002 0.099888658825299625 0.038849441876611518 -0.03094567562971913 0.15450912180809218 0.08408065491948552 -0.072800891134381304 0.083521399662086077 -0.12491895488314352 -0.094936101007391138 -0.094817682409143927 0.026477988044174946 0.067622457246486425 0.014737605861183806 0.084729364020885517 0.058088520772202251 0.14101263339860654 0.031650381664460783 0.023735387194495097 -0.0064331846051391139 -0.054403102469337154 -0.012569690008940496 -0.030756220868596293 0.0013143092790888003 0.058631280449932634 -0.037103383586205289 0.11102134430631852 0.025211031489957483 -0.030593246153658243 0.013958698215259482 0.039177091635219263 0.039028477211396372 0.058697561297633941 -0.068895452004564511 -0.059846692101424827 -0.0026870913525295168 -0.014657503607638751 -0.015965369054258178
leaf_weight=12197 6729 1969 2431 11745 3259 4740 5594 9732 12032 6860 2825 10115 2470 3956 5024 2476 7234 10633 11096 3621 8302 2658 6294 419 3966 7380 1032 10955 3866 7640 13595 12076 7815 11999 4332 1154 2685 13321 8937 2561 2370 12673 8588 7067 9098 9274 3400 1143 2930 5510 7754 4760 4588 8256 15311 2894 10383 6151 4923 11334 5560 8195
leaf_count=12197 6729 1969 2431 11745 3259 4740 5594 9732 12032 6860 2825 10115 2470 3956 5024 2476 7234 10633 11096 3621 8302 2658 6294 419 3966 7380 1032 10955 3866 7640 13595 12076 7815 11999 4332 1154 2685 13321 8937 2561 2370 12673 8588 7067 9098 9274 3400 1143 2930 5510 7754 4760 4588 8256 15311 2894 10383 6151 4923 11334 5560 8195
internal_value=7.63641e-05 0.0415452 -0.0572665 0.0161836 -0.0301751 0.0771702 -0.0830747 0.0585701 0.0328935 -0.0591014 -0.0519726 0.101999 -0.0121853 -0.102751 0.0212699 0.089696 0.00416492 0.0525972 -0.0368473 -0.081369 -0.0705041 -0.0770237 -0.00644051 -0.0381953 0.0389853 0.0781852 0.00291476 -0.0292745 0.127876 0.0671733 -0.0805821 0.0743561 -0.114903 -0.106768 -0.0901273 -0.0247708 0.0348244 0.0043564 0.0707525 0.029702 0.110161 0.0262791 0.0101902 -0.0213347 -0.0622842 -0.0208774 -0.0561362 -0.0339021 0.0347919 -0.0515176 0.103 0.00992791 -0.0186826 0.0231668 0.0434249 0.0608531 0.0519478 -0.0796161 -0.0479688 0.000781782 -0.00758351 -0.0190596
internal_weight=419887 243671 176216 142340 85972 101331 90244 57934 89577 40682 52590 43397 52763 49562 56342 29416 33382 33235 28958 19698 23632 20058 23587 20984 28991 28943 28012 24751 13981 18273 17551 16816 32011 19814 16077 17810 31276 25066 21563 9795 12600 14642 20954 18022 11756 12533 11148 3574 14962 12370 10230 11054 7058 13280 17996 12626 14349 10483 8323 12366 6714 8614
internal_count=419887 243671 176216 142340 85972 101331 90244 57934 89577 40682 52590 43397 52763 49562 56342 29416 33382 33235 28958 19698 23632 20058 23587 20984 28991 28943 28012 24751 13981 18273 17551 16816 32011 19814 16077 17810 31276 25066 21563 9795 12600 14642 20954 18022 11756 12533 11148 3574 14962 12370 10230 11054 7058 13280 17996 12626 14349 10483 8323 12366 6714 8614
is_linear=0
shrinkage=0.05


Tree=14
num_leaves=63
num_cat=0
split_feature=15 0 0 23 23 23 0 23 15 23 15 0 23 0 23 28 28 23 23 81 23 15 28 28 0 15 23 23 23 23 26 27 15 23 15 28 23 23 15 55 0 11 15 55 35 55 67 15 0 23 23 0 28 35 28 23 15 27 23 23 23 55
split_gain=361509 64735.4 63974.2 23205.6 21180.1 20697.4 14318.5 8581.67 7301.65 6405.57 5674.25 5644.13 5194.96 5160.36 3535.07 3288.7 3275.46 2919.13 2567.8 2257.5 2036.13 2006.69 1967.64 1883.65 1741.1 1644.44 1605.6 1509.86 1500.88 1462.36 1424.51 1416.35 1395.95 1366.37 1327.46 1252.07 1188.25 1094.68 996.986 990.054 953.819 930.031 924.829 862.669 860.518 811.979 800.039 791.77 779.263 775.647 765.806 750.516 738.676 732.126 706.646 703.739 703.091 701.888 700.399 616.094 588.661 587.319
threshold=6.7552084922790536 8.9449996948242205 4.8250000476837167 -0.11000007390975951 -0.069999814033508287 0.1300003528594971 10.75500011444092 0.039999976754188545 3.7164583206176762 0.24000048637390139 4.0435416698455819 7.4149999618530282 0.26999999582767492 6.1749999523162851 -0.27999979257583613 7.8955864906311044 6.0858747959136972 -0.27999979257583613 -0.27999979257583613 -1.0980134606361387 -0.58999943733215321 8.4160418510437029 12.490896224975588 2.4041407108306889 2.9250000715255742 9.2831249237060565 -0.46000002324581141 -0.44999957084655756 -0.29999947547912592 -0.42499995231628412 0.027742803096771244 -0.13378104567527768 9.3610415458679217 0.21000009775161746 5.3202083110809335 7.3195331096649179 0.67000031471252453 0.71000009775161754 8.693125247955324 0.8449993133544923 5.7449998855590829 3.5108332633972172 9.1368746757507342 0.9700002670288087 -0.70710678118654757 -0.43499946594238276 28.695000648498539 11.061458110809328 6.0150001049041757 0.34000039100646978 0.61999997496604931 7.2650001049041757 3.3999767303466801 0.78656609248549303 7.0841698646545419 0.39999973773956304 10.721041679382326 -0.020534336566925045 0.55000042915344249 0.48999983072280889 -0.080000102519989 0.94499969482421886
decision_type=2 2 2 2 2 2 2 2 2 2 2 2 2 2 2 2 2 2 2 2 2 2 2 2 2 2 2 2 2 2 2 2 2 2 2 2 2 2 2 2 2 2 2 2 2 2 2 2 2 2 2 2 2 2 2 2 2 2 2 2 2 2
left_child=2 3 5 11 13 10 7 18 23 15 24 20 16 29 47 39 45 31 42 58 57 36 33 55 60 59 -15 -13 -26 -4 40 -12 -20 56 -14 -28 51 52 -29 48 -22 -19 -3 -43 -17 -6 -31 -8 -5 -25 -36 -11 -21 -27 -18 -7 -16 -2 -10 -9 -1 -23
right_child=1 6 4 9 12 8 14 25 19 21 17 27 34 26 22 44 54 41 32 37 30 61 -24 49 28 53 35 38 -30 46 -32 -33 -34 -35 50 -37 -38 -39 -40 -41 -42 43 -44 -45 -46 -47 -48 -49 -50 -51 -52 -53 -54 -55 -56 -57 -58 -59 -60 -61 -62 -63
leaf_value=-0.12517884051085695 -0.032401297484461709 0.017901032403382325 -0.083703281040241717 -0.018849745467888656 -0.0404765279521003 -0.10067054633311244 0.062873205059512258 0.068500078835419656 -0.014795836698823492 0.033163780034267877 -0.049658827437483677 -0.010266205573583653 0.0032917958225284734 -0.053266234643398684 0.09173667900660315 0.062199300681543217 -0.0028715075375897853 -0.084544699740423779 0.047364866674359796 -0.060328985380687497 -0.053671454901953103 0.06354916334977756 0.15982895966243188 -0.069310189560647051 -0.11837973569745507 0.10460096411531468 -0.030699786996449666 0.010017737681092299 -0.086344283187291732 -0.043496376202096225 0.0098807437717149341 -0.10299954031455268 0.072106965771533985 0.13191770498726427 0.021697337523989807 -0.0025641689107287575 0.073551917698237976 -0.0049902747979542143 0.033620877148374848 0.027873475985672681 -0.018382988513897046 -0.066802181338492597 0.043678014050703012 -0.039826154072856723 0.037729829111294438 -0.018101878720496137 -0.065907239293019323 0.097430389529466477 0.013182811985054575 -0.041374676810432283 0.047755184482933588 0.054354786049080228 -0.034354771223056503 0.067056965443559727 0.019522796839855538 -0.07134414828290736 0.11443999740308899 -0.077697832150470256 0.019285705922974579 0.096333054075526545 -0.10670998392450277 0.092209758210464107
leaf_weight=10659 1507 6693 5944 2205 6618 4629 4504 10267 4061 8096 1430 6785 8033 5218 7228 4779 10027 3857 12691 4323 2255 3055 2317 5002 5149 10300 12535 15791 12721 8030 4000 9763 10370 5577 10564 5777 4315 2139 6243 11760 12691 7729 7254 4819 14531 10479 7926 2635 13625 4954 3848 8655 7484 1495 5429 3696 6535 1985 2396 2477 7372 4357
leaf_count=10659 1507 6693 5944 2205 6618 4629 4504 10267 4061 8096 1430 6785 8033 5218 7228 4779 10027 3857 12691 4323 2255 3055 2317 5002 5149 10300 12535 15791 12721 8030 4000 9763 10370 5577 10564 5777 4315 2139 6243 11760 12691 7729 7254 4819 14531 10479 7926 2635 13625 4954 3848 8655 7484 1495 5429 3696 6535 1985 2396 2477 7372 4357
internal_value=-0.000107727 0.0447399 -0.0481355 0.0216719 -0.0197949 -0.0759888 0.077074 0.0634563 -0.0471559 0.0393217 -0.093553 -0.00428379 0.0010742 -0.0450589 0.106176 0.0279627 -0.0116856 -0.0764986 0.0482506 -0.0265914 -0.0230869 0.0580269 0.116238 -0.0701044 -0.10666 0.0863854 -0.0287992 0.0103561 -0.0955813 -0.0625265 -0.0166183 -0.0961903 0.0584937 0.111007 0.0195803 -0.0218246 0.0501487 -0.0379076 0.0167068 0.0168847 -0.0237108 -0.0630578 0.0313105 -0.0564466 0.0437889 -0.0267649 -0.0546325 0.0756408 0.00871969 -0.0554158 0.028658 0.0441158 -0.0438697 0.0998488 0.00499504 -0.0876614 0.102525 -0.0581661 -0.00214739 0.0739174 -0.117634 0.0804076
internal_weight=419589 216978 202611 126635 100428 102183 90343 61547 38684 75378 63499 51257 54998 45430 28796 46900 32553 27598 37008 20403 22438 28478 21657 18281 35901 24539 23530 28819 17870 21900 18946 11193 23061 19340 22445 18312 21066 13946 22034 27590 14946 16405 13947 12548 19310 17097 15956 7139 15830 9956 14412 16751 11807 11795 15456 8325 13763 3492 6457 12744 18031 7412
internal_count=419589 216978 202611 126635 100428 102183 90343 61547 38684 75378 63499 51257 54998 45430 28796 46900 32553 27598 37008 20403 22438 28478 21657 18281 35901 24539 23530 28819 17870 21900 18946 11193 23061 19340 22445 18312 21066 13946 22034 27590 14946 16405 13947 12548 19310 17097 15956 7139 15830 9956 14412 16751 11807 11795 15456 8325 13763 3492 6457 12744 18031 7412
is_linear=0
shrinkage=0.05


Tree=15
num_leaves=63
num_cat=0
split_feature=28 84 84 23 23 28 23 28 28 30 23 28 55 23 28 23 86 81 23 28 30 23 23 62 55 28 23 55 28 94 55 30 23 35 55 94 23 67 28 28 23 2 27 28 28 67 35 30 23 55 35 23 28 23 28 23 81 81 23 27 27 28
split_gain=324709 65375.2 48646 22690.2 21194.9 12983 11133.5 7712.99 7076.35 6405.76 6326.02 5723.17 5663.92 5027.9 4651.56 3896.52 3169.09 3081.26 2583.25 2419.65 2361.98 2206.95 1879.2 1718.29 1616.89 1579.78 1556.76 1552.2 1492.14 1463.27 1441 1386.32 1365.07 1346.34 1332.74 1235.94 1216.32 1171.77 1116.46 1019.04 996.773 955.855 913.749 911.809 903 896.759 895.366 846.292 797.758 759.283 745.356 725.864 718.953 904.163 715.67 677.246 670.829 670.051 645.094 612.35 611.673 598.131
threshold=6.588029384613038 8.8453226089477557 4.6366128921508798 0.17000031471252444 -0.15000006556510923 10.333554267883303 -0.0099998712539672834 4.4093215465545663 8.3900485038757342 3.7747218608856206 0.12999975681304934 2.8665081262588505 -0.12499999999999999 -0.15000033378601071 4.1484434604644784 -0.090000391006469713 100.43258285522462 -1.1984111070632932 -0.51999995112419117 7.9751923084259042 8.6387491226196307 0.39999973773956304 0.29999996721744543 100.00500106811525 0.61999988555908214 7.6326305866241464 -0.4000000655651092 0.55000019073486339 11.297258853912355 0.06205923110246659 1.0049991607666018 11.351077079772951 -0.64000007510185231 0.60355339059327384 0.23000049591064456 0.089872207492589964 0.71000009775161754 28.48499965667725 5.6989543437957773 7.5247719287872323 0.59000039100646984 3.8549998998641972 -0.27472025156021113 3.3999767303466801 5.5334150791168222 31.335000038146976 -0.70710678118654757 9.1028079986572283 0.19000017642974856 -0.33999919891357416 -0.70710678118654757 0.11999991536140443 2.8031899929046635 -0.32999980449676508 1.5780582427978518 0.71000009775161754 -0.4715548157691955 -0.4715548157691955 -0.57999980449676503 -0.15530653297901151 -0.041331812739372246 12.490896224975588
decision_type=2 2 2 2 2 2 2 2 2 2 2 2 2 2 2 2 2 2 2 2 2 2 2 2 2 2 2 2 2 2 2 2 2 2 2 2 2 2 2 2 2 2 2 2 2 2 2 2 2 2 2 2 2 2 2 2 2 2 2 2 2 2
left_child=2 4 6 7 8 10 14 43 18 23 20 21 19 37 30 31 35 40 -2 51 45 54 41 -5 39 48 59 44 49 -12 52 58 -10 -22 -31 -14 38 -9 -19 -20 -11 -13 -32 -4 -15 -3 -28 -34 -18 -17 -39 -6 -1 -54 -8 -37 -24 -23 -7 -16 -49 -30
