tree
version=v4
num_class=1
num_tree_per_iteration=1
label_index=0
max_feature_idx=97
objective=regression
feature_names=wind_speed_lag_1 wind_speed_lag_2 wind_speed_lag_3 wind_speed_lag_4 wind_speed_lag_5 wind_speed_lag_6 wind_speed_lag_12 wind_speed_lag_24 wind_speed_lag_48 wind_speed_lag_72 wind_speed_lag_168 wind_speed_roll_mean_6 wind_speed_roll_std_6 wind_speed_roll_mean_12 wind_speed_roll_std_12 wind_speed_roll_mean_24 wind_speed_roll_std_24 wind_speed_roll_mean_48 wind_speed_roll_std_48 dir_sin dir_cos wind_x wind_y wind_accel_1 wind_accel_3 wind_accel_6 dir_change_sin dir_change_cos wind_ewm_6 wind_ewm_12 wind_ewm_24 wind_volatility_6 wind_volatility_24 wind_volatility_72 hour_sin hour_cos dow_sin dow_cos month_sin month_cos hour_x_month_sin hour_x_month_cos hour_x_month_sin2 hour_x_month_cos2 is_sw_monsoon is_ne_monsoon is_dry_season pressure_tendency_1h pressure_tendency_3h pressure_tendency_6h pressure_tendency_12h pressure_tendency_24h temp_tendency_1h temp_tendency_3h temp_tendency_6h temp_tendency_12h temp_tendency_24h humidity_tendency_1h humidity_tendency_6h humidity_tendency_24h surface_pressure_lag_1 surface_pressure_lag_6 surface_pressure_lag_12 surface_pressure_lag_24 surface_pressure_lag_48 temperature_lag_1 temperature_lag_6 temperature_lag_12 temperature_lag_24 temperature_lag_48 humidity_lag_1 humidity_lag_6 humidity_lag_24 surface_pressure_roll_mean_6 surface_pressure_roll_std_6 surface_pressure_roll_mean_24 surface_pressure_roll_std_24 temperature_roll_mean_6 temperature_roll_std_6 temperature_roll_mean_24 temperature_roll_std_24 ws_x_pressure_tend_6h ws_x_temp_tend_6h pressure_x_humidity regional_ws_mean regional_ws_std regional_pressure_mean regional_pressure_std regional_humidity_mean regional_humidity_std ws_vs_region pressure_vs_region humidity_vs_region ws_anomaly pressure_anomaly Longitude Latitude Index
feature_infos=[0.029999999329447746:18.090000152587891] [0.039999999105930328:17.610000610351562] [0.039999999105930328:18.090000152587891] [0.029999999329447746:17.700000762939453] [0.039999999105930328:18.709999084472656] [0.039999999105930328:18.090000152587891] [0.039999999105930328:18.739999771118164] [0.019999999552965164:22.120000839233398] [0.019999999552965164:23.549999237060547] [0.019999999552965164:23.549999237060547] [0.029999999329447746:18.030000686645508] [0.15833333134651184:16.976665496826172] [0.0054773511365056038:3.9413988590240479] [0.29249998927116394:16.048334121704102] [0.037284784018993378:4.8793058395385742] [0.74291664361953735:14.947500228881836] [0.10270173102617264:6.1003446578979492] [0.91666668653488159:14.255000114440918] [0.2245752215385437:6.3414454460144043] [-1:1] [-1:1] [-16.429006576538086:17.609003067016602] [-16.066776275634766:14.705811500549316] [-2.8600006103515625:2.4800000190734863] [-6.2399997711181641:6.2300000190734863] [-9.2900009155273438:8.6399993896484375] [-1.9967226982116699:1.980518102645874] [-1.9739724397659302:1.9827420711517334] [0.21245099604129791:16.993406295776367] [0.39262494444847107:15.969316482543945] [0.78044503927230835:14.696194648742676] [0.0054773511365056038:3.9413988590240479] [0.10270173102617264:6.1003446578979492] [0.28826215863227844:5.7913470268249512] [-1:1] [-1:1] [-0.97492791218182362:0.97492791218182362] [-0.90096886790241903:1] [-1:1] [-1:1] [-1:1] [-1:1] [-1:1] [-1:1] [0:1] [0:1] [0:1] [-0.17000579833984375:0.18000030517578125] [-0.51000213623046875:0.4499969482421875] [-0.720001220703125:0.6100006103515625] [-0.45999908447265625:0.68999481201171875] [-0.8300018310546875:0.57999420166015625] [-4.2700004577636719:4.5200004577636719] [-8.9300022125244141:11.370000839233398] [-12.25:16.560001373291016] [-16.30000114440918:17.130001068115234] [-6.7999992370605469:6.6599998474121094] [-2.9899997711181641:4.2699995040893555] [-7.3899993896484375:6.8400001525878906] [-6.5899991989135742:6.6600003242492676] [92.410003662109375:101.87999725341797] [92.360000610351562:101.90000152587891] [92.44000244140625:101.87999725341797] [92.449996948242188:101.90000152587891] [92.209999084472656:101.87999725341797] [13.479999542236328:39.009998321533203] [13.140000343322754:39.520000457763672] [12.789999961853027:39.049999237060547] [12.800000190734863:39.549999237060547] [12.520000457763672:39.520000457763672] [4.5799999237060547:23.680000305175781] [4.880000114440918:23.680000305175781] [3.8499999046325684:23.860000610351562] [92.421669006347656:101.80166625976562] [0.0081642186269164085:0.27396443486213684] [92.512916564941406:101.66542053222656] [0.064217276871204376:0.26991903781890869] [13.943333625793457:38.775001525878906] [0:5.9559311866760254] [18.012916564941406:33.677501678466797] [0.027396241202950478:6.718207836151123] [-8.2360258102416992:6.5135869979858398] [-81.016006469726562:108.58750152587891] [427.54299926757812:2380.55029296875] [0.64709675312042236:15.462580680847168] [0.090692684054374695:3.8519964218139648] [99.748382568359375:101.53484344482422] [1.3302267789840698:1.4573099613189697] [11.549677848815918:22.648065567016602] [0.17324060201644897:2.8523437976837158] [-9.0025806427001953:8.1680641174316406] [-7.6858139038085938:0.7203216552734375] [-11.687097549438477:5.7787094116210938] [-5.2638306617736816:5.0656752586364746] [-5.3580875396728516:0.52707028388977051] [77.5:80.156303405761719] [7.5:10] [0:30]
tree_sizes=5666 6002 6002 5980 5991 5997 6007 5999 5991 6019 6038 6015 6054 6023 6039 6048 6053 6056 6047 6057 6066 6056 6029 6058 6064 6070 6040 6057 6084 6053 6059 6059 6045 6065 6077 6059 6090 6068 6093 6068 6063 6052 6104 6078 6079 6088 6069 6065 6062 6031 6064 6075 6050 6055 6084 6076 6059 6048 6079 6058 6052 6054 6100 6089 6087 6076 6096 6053 6078 6108 6070 6062 6062 6078 6113 6043 6066 6088 6022 6052 6052 6031 6095 6038 6062 6055 6029 6031 6064 5979 6043 5971 6092 5994 6003 6035 6093 6102 5989 6108 5995 6006 6014 6074 6073 5946 5992 5941 5987 6008 6002 6046 6002 6025 6019 6025 5997 6028 6000 5908 6048 6109 5964 5951 6007 6101 6072 6014 6013 6019 6024 6054 6017 5949 5999 5976 6005 5881 6057 6016 6026 5976 6011 6071 6002 5977 6015 5931 6032 5979 5829 6049 6091 6017 6085 6071 5840 5908 6042 6068 5989 6019 6046 5996 5960 6082 5984 6046 5909 5979 6054 6038 5895 5980 6054 5978 5946 6058 5888 6060 5848 6000 6107 5855 5998 6018 6074 6021 5916 5885 6084 6100 6039 6026 6054 6027 5933 6020 5951 6086 5974 6111 6039 5870 5956 6027 5980 6076 6040 6004 5986 5937 5980 6092 5842 6104 5959 5895 6096 6063 6034 5910 6011 6057 6096 5374 5990 6045 5943 6056 6057 5905 5880 5919 5988 6036 5912 6080 6099 5889 6033 6011 6038 6067 6010 6086 4160 5992 6096 6050 5790 6052 5954 6035 5937 6083 6037 5907 5975 5461 6023 6034 5919 5963 6006 6004 5951 6009 5898 6008 6030 5998 5983 6038 6038 5903 6042 6028 5828 5967 6010 6009 5932 5949 5990 6042 6003 6048 5878 5978 6097 6063 5962 5948 5914 6067 5314 6086 5981 6000 5893 5940 5933 4701 5897 6056 6033 5933 5861 5938 5938 5833 6004 5943 6060 6041 5838 5669 5990 5955 5122 6059 5983 5929 5977 5935 5945 5900 5972 5961 5849 5923 5990 5874 6056 6018 5360 6005 6090 6090 5838 5936 6033 5951 6020 5891 6052 6049 6029 6022 6007 5920 6003 5288 6103 6006 5948 6011 6112 6005 5904 5924 5150 5982 5990 6032 5926 5925 6068 5988 6046 5913 6040 5934 6003 5846 6023 5592 6020 5983 6023 5973 5885 6053 5888 5943 6049 5954 5903 5878 5927 5970 6071 6011 5949 6081 5973 6041 5914 6048 6015 6071 5967 4810 6061 6029 5874 6069 5940 5953 5943 6108 5877 5875 5930 5818 5982 4040 6101 5753 5935 5989 6028 6071 6023 5917 5967 4861 5852 5932 4735 5934 6043 5857 5924 5930 5914 6022 5209 5967 5875 4312 5980 5921 5866 6054 5935 6023 5856 5978 5915 6018 5606 5996 5978 5960 6014 6093 5839 6040 5915 5971 6003 5820 5475 6036 5809 5963 6029 5789 5946 5824 5883 5933 5856 5894 5999 5992 6058 5990 6023 5979 6037 4484 6036 6053 5865 5947 5991 4675 6053 4984 5765 5861 5920 5966 5965 5986 5927 5989

Tree=0
num_leaves=63
num_cat=0
split_feature=15 15 15 23 23 23 84 0 84 15 0 0 15 23 84 23 23 23 23 23 23 15 0 15 84 0 23 23 0 84 23 84 23 55 23 23 28 27 15 84 28 27 0 35 23 23 84 23 55 0 15 15 15 23 55 84 35 21 35 23 0 0
split_gain=1.41644e+06 253843 208713 88506.4 81836 53664.8 45530.4 26758.7 22368.1 21805.8 19232.3 17971.7 14425.9 14248 13292.6 12351.1 8428.69 8039.67 6994.08 6513.79 6345.28 5632.75 5570.74 5477.21 5463.43 4626.68 4497.3 4388.59 4387.7 3995.18 3928.33 3738.4 3719.73 3512.91 3437.06 3228.13 2901.65 2648.13 2613.67 2357.38 2247.18 2243.68 2135.27 2090.36 2086.96 2071.1 2038.01 2034.48 2030.23 1887.57 1813.19 1808.03 1758.07 1749.5 1742.43 1726.82 1705.4 1519.71 1490.13 1470.59 1449.71 1421.55
threshold=6.6235415935516366 9.026041507720949 4.6589584350585946 -0.099999666213989244 0.010000169277191164 0.1300003528594971 9.3785486221313494 7.7149999141693124 5.555000066757203 7.8418750762939462 4.5450000762939462 3.4650000333786015 10.79645872116089 -0.13999962806701657 5.3269355297088632 0.24000048637390139 0.28000044822692877 0.049999833106994636 -0.38999962806701655 0.3499999344348908 -0.23999983072280881 3.1168749332427983 7.5350000858306894 3.3118749856948857 8.530644893646242 6.9649999141693124 -0.32999980449676508 -0.16000056266784665 9.0749998092651385 7.9727418422698983 0.4200000017881394 11.270000457763674 -0.23000007867813108 0.43499946594238287 -0.38999962806701655 0.40000021457672125 6.8393023014068612 -0.13378104567527768 7.3531250953674325 7.4930644035339364 4.3680803775787362 -0.019955564290285107 6.1050000190734872 -0.5 -0.10500001907348631 0.47499990463256841 4.1862902641296396 0.039999976754188545 0.57000064849853527 6.0750000476837167 8.093541622161867 9.8531250953674334 5.5735416412353525 0.38000035285949713 0.8150005340576173 4.1862902641296396 -0.70710678118654757 -6.4006736278533927 -0.5 0.23000004887580874 8.5250000953674334 8.7650003433227557
decision_type=2 2 2 2 2 2 2 2 2 2 2 2 2 2 2 2 2 2 2 2 2 2 2 2 2 2 2 2 2 2 2 2 2 2 2 2 2 2 2 2 2 2 2 2 2 2 2 2 2 2 2 2 2 2 2 2 2 2 2 2 2 2
left_child=2 3 5 7 8 10 13 18 20 15 23 21 17 29 35 25 28 51 41 36 37 53 26 44 34 54 -10 -25 48 -3 40 47 -12 60 -9 55 43 -4 -20 -17 -13 -2 -43 -16 -1 -23 -39 -14 -11 -34 -26 -8 -22 -7 -5 -6 -40 -18 -57 -35 -15 -27
right_child=1 6 4 9 14 11 12 24 22 16 32 30 31 33 19 39 57 -19 38 -21 52 45 -24 27 50 61 -28 -29 -30 -31 -32 -33 49 59 -36 -37 -38 46 56 -41 -42 42 -44 -45 -46 -47 -48 -49 -50 -51 -52 -53 -54 -55 -56 58 -58 -59 -60 -61 -62 -63
leaf_value=6.533763599464927 6.7311546345111042 6.8109638526630283 6.6933449827723699 6.7587343201410794 6.6867222148205654 6.5835717455077551 6.8911659949570048 6.753197621048308 6.65900885241577 6.829813138923277 6.6009006213070913 6.6592003078367359 6.9623774659081628 6.8529366580944009 6.779393574170018 6.8360802565529442 6.9321344363360637 6.9649210377474837 6.7311860309533653 6.8090983279265904 6.6510432464527831 6.6387836948811447 6.7435996888438741 6.5628266699939815 6.8015506522762594 6.8115263610428896 6.7085202640460908 6.6086221192790626 6.8894932656554007 6.8643186373540601 6.7319162072815333 7.0299640214913701 6.6393510185409061 6.9155294045938431 6.7972088552342687 6.7619210758421504 6.7968123476931375 6.5903048774888227 6.7996259720209977 6.8714934792531759 6.7085424295784044 6.6354443560079961 6.6996790686159793 6.7381468464669885 6.5651947332487435 6.6891991713161314 6.6296287561841503 7.0063132053078538 6.8632282610183957 6.6936118647831204 6.8401309837674189 6.9265631907480092 6.6900117456450312 6.6267862309953234 6.7984810338327222 6.7455647267257879 6.7549859556675163 6.8950437654375127 6.6995439538032562 6.955667667861265 6.9000583502240032 6.8481619259360089
leaf_weight=11644 3667 5468 1139 5973 4146 5451 6572 6633 6781 10591 5973 5234 7099 2266 4586 9051 4019 12849 8937 13345 6218 5394 7157 11310 5105 14002 14191 9790 7506 9806 6351 5268 7066 5712 13389 4644 4815 5510 3033 9802 4136 1774 4797 9298 9833 3285 8292 4251 7981 2080 7562 8083 5437 4152 5120 4390 7256 8980 2936 3849 5920 3268
leaf_count=11644 3667 5468 1139 5973 4146 5451 6572 6633 6781 10591 5973 5234 7099 2266 4586 9051 4019 12849 8937 13345 6218 5394 7157 11310 5105 14002 14191 9790 7506 9806 6351 5268 7066 5712 13389 4644 4815 5510 3033 9802 4136 1774 4797 9298 9833 3285 8292 4251 7981 2080 7562 8083 5437 4152 5120 4390 7256 8980 2936 3849 5920 3268
internal_value=6.76621 6.85147 6.66736 6.81323 6.71625 6.61251 6.92504 6.76774 6.67442 6.846 6.58315 6.66234 6.95828 6.88063 6.76379 6.82313 6.87363 6.93604 6.73319 6.78241 6.64154 6.62863 6.70551 6.56594 6.79889 6.80228 6.69251 6.58407 6.85723 6.84522 6.70155 6.99507 6.63161 6.91111 6.78263 6.72675 6.76337 6.61997 6.75097 6.8545 6.68097 6.69981 6.68232 6.75177 6.54814 6.65785 6.61392 6.97885 6.84418 6.65168 6.82459 6.9107 6.66921 6.60224 6.77708 6.71251 6.76815 6.90652 6.72711 6.93171 6.88703 6.81846
internal_weight=420173 225589 194584 148446 102885 91699 77143 62153 54725 86293 57696 34003 44122 33021 48160 47216 39077 27504 29464 32044 26596 18282 28129 42577 32689 28363 20972 21100 26078 15274 15721 16618 15119 17747 20022 16116 18699 14941 19226 18853 9370 10238 6571 13884 21477 8679 13802 11350 18572 9146 12667 14655 11655 9603 11093 11472 10289 12999 7326 9561 8186 17270
internal_count=420173 225589 194584 148446 102885 91699 77143 62153 54725 86293 57696 34003 44122 33021 48160 47216 39077 27504 29464 32044 26596 18282 28129 42577 32689 28363 20972 21100 26078 15274 15721 16618 15119 17747 20022 16116 18699 14941 19226 18853 9370 10238 6571 13884 21477 8679 13802 11350 18572 9146 12667 14655 11655 9603 11093 11472 10289 12999 7326 9561 8186 17270
is_linear=0
shrinkage=1


Tree=1
num_leaves=63
num_cat=0
split_feature=0 0 30 23 23 23 30 30 30 23 30 23 29 0 23 29 23 23 23 23 23 55 30 23 23 23 29 30 30 29 55 29 29 30 30 29 55 23 23 23 27 6 81 81 55 27 29 84 27 23 84 23 29 55 55 55 23 55 84 23 55 23
split_gain=1.22483e+06 237180 176482 100702 78689.9 56412.9 37248 29284.3 22734.8 21986.2 20414.5 19027.7 15113.4 11370.7 10345 10322.5 9113.3 8771.48 8011.91 7616.12 7259.21 6279.13 6143.02 4868.83 4719.14 4686.92 4206.69 4144.85 3969.34 3867.84 3737.2 3723.86 3704.76 3579.26 3566.48 3524.21 3510.29 3392.28 2848.38 2743.64 2743.15 2637.4 2554.22 2440.27 2432.41 2413.1 2337.65 2279.91 2243.82 2192.84 2161.92 2047.73 1930.37 1866.14 1806.9 1725.98 1691.64 1645.33 1603.49 1513.69 1478.23 1418.16
threshold=6.6050000190734872 9.2650003433227557 4.537020444869996 -0.050000429153442376 -0.019999742507934567 0.19000000506639483 10.252899646759035 7.7712538242340097 7.5770914554595956 -0.04999947547912597 6.2826340198516855 0.29999996721744543 2.8627060651779179 3.9450000524520878 -0.12000009417533873 5.7598242759704599 -0.32999995350837702 -0.27999979257583613 0.36000037193298345 0.29999996721744543 -0.31000004708766932 0.66000080108642589 5.8761260509490976 -0.12000009417533873 0.47499990463256841 -0.089999437332153306 2.6825497150421147 9.0337896347045916 8.6711201667785662 11.504502773284914 0.74000072479248058 6.9051527976989755 11.820128917694094 8.5135564804077166 8.6711201667785662 6.5018308162689218 0.41000080108642584 -0.37000024318695063 0.32999995350837713 0.52000004053115856 -0.11934400349855422 5.7650001049041757 -1.2382574677467344 -0.93956175446510304 1.1049995422363283 0.0085119605064392107 5.2041442394256601 7.0846776962280282 -0.083401560783386217 -0.34000009298324579 4.9401612281799325 0.1449999809265137 3.7487967014312749 -0.33999919891357416 1.0049991607666018 0.43499946594238287 -0.36999964714050287 0.23000049591064456 4.3912901878356942 -0.36999964714050287 0.25499916076660162 0.29999996721744543
decision_type=2 2 2 2 2 2 2 2 2 2 2 2 2 2 2 2 2 2 2 2 2 2 2 2 2 2 2 2 2 2 2 2 2 2 2 2 2 2 2 2 2 2 2 2 2 2 2 2 2 2 2 2 2 2 2 2 2 2 2 2 2 2
left_child=2 4 5 10 7 13 9 17 19 27 20 15 39 25 29 36 45 47 33 35 40 37 42 -15 52 54 -27 56 61 -8 -17 -19 51 55 57 -6 -5 -12 -30 -7 -4 -21 -13 -24 46 53 -22 -2 -23 -29 -42 -16 -14 -9 -1 -10 -3 -18 -38 -50 -33 -11
right_child=1 6 3 11 8 12 14 16 18 28 21 22 24 23 32 30 34 31 -20 41 44 48 43 -25 -26 26 -28 49 38 -31 -32 60 -34 -35 -36 -37 58 -39 -40 -41 50 -43 -44 -45 -46 -47 -48 -49 59 -51 -52 -53 -54 -55 -56 -57 -58 -59 -60 -61 -62 -63
leaf_value=-0.21635921925436696 -0.072198437779627006 0.025664044953942023 -0.074919279849129633 -0.077330938487204681 -0.0054550807196644315 -0.15306949137474227 0.13860391318637144 0.0013195573712553462 0.062568276752115418 0.10349711251426155 -0.11033008288679691 0.038859238759117939 -0.10253681927601613 -0.1704488273709566 0.1891456493452443 -0.018855802993127127 0.028673314870238671 -0.035662339008226802 0.14662947547678881 0.051429109334648893 -0.14041907350111549 0.025393106015647676 0.088515490285839535 -0.11577327147461014 -0.032468975143392691 -0.20035603751912673 -0.15041876966849638 0.076948178946438225 0.15389328226988094 0.19478680947823956 0.030576012788134613 -0.00045749137835584056 0.26595315801845792 0.11609200790940342 0.07684925826294059 0.043070890046618432 -0.063151878185685059 -0.058333532936572965 0.19802264598519803 -0.10218999070525661 -0.16997934634424217 0.094737586258049691 -0.0071758312781207206 0.036248100562186157 -0.066788432186985033 -0.020144291978271878 -0.096719427923611767 -0.032866928311459258 -0.077053584599734215 0.11723206913332727 -0.12957196912904653 0.22791037580141291 -0.060674105229613778 0.049789592573867336 -0.1842947794102914 0.095726609743494437 0.07374171344567769 0.064413579565155879 -0.019511842692841699 -0.016822155432270846 0.035512393118580468 0.14956650953737891
leaf_weight=15122 8326 2707 1167 7832 4900 7815 8390 4717 8313 4178 5220 5024 6219 7716 7586 8418 11184 6981 9631 5651 4642 1980 5029 8651 7388 7415 9844 5363 12884 4845 7004 11697 3281 10368 10287 15820 3010 7873 5134 4025 8833 9324 7525 4021 3907 5956 9038 6615 1624 9176 5333 6281 4955 3429 6279 7455 5656 4524 7002 2916 3778 2803
leaf_count=15122 8326 2707 1167 7832 4900 7815 8390 4717 8313 4178 5220 5024 6219 7716 7586 8418 11184 6981 9631 5651 4642 1980 5029 8651 7388 7415 9844 5363 12884 4845 7004 11697 3281 10368 10287 15820 3010 7873 5134 4025 8833 9324 7525 4021 3907 5956 9038 6615 1624 9176 5333 6281 4955 3429 6279 7455 5656 4524 7002 2916 3778 2803
internal_value=5.79124e-06 0.0786541 -0.0926785 -0.0500157 0.0416219 -0.146311 0.149116 0.00672331 0.0794655 0.121643 -0.0994943 -0.00263919 -0.091643 -0.176513 0.192424 -0.0263654 0.0364065 -0.0251029 0.107639 0.0512326 -0.123553 -0.0591078 0.0339023 -0.141558 -0.0634813 -0.191306 -0.171884 0.0862445 0.154067 0.159185 0.00359418 -0.00535 0.218068 0.0932662 0.0539628 0.0315952 -0.0522575 -0.0790711 0.166478 -0.135784 -0.148706 0.0783995 0.0112556 0.0652997 -0.101617 0.00404201 -0.111557 -0.0547884 -0.0190122 0.102379 -0.154778 0.206719 -0.0839808 0.0217269 -0.206961 0.0782507 0.0581851 0.0389705 -0.0326372 -0.0383808 0.00832545 0.122014
internal_weight=420067 227240 192827 107398 148956 85429 78284 77494 71462 47901 52533 54865 30402 55027 30383 33266 40097 37397 35767 35695 32920 19613 21599 16367 18562 38660 17259 22902 24999 13235 15422 22456 17148 26136 25995 20720 17844 13093 18018 11840 15333 14975 12549 9050 17587 14102 13680 14941 6520 14539 14166 13867 11174 8146 21401 15768 8363 15708 10012 4540 15475 6981
internal_count=420067 227240 192827 107398 148956 85429 78284 77494 71462 47901 52533 54865 30402 55027 30383 33266 40097 37397 35767 35695 32920 19613 21599 16367 18562 38660 17259 22902 24999 13235 15422 22456 17148 26136 25995 20720 17844 13093 18018 11840 15333 14975 12549 9050 17587 14102 13680 14941 6520 14539 14166 13867 11174 8146 21401 15768 8363 15708 10012 4540 15475 6981
is_linear=0
shrinkage=0.05


Tree=2
num_leaves=63
num_cat=0
split_feature=29 84 84 55 29 55 95 55 84 55 84 84 24 29 24 24 84 24 20 81 29 24 90 29 81 24 29 29 84 29 6 81 27 29 84 29 97 90 24 20 24 20 90 55 29 84 24 17 86 24 54 24 24 24 84 20 17 24 65 29 84 29
split_gain=1.08753e+06 225292 152171 55639.6 52314.6 51942.5 30208.8 29414.8 22585.4 18960.4 18884.1 16591.1 13143.7 12511.8 11549.6 10842.7 8834.61 7609.14 6496.65 6387.15 6377.06 6307.14 6012.69 5361.96 5009.4 4914.23 4892.77 4772.18 4595.08 4387.81 4075.11 3926.96 3741.11 3704.88 3543.73 3326.61 3210.09 3000.94 2831.86 2809.84 2537.38 2487.34 2436.38 2255.14 2214.22 2034.06 2021.39 1981.64 1973.87 1918.89 1899.44 1892.3 1819.06 1754.37 1746.17 1664.22 1606.94 1546.1 1532.77 1519.22 1472.25 1464.32
threshold=6.530081272125245 8.5911288261413592 4.6366128921508798 -0.10999965667724608 10.044455528259279 -0.075000762939453111 78.084499359130874 0.32000064849853521 7.1127419471740732 -0.81500053405761708 3.3348387479782109 6.9237098693847665 0.27999985218048101 4.0998051166534433 -0.13499999046325681 -0.14999994635581967 3.5364516973495488 -0.70000052452087391 -0.46600069105625147 -1.1768462657928465 4.5555272102355966 0.38000035285949713 -0.11967742443084715 8.5246577262878436 -0.95940005779266346 -0.54999947547912587 11.37153482437134 8.7422642707824725 5.8848388195037851 11.655004978179933 7.2149999141693124 -0.57055580615997303 -0.029268950223922726 8.6750736236572283 2.5891935825347905 5.696465492248536 27.500000000000004 -0.42096775770187372 -0.29999983310699457 0.46762141585350042 0.94499993324279796 0.36398285627365118 -0.18564534187316892 -0.31500053405761713 7.8166379928588876 5.9482254981994638 1.000000059604645 8.1990623474121112 100.48983764648439 -0.094999790191650377 -0.22999858856201169 0.32999995350837713 -0.13499999046325681 -0.72999998927116383 7.9727418422698983 0.17407781630754474 3.5226042270660405 1.4100005626678469 30.265000343322757 5.0239470005035409 5.2188706398010263 7.1952080726623544
decision_type=2 2 2 2 2 2 2 2 2 2 2 2 2 2 2 2 2 2 2 2 2 2 2 2 2 2 2 2 2 2 2 2 2 2 2 2 2 2 2 2 2 2 2 2 2 2 2 2 2 2 2 2 2 2 2 2 2 2 2 2 2 2
left_child=2 5 7 13 9 8 20 16 17 23 34 25 31 40 41 26 51 39 47 45 -5 33 53 49 -12 32 -6 57 -21 43 -24 -8 -7 -11 58 46 -26 -18 -25 44 -4 60 -20 -17 -2 -14 -16 -13 -27 -3 -44 -1 55 -10 -32 -39 -36 -23 -9 -33 -15 -19
right_child=1 4 3 6 15 11 12 10 22 21 24 18 19 14 35 29 37 61 42 28 -22 27 30 38 36 48 -28 -29 -30 -31 54 59 -34 -35 56 -37 -38 52 -40 -41 -42 -43 50 -45 -46 -47 -48 -49 -50 -51 -52 -53 -54 -55 -56 -57 -58 -59 -60 -61 -62 -63
leaf_value=-0.19574920881580682 -0.089429953681599145 0.0058917510786499969 -0.16497359153566807 -0.16010773893916777 0.12966290441626491 0.03532585484690054 -0.0054387655893273958 -0.17272325083359855 -0.029374242241352672 0.061137606813227691 -0.041987714894185998 0.090213868626027857 0.025497579599257244 -0.13889409107790834 -0.07986018379486047 0.16490856465315964 -0.17484615986657603 -0.020751901806096547 0.037998156739724689 -0.02781463329600127 -0.05158189765655187 0.10151976344860758 0.013553757032745055 0.05927816504732928 -0.084775765876877324 0.07243575909012244 0.1844422330303192 0.16368917640008446 0.022264344557064122 0.24837416521808656 0.03708155524997641 -0.096484437099628839 -0.032005011757859823 0.11453437701484602 -0.14642873834937822 -0.023441515123906263 -0.16333225693251882 -0.15936189203735956 0.10195659965310636 -0.02853498551041013 -0.095412325415983046 -0.074606346588864267 0.049837263146162755 0.20337233780222436 -0.039562037337341462 0.065679449912058249 -0.028771705295191238 0.12882566988171226 0.030994572670351862 0.054843297914775227 0.084006701727670177 -0.15554437377820929 -0.111825826199102 0.0090573885173794808 0.068614379647481211 -0.11552106021377689 -0.10746927182703102 0.13928534013365176 -0.13420144852038071 -0.045637093765809753 -0.10345451357947776 0.013964913875267543
leaf_weight=17573 6840 3694 5445 3663 12698 3667 6783 7622 4850 4716 7377 6296 5845 4268 7454 6171 5812 6689 5399 7893 2149 6616 12631 7123 13763 4741 6019 10758 10912 3835 10223 1783 4714 10472 4015 8033 1437 7144 8573 5399 1734 5482 5417 10135 3304 6835 2618 7075 7301 4371 16401 3544 6299 7655 7703 3129 7852 4619 3946 8363 9462 5562
leaf_count=17573 6840 3694 5445 3663 12698 3667 6783 7622 4850 4716 7377 6296 5845 4268 7454 6171 5812 6689 5399 7893 2149 6616 12631 7123 13763 4741 6019 10758 10912 3835 10223 1783 4714 10472 4015 8033 1437 7144 8573 5399 1734 5482 5417 10135 3304 6835 2618 7075 7301 4371 16401 3544 6299 7655 7703 3129 7852 4619 3946 8363 9462 5562
internal_value=0.000159732 0.0726925 -0.0891086 -0.0463002 0.12937 0.0297969 -0.0122971 -0.13632 0.000677517 0.10046 -0.108446 0.0636145 0.000634146 -0.0877375 -0.0761043 0.174706 -0.1658 -0.0344589 0.0821098 0.0197374 -0.119997 0.122756 0.0233564 0.0655683 -0.0758048 0.0268551 0.147288 0.139874 0.00124413 0.200177 0.0353082 -0.0348933 -0.00254395 0.0979597 -0.139887 -0.0474456 -0.092213 -0.143896 0.082594 -0.0576841 -0.148188 -0.103108 0.0680835 0.188827 -0.0731935 0.047161 -0.0665855 0.110653 0.0473153 0.0324262 0.075526 -0.18901 -0.133032 -0.00584888 0.0506349 -0.146022 -0.120662 0.117058 -0.159596 -0.0545818 -0.114481 -0.00499008
internal_weight=419902 231667 188235 98722 99800 131867 54226 89513 70856 60942 46012 61011 48414 44496 37317 38858 43501 27794 40588 31485 5812 37181 43062 23761 22577 20423 18717 21993 18805 20141 30557 16929 8381 15188 23435 18105 15200 22384 15696 15543 7179 19212 27217 16306 10144 12680 10072 13371 12042 8065 21818 21117 16572 12505 17926 10273 11867 11235 11568 10146 13730 12251
internal_count=419902 231667 188235 98722 99800 131867 54226 89513 70856 60942 46012 61011 48414 44496 37317 38858 43501 27794 40588 31485 5812 37181 43062 23761 22577 20423 18717 21993 18805 20141 30557 16929 8381 15188 23435 18105 15200 22384 15696 15543 7179 19212 27217 16306 10144 12680 10072 13371 12042 8065 21818 21117 16572 12505 17926 10273 11867 11235 11568 10146 13730 12251
is_linear=0
shrinkage=0.05


Tree=3
num_leaves=63
num_cat=0
split_feature=15 15 15 23 23 23 0 0 23 15 30 0 0 23 23 23 0 25 23 15 0 23 23 23 15 23 15 23 0 0 1 23 23 23 23 15 1 0 25 81 35 15 1 0 35 23 35 0 23 81 35 35 30 0 1 35 0 0 68 23 35 0
split_gain=1.04615e+06 185137 158156 67965.5 60789.1 42973.1 30141.8 20061.9 17660.8 16137 15761.2 15076.6 14544.4 10314.5 9758.03 8558.56 7132.76 6119.19 5953.98 4860.51 4613.28 4611.01 4605.51 4435.43 4265.7 3935.29 3905.92 3734.66 3536.12 2873.86 2806.22 2791.84 2787.96 2355.21 2316.78 2297.68 2215.69 2195.38 2178.68 2103.99 1900.62 1897.18 1779.73 1745.74 1718.65 1639.22 1638.86 1609.88 1558.79 1457.28 1445.51 1408.79 1333.51 1333.31 1330.26 1317.08 1310.71 1264.96 1192.78 1152.47 1110.38 1099.97
threshold=6.6522917747497567 9.026041507720949 4.7343750000000009 -0.099999666213989244 -0.029999852180480954 0.11000037193298341 10.394999980926515 7.8350000381469735 0.010000169277191164 7.9147915840148935 3.0930842161178593 4.8250000476837167 6.1449999809265146 0.36000037193298345 0.23000004887580874 -0.11500024795532225 5.4249999523162851 0.59999993443489086 -0.44999957084655756 3.1168749332427983 4.6849999427795419 -0.34999978542327875 -0.31000004708766932 -0.16000005602836606 11.061458110809328 -0.32999995350837702 11.162708282470705 -0.44000004231929774 7.5650000572204599 9.1149997711181658 6.8849999904632577 0.32999995350837713 0.39999973773956304 0.28999997675418859 0.44000017642974859 5.855208396911622 8.9949998855590838 5.9749999046325692 0.67999988794326793 -1.0980134606361387 -0.70710678118654757 5.5735416412353525 6.9449999332427987 7.5950000286102304 -0.70710678118654757 -0.15000033378601071 -0.70710678118654757 8.8550000190734881 0.40999990701675421 -0.4715548157691955 -0.70710678118654757 0.78656609248549303 2.3164373636245732 7.9549999237060556 8.6250000000000018 -0.5 3.1750000715255742 7.5050001144409189 30.314999580383304 0.52000004053115856 0.60355339059327384 4.9449999332427987
decision_type=2 2 2 2 2 2 2 2 2 2 2 2 2 2 2 2 2 2 2 2 2 2 2 2 2 2 2 2 2 2 2 2 2 2 2 2 2 2 2 2 2 2 2 2 2 2 2 2 2 2 2 2 2 2 2 2 2 2 2 2 2 2
left_child=2 3 5 7 12 11 8 18 21 14 32 19 22 16 28 24 39 46 -2 56 31 47 58 -21 -8 57 51 -9 44 60 50 -12 52 54 -19 61 -23 45 -16 -6 -32 -24 55 -27 -5 -13 -11 -3 -22 -33 -20 -17 -7 -48 -10 -18 -1 -14 -4 -40 -29 -15
right_child=1 6 4 9 13 10 15 27 33 17 20 37 25 35 38 26 42 34 30 23 48 36 41 -25 -26 43 -28 29 -30 -31 40 49 -34 -35 -36 -37 -38 -39 59 -41 -42 -43 -44 -45 -46 -47 53 -49 -50 -51 -52 -53 -54 -55 -56 -57 -58 -59 -60 -61 -62 -63
leaf_value=-0.20088613987319759 -0.064037797950838526 0.01973606756540261 -0.13375732040770832 0.038195437772060567 -0.015085239257845624 -0.17527790269826238 0.12133186447733951 -0.0016010120086427373 0.10265434819014976 0.096942461982698541 -0.10209526334212377 -0.14401322451222329 -0.091960683567495899 -0.007428497613474941 0.054680689626925787 0.18760032889579095 0.012296851600964311 0.10482012179439981 -0.0088754907567086001 -0.17627714167154426 -0.049813593928077028 0.068861547945638091 -0.10426378176749335 -0.13561062412405367 0.17847566756461977 -0.045099778014586624 0.22561154970377226 0.039901758545716912 0.05244454006859537 0.063320887795613914 0.038841459238871431 -0.033981737050962642 -0.10391013370790857 0.16718480121401316 0.14531223175430472 0.047725380095106039 0.10808687547227758 -0.080103328106043856 0.077255109403983113 -0.058915134855728385 -0.0090891096958021136 -0.069268019065274397 0.021760195700574428 -0.0059293190442089192 0.0047795537168800386 -0.10012810214784724 0.0483348243469372 0.066862737040880624 -0.0041841981767348421 -0.077838718921685535 -0.051042187968756397 0.1494327026218841 -0.1334593265770794 0.080320852572229248 0.14129216364809508 -0.020982359312257535 -0.17084150612686602 -0.049562014311031938 -0.091118538985776321 0.10727752340446356 0.0127793873012059 0.02619791156316964
leaf_weight=12467 8243 2917 10507 6123 3765 2997 8813 7343 3044 6109 7006 4778 5262 4298 6741 9613 4365 12152 3131 15231 4720 5256 7532 12028 5204 9527 6479 7588 12527 8108 2534 3401 6068 7484 4997 7924 11488 4147 7788 10049 11233 7998 6293 4056 10355 3863 6056 4790 3102 4283 5796 3270 5337 7072 8473 9318 5206 2650 1956 5449 7510 5599
leaf_count=12467 8243 2917 10507 6123 3765 2997 8813 7343 3044 6109 7006 4778 5262 4298 6741 9613 4365 12152 3131 15231 4720 5256 7532 12028 5204 9527 6479 7588 12527 8108 2534 3401 6068 7484 4997 7924 11488 4147 7788 10049 11233 7998 6293 4056 10355 3863 6056 4790 3102 4283 5796 3270 5337 7072 8473 9318 5206 2650 1956 5449 7510 5599
internal_value=-0.000149031 0.0737188 -0.084566 0.0408164 -0.0410812 -0.131021 0.136607 0.000735773 0.109153 0.0696835 -0.0888841 -0.157966 -0.0806748 -0.00311544 0.0509455 0.172341 -0.0193482 0.0949065 -0.0276447 -0.171601 -0.0627469 0.0810469 -0.104428 -0.158339 0.142559 -0.0497376 0.193893 0.0294768 0.0324223 0.0393105 -0.0144234 -0.0792634 -0.129732 0.145315 0.116627 0.0276623 0.0957791 -0.110049 0.0778352 -0.0469716 -0.000264306 -0.0862468 -0.000244175 -0.0334048 0.0171983 -0.124409 0.0755381 0.0490314 -0.0317217 -0.0584349 -0.0362561 0.177925 -0.148518 0.0655708 0.13109 -0.0103655 -0.192046 -0.0777686 -0.127074 0.0896214 0.0264127 0.0115951
internal_weight=419419 223686 195733 146855 101099 94634 76831 61486 43452 85369 36914 57720 49488 51611 48983 33379 33790 36386 30937 44932 22512 24451 27993 27259 14017 21495 19362 30549 29005 23206 22694 14690 14402 19001 17149 17821 16744 12788 19978 13814 13767 15530 19976 13583 16478 8641 19237 7707 7822 7684 8927 12883 8334 13128 11517 13683 17673 7912 12463 13237 15098 9897
internal_count=419419 223686 195733 146855 101099 94634 76831 61486 43452 85369 36914 57720 49488 51611 48983 33379 33790 36386 30937 44932 22512 24451 27993 27259 14017 21495 19362 30549 29005 23206 22694 14690 14402 19001 17149 17821 16744 12788 19978 13814 13767 15530 19976 13583 16478 8641 19237 7707 7822 7684 8927 12883 8334 13128 11517 13683 17673 7912 12463 13237 15098 9897
is_linear=0
shrinkage=0.05


Tree=4
num_leaves=63
num_cat=0
split_feature=0 0 30 23 23 23 84 30 30 30 30 81 28 30 23 23 23 55 23 23 35 23 23 30 23 23 30 23 23 28 6 55 23 35 23 30 6 30 28 30 23 55 26 55 84 30 30 35 26 23 28 23 28 23 28 84 34 28 30 1 0 23
split_gain=904016 164884 142858 72250.6 58061.2 51162.1 27090.8 19732.3 17635.1 16601.4 14498.1 11755.8 10391.6 9660.73 9461.82 7420.37 7143.61 6227.92 6218.39 6060.77 5255.89 5129.26 4712.07 4661.31 4135.39 3732.98 3640.74 3485.77 3421.17 3377.63 3119.02 3118.31 3095.18 2880.3 2767.88 2760.08 2489.57 2384.21 2094.64 2023.71 1957.39 1899.28 1834.77 1829.15 1788.01 1695.44 1636.39 1633.84 1619.71 1582.66 1419.47 1416.43 1394.9 1370.2 1367.71 1349.28 1321.33 1317.67 1271.92 1269.87 1157.49 1151.76
threshold=6.7249999046325692 9.3350000381469744 4.818223476409913 -0.0099998712539672834 -0.059999704360961907 0.1449999809265137 9.8556456565856951 7.8188822269439706 7.8188822269439706 3.3838671445846562 6.3414525985717782 -1.3685069680213926 3.7349345684051518 10.373911380767824 -0.13000035285949704 0.23000004887580874 -0.23999983072280881 0.32000064849853521 -0.16000005602836606 -0.4000000655651092 -0.70710678118654757 -0.32000011205673212 0.11000037193298341 5.9638986587524423 0.46000009775161749 -0.34999978542327875 10.022926807403566 -1.0000000180025095e-35 0.39999973773956304 2.0967853069305424 8.5650000572204608 0.76999950408935558 0.47499990463256841 -0.70710678118654757 0.32999995350837713 6.6144814491271982 5.8450000286102304 6.5880758762359628 8.692228317260744 3.3380473852157597 0.47499990463256841 0.14000034332275393 0.036996543407440192 0.76999950408935558 4.9401612281799325 5.933363914489747 11.643160820007326 -0.70710678118654757 0.0095501244068145769 -0.15000033378601071 12.490896224975588 -0.49999998509883875 3.5454852581024174 0.46000009775161749 8.36047410964966 7.0846776962280282 0.12940952255126045 2.6769695281982426 8.7012481689453143 5.1649999618530282 5.305000066757203 -0.26999992132186884
decision_type=2 2 2 2 2 2 2 2 2 2 2 2 2 2 2 2 2 2 2 2 2 2 2 2 2 2 2 2 2 2 2 2 2 2 2 2 2 2 2 2 2 2 2 2 2 2 2 2 2 2 2 2 2 2 2 2 2 2 2 2 2 2
left_child=2 4 5 10 7 12 14 21 15 29 16 32 31 22 26 35 43 54 60 48 42 55 61 28 52 -22 51 46 -13 -7 -16 49 45 -21 58 -6 -17 -23 -35 -33 -31 -25 -12 44 -4 -5 -15 -18 -9 -1 -29 -3 -11 -38 -10 -2 -26 -51 -19 -49 -14 -8
right_child=1 6 3 11 8 9 13 19 17 24 20 23 18 27 30 36 47 34 -20 33 25 37 -24 41 56 -27 -28 50 -30 40 -32 39 -34 38 -36 -37 53 -39 -40 -41 -42 -43 -44 -45 -46 -47 -48 59 -50 57 -52 -53 -54 -55 -56 -57 -58 -59 -60 -61 -62 -63
leaf_value=-0.19362510012867956 -0.065042944835464675 0.022898937716849307 -0.14318779705216042 0.0051474338928700781 0.0011696684456658085 -0.14065667442374821 0.08386921589786811 -0.014405659904717047 0.054669272064017962 -0.087972771413424244 -0.027535172040329549 -0.039073408776928525 -0.15779230283081952 0.14981135679426683 0.10074626795444049 0.0453205220535432 -0.042277546590380501 0.087138485055482717 -0.10014494957590601 0.078211891872396994 -0.089564503454021629 -0.036164723512386664 0.16208800943707974 -0.0095388161977425986 -0.010380273435725187 -0.040229388410912857 0.10296645400111136 0.19887447714246498 0.010837058977715947 -0.11014892248856648 0.14045456211289228 -0.16656804160182015 0.076752011393534963 0.022310622583680911 0.141402071476978 0.039247750665257951 0.068067753426615293 0.0024119025965222665 0.054329865898293306 -0.12714916902836601 -0.065458020012231277 0.026360987540367944 0.025731059486738247 -0.08807016409264079 -0.10688009679349189 0.047640634623587662 0.19188812010452841 -0.10466719888938125 0.029956554628250448 -0.18461660848784564 0.25808665368648676 0.065504269411634966 -0.05244469838953833 0.10061722982051123 0.084892165866440703 -0.031119810868712183 -0.06917554465596204 -0.14924528545660337 0.12118307778634047 -0.068309860750168705 -0.11641398198924771 0.12136551887883576
leaf_weight=10338 6363 2538 7316 4157 6736 6421 2944 7352 6330 4027 4395 12485 9890 6837 8673 6860 3823 6854 12440 4854 6408 5481 7878 6018 7157 9554 6466 8261 4735 7204 11560 7150 5316 12413 6657 16216 7310 14868 8682 6028 3723 9497 2556 4071 6364 5393 3526 3588 2856 5054 1169 8457 8832 5819 9197 5442 1102 5597 4600 7309 2058 6825
leaf_count=10338 6363 2538 7316 4157 6736 6421 2944 7352 6330 4027 4395 12485 9890 6837 8673 6860 3823 6854 12440 4854 6408 5481 7878 6018 7157 9554 6466 8261 4735 7204 11560 7150 5316 12413 6657 16216 7310 14868 8682 6028 3723 9497 2556 4071 6364 5393 3526 3588 2856 5054 1169 8457 8832 5819 9197 5442 1102 5597 4600 7309 2058 6825
internal_value=5.03887e-05 0.0699868 -0.0768857 -0.0358697 0.0388173 -0.120422 0.130093 0.00530477 0.068711 -0.0756211 -0.0746949 0.00930409 -0.149851 0.160221 0.100166 0.0474724 -0.0961847 0.095821 -0.124906 0.0306461 -0.0442378 -0.0231913 0.133303 -0.0074407 -0.0458457 -0.0600398 0.0731915 0.184211 -0.0253494 -0.111862 0.123439 -0.167652 0.0461746 0.0434851 0.115744 0.0280733 0.0697444 -0.00797973 0.0354909 -0.148548 -0.0949299 0.012436 -0.00794668 -0.117543 -0.126307 0.0291469 0.164146 -0.0704215 -0.00199177 -0.179638 0.206242 0.055673 -0.0635772 0.0825012 0.0725756 -0.0494091 -0.0182334 -0.166046 0.100821 -0.08029 -0.150676 0.110076
internal_weight=420030 220024 200006 102985 144890 97021 75134 68311 76579 38466 55384 47601 58555 37440 37694 42941 32471 33638 24388 36157 22913 32154 17647 32735 21118 15962 17461 19793 17220 17348 20233 34167 14866 25949 18111 22952 19989 20349 21095 13178 10927 15515 6951 17751 13680 9550 10363 14720 10208 20989 9430 10995 12859 13129 15527 11805 8259 10651 11454 10897 11948 9769
internal_count=420030 220024 200006 102985 144890 97021 75134 68311 76579 38466 55384 47601 58555 37440 37694 42941 32471 33638 24388 36157 22913 32154 17647 32735 21118 15962 17461 19793 17220 17348 20233 34167 14866 25949 18111 22952 19989 20349 21095 13178 10927 15515 6951 17751 13680 9550 10363 14720 10208 20989 9430 10995 12859 13129 15527 11805 8259 10651 11454 10897 11948 9769
is_linear=0
shrinkage=0.05


Tree=5
num_leaves=63
num_cat=0
split_feature=15 15 15 23 23 24 84 84 84 84 30 15 15 23 23 15 23 23 15 23 23 23 23 23 81 23 84 23 84 15 15 28 0 23 0 15 24 27 23 27 24 23 28 28 35 35 15 0 28 21 30 15 28 27 23 23 0 0 23 2 26 28
split_gain=861465 144795 141749 54582.6 54368.4 35115.8 23323.7 20816 12170 11226.7 11092.6 9978.15 9891.14 8261.13 7186.4 6611.77 6202.01 5503.93 5377.78 5172.5 4027.4 3939.44 3673.88 3546.66 3447.78 2749.3 2671 2654.92 2437.48 2410.67 2315.81 2312.59 2279.2 2191.15 2150.62 2082.46 2022.11 1982.48 1971.45 1782.74 1751.71 1716.5 1669.78 1606.56 1588.85 1547.75 1516.37 1501.21 1446.84 1423.15 1356.15 1315.9 1291.9 1247.59 1236.94 1167.71 1142.92 1128.53 1060.48 1048.18 1013.66 987.122
threshold=6.8047916889190683 4.7343750000000009 9.2437500953674334 -0.069999814033508287 0.019999988377094272 0.38000035285949713 9.6079030036926287 7.5437095165252694 6.1614513397216806 5.4582257270812997 3.2444738149642949 3.6264582872390752 8.1947913169860858 -0.12000009417533873 -0.27999979257583613 10.721041679382326 0.30000042915344244 -0.21999955177307126 8.1185417175292987 0.3499999344348908 0.29999996721744543 0.049999833106994636 -0.40999960899353022 0.32000041007995611 -1.1172459125518797 -0.19999986886978147 11.760483741760256 0.4200000017881394 7.9727418422698983 2.4472916126251225 7.8660416603088388 6.8130574226379403 7.3250000476837167 -0.38999962806701655 5.6250000000000009 5.855208396911622 -0.61999964714050282 0.062064981088042266 0.22499990463256839 -0.11934400349855422 -0.52500009536743153 -0.28999990224838251 4.6968698501586923 7.3195331096649179 -0.70710678118654757 -0.70710678118654757 7.8660416603088388 9.3350000381469744 4.7785313129425058 -5.40555715560913 2.2200593948364262 5.855208396911622 5.467754840850831 0.015471570193767549 0.19000017642974856 -0.0099998712539672834 10.164999961853029 5.5050001144409189 0.38999992609024053 4.055000066757203 0.0035696029663085942 4.1484434604644784
decision_type=2 2 2 2 2 2 2 2 2 2 2 2 2 2 2 2 2 2 2 2 2 2 2 2 2 2 2 2 2 2 2 2 2 2 2 2 2 2 2 2 2 2 2 2 2 2 2 2 2 2 2 2 2 2 2 2 2 2 2 2 2 2
left_child=1 5 4 8 7 11 13 14 22 24 23 25 19 28 37 21 31 34 40 32 48 -8 39 -7 58 -1 41 47 60 -27 -16 44 45 -10 -13 -24 -20 46 -15 -3 -9 -17 -22 -35 -11 -6 -2 -14 -12 -21 -25 -18 55 -30 59 -19 -38 -41 -5 -26 -4 -31
right_child=2 3 6 9 12 10 15 18 33 16 20 17 27 38 30 26 51 52 36 49 42 -23 35 50 54 29 -28 -29 53 61 -32 -33 -34 43 -36 -37 56 -39 -40 57 -42 -43 -44 -45 -46 -47 -48 -49 -50 -51 -52 -53 -54 -55 -56 -57 -58 -59 -60 -61 -62 -63
leaf_value=-0.18011909343208199 -0.04303427532302645 -0.051012927462842889 0.014708323692695473 -0.018590586465267664 0.052851281125577403 -0.13791561413865003 0.11636308651199899 0.002297432840718028 -0.068402578727290997 0.013984052574832363 -0.094327214006931212 -0.15321435697051272 0.083221183534651633 0.11072078220682272 -0.0038933429109740954 0.13635040018872546 0.020429209849932229 -0.11966013392180286 0.037267999025964609 0.10753908384151792 -0.045215401047640491 0.16086951938274985 -0.093685795504550085 -0.12624345056466044 -0.089928593215350405 -0.17789470271791444 0.22225113105256505 0.13117702422041627 0.095280848211877447 -0.14385655044723641 0.030165648521310148 0.018294667835854275 0.061860244175533041 -0.044802384594908241 -0.10012855715745894 -0.060201553937025379 0.060327507659142299 -0.086415068586722876 0.14815171172931316 -0.13839094051214718 0.032356778693856669 0.17982726406620209 -0.00094689201903303704 -0.0096505679875341088 -0.023472374432293545 0.015227410059445445 -0.011084090045545822 0.11552328156490371 -0.053681053421016638 0.074779243783353322 -0.077559810193764261 0.049262795463355748 -0.062965277469978292 0.057313738854091134 -0.029010664151342111 -0.090359612653012358 0.09531140750874692 -0.10384123494165365 0.02181206877606974 -0.048374055753510142 0.06324998603026058 -0.10584813402702205
leaf_weight=11916 8770 940 2109 4119 4918 6723 10437 7889 5812 3724 5547 11061 11804 10739 14054 2894 6889 7255 9031 5144 7819 9531 11508 1861 2024 5356 3092 6277 7415 11625 7738 8233 14983 8834 2316 7801 11515 1701 5256 5412 12569 10878 2928 5144 11799 6156 6443 5191 3627 9382 6241 9306 2018 3065 6152 6449 2934 4238 2680 6092 2196 2021
leaf_count=11916 8770 940 2109 4119 4918 6723 10437 7889 5812 3724 5547 11061 11804 10739 14054 2894 6889 7255 9031 5144 7819 9531 11508 1861 2024 5356 3092 6277 7415 11625 7738 8233 14983 8834 2316 7801 11515 1701 5256 5412 12569 10878 2928 5144 11799 6156 6443 5191 3627 9382 6241 9306 2018 3065 6152 6449 2934 4238 2680 6092 2196 2021
internal_value=0.000185979 -0.072949 0.0703694 -0.0341152 0.0427309 -0.118316 0.130254 0.0159563 -0.0730199 -0.00243302 -0.0783092 -0.141475 0.0773831 0.0981229 -0.0107794 0.157102 0.013141 -0.120449 0.0395081 0.062478 -0.0539331 0.137614 -0.0931518 -0.111058 -0.0319668 -0.161259 0.180166 0.103371 0.0711711 -0.149423 0.00820107 -0.00312477 0.0491463 -0.042601 -0.144032 -0.080162 0.055836 -0.0352331 0.123029 -0.116826 0.0207662 0.170702 -0.0331562 -0.0318682 -0.0144859 0.03194 -0.0295047 0.0930941 -0.0782656 0.0863872 -0.0887571 0.0369999 -0.100376 0.0841839 -0.045929 -0.105879 0.0674378 -0.123231 -0.00266324 -0.0587475 0.0394797 -0.138236
internal_weight=419581 205470 214111 110707 146499 94763 67612 82644 49689 61018 34746 60017 63855 30780 38706 36832 39951 29099 43938 40583 19921 19968 29899 14825 21067 30918 16864 23272 14785 19002 21792 23756 26057 19790 13377 19309 23480 16914 15995 10590 20458 13772 10747 13978 15523 11074 15213 16995 9174 14526 8102 16195 15722 10480 14268 13704 14449 9650 6799 8116 4305 13646
internal_count=419581 205470 214111 110707 146499 94763 67612 82644 49689 61018 34746 60017 63855 30780 38706 36832 39951 29099 43938 40583 19921 19968 29899 14825 21067 30918 16864 23272 14785 19002 21792 23756 26057 19790 13377 19309 23480 16914 15995 10590 20458 13772 10747 13978 15523 11074 15213 16995 9174 14526 8102 16195 15722 10480 14268 13704 14449 9650 6799 8116 4305 13646
is_linear=0
shrinkage=0.05


Tree=6
num_leaves=63
num_cat=0
split_feature=15 15 15 23 24 84 23 84 84 84 23 1 15 23 1 23 15 15 23 23 15 23 55 23 23 84 23 23 25 15 84 27 15 23 23 55 15 15 15 15 11 23 21 27 27 25 81 81 25 1 84 1 23 27 1 1 23 23 25 1 1 1
split_gain=775442 140481 114705 50037.4 48895 28215 27417 12453.5 11375.1 10471.3 10206.1 9264.36 9056.89 9012.02 7711.96 6047.29 5364.41 5363.43 5234.52 4197.45 3936.29 3719.27 3598.64 3307.05 3096.74 3080.21 3042.66 2845.94 2762.02 2387.51 2222.38 2217.57 2067.85 2052.82 2051.49 2030.41 1974.35 1738.91 1732.52 1697.07 1607.9 1553.87 1533.91 1525.92 1513.57 1888.57 1490.15 1388.43 1367.99 1333.19 1294.04 1277.6 1215.08 1206.95 1186.27 1185.26 1033.37 1029.93 998.886 964.338 902.603 897.829
threshold=6.6235415935516366 8.8906250000000018 4.4968750476837167 -0.099999666213989244 -0.059999704360961907 9.4495158195495623 0.070000410079956069 6.5920968055725107 5.3269355297088632 5.25435495376587 -0.029999852180480954 3.0849999189376835 10.291041851043703 0.24000048637390139 4.3150000572204599 0.24000048637390139 7.7435417175292978 7.571458339691163 -0.23000007867813108 0.40000021457672125 7.5002083778381357 0.11999991536140443 0.66000080108642589 0.05000042915344239 0.34000039100646978 7.6414518356323251 -0.2300000116229057 -0.31500005722045893 -0.94999957084655751 2.9577083587646489 3.5879033803939824 -0.14313481748104093 5.855208396911622 -0.42499995231628412 -0.19500017166137693 0.41000080108642584 5.855208396911622 11.401458263397219 10.006458282470705 2.789374947547913 8.3866667747497576 -0.13000035285949704 -5.40555715560913 -0.039492577314376824 -0.080784797668457017 -2.74999988079071 -1.3454197049140928 -0.4715548157691955 -1.0499994754791258 6.7049999237060556 11.760483741760256 5.8450000286102304 0.34000039100646978 0.0073456168174743661 4.5150001049041757 4.1150000095367441 -0.27999979257583613 0.57999995350837719 -0.47999998927116388 7.5750000476837167 4.0150001049041757 5.7249999046325692
decision_type=2 2 2 2 2 2 2 2 2 2 2 2 2 2 2 2 2 2 2 2 2 2 2 2 2 2 2 2 2 2 2 2 2 2 2 2 2 2 2 2 2 2 2 2 2 2 2 2 2 2 2 2 2 2 2 2 2 2 2 2 2 2
left_child=2 4 6 9 7 10 14 18 22 31 25 19 21 17 29 36 34 59 44 39 57 58 60 37 54 53 48 -16 -11 -1 -24 -4 -30 -33 -9 -12 -10 -14 56 -8 -19 -31 -22 -20 -2 -46 -17 -21 -18 -48 -25 -29 -32 -3 -13 -35 -27 -15 -7 -6 -5 -45
right_child=1 5 3 8 13 12 11 16 15 28 35 24 23 20 27 46 26 40 43 47 42 -23 30 50 -26 38 -28 51 32 41 52 33 -34 55 -36 -37 -38 -39 -40 -41 -42 -43 -44 61 45 -47 49 -49 -50 -51 -52 -53 -54 -55 -56 -57 -58 -59 -60 -61 -62 -63
leaf_value=-0.17232334588457773 -0.0040027083136458591 0.046304991236588967 -0.044063344379242253 -0.089729035519788974 0.014777276856285862 0.079491620870326588 -0.1464448024185199 -0.014877739257662432 -0.028221794154591841 -0.078401177147005549 0.092473944808096231 -0.087267684444062174 0.13286270275652204 0.052545249221144057 -0.14236679109545261 0.047186918094564628 0.00044798394681798079 0.04978350170033153 0.028289868426353185 -0.050097735786954194 0.11702252899204356 0.14443040484170447 -0.059943806951036106 0.17668242760453251 -0.030325501986215527 0.04386280043757055 0.048741696625042276 -0.10711731149335722 -0.062278188043227427 -0.15633165573439559 -0.025861232280499271 -0.13207927941626035 -0.025986974890690014 -0.12742208291686358 0.017115857494107416 0.12831211460875602 0.0020419503388236695 0.16909139482842231 0.094379620881856766 -0.10853710151140808 0.076929270447829878 -0.12742941718249007 0.086654996068711188 -0.045614120299433743 -0.088832465047429518 -0.04212686414533591 0.0081057179659667009 -0.094064070490563645 0.031932323232717379 0.046246242710554775 0.22453964923916186 -0.064848456383954617 0.0082434410213336941 -0.0027293236011535402 -0.051444225304483782 -0.08975136822459974 0.074381300288724347 0.082907383115105204 0.11003593742351468 0.038642275179500828 -0.053998453679719664 -0.004410200008647047
leaf_weight=12955 1653 3780 1372 2552 9349 3879 5519 11652 10498 9821 6687 6402 8419 9044 5477 5787 7069 11235 3131 2698 6684 7903 3261 8057 6658 4940 14268 8158 8056 11447 6927 6774 7660 2666 8789 9726 11072 5507 5957 6402 10625 7907 11082 1656 3028 7602 10145 5397 6739 2959 1735 2298 4191 1878 3627 9778 6347 4050 8755 7739 5784 6544
leaf_count=12955 1653 3780 1372 2552 9349 3879 5519 11652 10498 9821 6687 6402 8419 9044 5477 5787 7069 11235 3131 2698 6684 7903 3261 8057 6658 4940 14268 8158 8056 11447 6927 6774 7660 2666 8789 9726 11072 5507 5957 6402 10625 7907 11082 1656 3028 7602 10145 5397 6739 2959 1735 2298 4191 1878 3627 9778 6347 4050 8755 7739 5784 6544
internal_value=-5.15407e-05 0.0630211 -0.0732747 -0.0394025 0.0327396 0.114451 -0.116859 0.00386966 -0.010495 -0.0789932 0.0836235 -0.0842876 0.141836 0.0625698 -0.141637 0.00540179 0.0183638 0.0465761 -0.0259091 -0.107225 0.0827529 0.117513 -0.0388104 0.16289 -0.0567691 0.0620518 0.0325496 -0.113151 -0.0575976 -0.15568 -0.0236542 -0.105525 -0.0445929 -0.10991 -0.00112107 0.113718 -0.0126876 0.147201 0.0725557 -0.126098 0.0629808 -0.144531 0.0980862 -0.00139812 -0.048518 -0.0554387 0.0260564 -0.0794191 0.0158155 0.0167214 0.185185 -0.0978351 -0.0130052 0.0300311 -0.074319 -0.0978319 0.0610297 0.0619423 0.100665 0.0255874 -0.0649471 -0.0127365
internal_weight=419757 225509 194248 109303 141939 83570 84945 72131 63176 46127 39315 36703 44255 69808 48242 40461 48517 38948 23614 20016 30860 20537 22715 23718 16687 22902 28076 15933 25537 32309 14379 20590 15716 19218 20441 16413 21570 13926 17244 11921 21860 19354 17766 11331 12283 10630 18891 8095 13808 13104 9792 10456 11118 5658 10029 12444 11287 13094 12634 17088 8336 8200
internal_count=419757 225509 194248 109303 141939 83570 84945 72131 63176 46127 39315 36703 44255 69808 48242 40461 48517 38948 23614 20016 30860 20537 22715 23718 16687 22902 28076 15933 25537 32309 14379 20590 15716 19218 20441 16413 21570 13926 17244 11921 21860 19354 17766 11331 12283 10630 18891 8095 13808 13104 9792 10456 11118 5658 10029 12444 11287 13094 12634 17088 8336 8200
is_linear=0
shrinkage=0.05


Tree=7
num_leaves=63
num_cat=0
split_feature=15 15 15 23 23 23 25 0 0 0 25 29 15 23 15 23 29 15 23 23 23 15 15 23 81 0 23 23 23 35 15 23 23 0 55 0 23 28 23 29 29 23 0 21 55 29 27 29 2 23 35 28 35 35 29 28 0 21 0 27 23 27
split_gain=698270 119670 113282 46179.8 43319.9 30027.5 16596 13990.9 12573.8 12403.1 12168.9 9517.09 8988.05 7823.18 6567.83 5600.55 4493 4353.19 4340.4 3868.34 3847.37 3724.34 3629.09 3429.3 2726.38 2673.57 2531.74 2406.7 2298.28 2281.43 2072.47 2061.61 2053.95 2035.19 2021.29 1923.28 1922.97 1878.23 1706.32 1608.59 1605.42 1595.49 1589.71 1441.94 1427.17 1374.62 1267.32 1190.01 1116.97 1086.72 1079.7 1062.11 1148 1061.19 1056.43 1043.91 1032.06 992.271 980.456 976.364 969.344 897.275
threshold=6.7552084922790536 9.2437500953674334 4.7718749046325692 -0.11000007390975951 0.030000448226928714 0.19000000506639483 -0.72999998927116383 7.9549999237060556 4.3450000286102304 8.2249999046325701 -0.94999957084655751 3.1241974830627446 10.421875000000002 0.20499992370605472 10.49104166030884 0.4200000017881394 5.5695197582244882 5.7956249713897714 0.23000004887580874 -0.47000020742416376 0.15999990701675418 5.7314581871032724 3.5360416173934941 -0.12000009417533873 -1.8659381866455076 9.6350002288818377 -0.18499994277954099 0.59000039100646984 -0.29999947547912592 -0.70710678118654757 11.703333377838137 -0.44000004231929774 0.48000004887580877 6.6050000190734872 0.71500015258789074 6.4449999332427987 -0.029999852180480954 9.2186036109924334 0.12999975681304934 5.0959820747375497 2.0621976852416997 -0.44999957084655756 5.6649999618530282 -5.2515070438385001 0.74000072479248058 4.1816375255584726 -0.035226285457611077 7.1444451808929452 7.0250000953674325 0.53999999165534984 0.78656609248549303 7.2419338226318368 -0.70710678118654757 0.78656609248549303 2.2445931434631352 5.467754840850831 8.1949996948242205 -4.663245201110839 6.1050000190734872 0.032628208398818977 -0.42499995231628412 -0.053509533405303948
decision_type=2 2 2 2 2 2 2 2 2 2 2 2 2 2 2 2 2 2 2 2 2 2 2 2 2 2 2 2 2 2 2 2 2 2 2 2 2 2 2 2 2 2 2 2 2 2 2 2 2 2 2 2 2 2 2 2 2 2 2 2 2 2
left_child=2 3 5 7 10 8 14 19 22 13 21 27 20 29 28 16 44 -12 37 46 -8 60 36 42 -15 31 -24 40 59 47 38 -9 45 -31 35 -21 -1 53 -14 -17 -7 61 -10 -16 -6 -13 -2 -5 -36 -20 -33 52 -18 -11 -38 -25 -19 -26 -48 -3 -4 -23
right_child=1 6 4 9 15 11 12 25 23 18 17 32 30 24 43 39 51 56 49 34 -22 41 26 55 57 -27 -28 -29 -30 33 -32 50 -34 -35 48 -37 54 -39 -40 -41 -42 -43 -44 -45 -46 -47 58 -49 -50 -51 -52 -53 -54 -55 -56 -57 -58 -59 -60 -61 -62 -63
leaf_value=-0.16179571811476146 -0.019027679116730138 0.048819594344036606 -0.12111967001414148 0.028490779932567302 -0.04839036721139181 -0.13407116127924928 0.10160668044590192 -0.0072375755921550286 -0.12447603272032329 0.067384483180043836 -0.058270049528331438 -0.065269679304905723 0.13925440205523038 0.089124137851264343 0.14464300320522525 0.010328295943951706 0.027124340385739173 -0.026256994750231834 0.096110970479657304 -0.048641997322918573 0.14179865943742453 -0.044644786301372114 -0.14219491946415305 -0.080522665459170528 0.072706682737349787 0.054112252394018096 -0.10454561393790006 -0.059379392702573142 0.080631071628448833 -0.01154238261842333 0.19404127564623821 0.037652019040949308 -0.014060960525207545 0.02673783137603665 -0.0077295175328183051 -0.0093142936863527329 -0.1569147850313358 0.090753518801226618 0.17468143415910287 0.042815930614055975 -0.092934309436143281 -0.055533074786790287 -0.084598225637552316 0.10271220922316496 -0.015635181904430789 -0.027213398367751114 -0.10394594372217042 0.06304193228265563 0.035009910603369943 0.12729241293258187 0.011908103447555758 0.034582520417274644 -0.0051217036513260357 0.037455137021637712 -0.12189128966111873 -0.042688223699415481 0.0061429016609008307 0.044769779707658254 -0.052796715352792178 -0.0070869567495601615 -0.092507930992408685 -0.098648836042553797
leaf_weight=17106 2135 5383 4767 4607 5538 3448 15771 5471 7622 11803 13977 6625 8398 8522 3241 6571 3744 13689 9666 4103 9588 936 8600 6870 4648 7398 9335 3756 8451 4519 4131 10820 5617 14978 2917 12824 3286 7168 5765 9072 7667 10471 3736 5641 8327 3701 1223 5437 3210 3954 6534 3367 10494 3961 6374 2488 2995 10091 4027 913 7907 4389
leaf_count=17106 2135 5383 4767 4607 5538 3448 15771 5471 7622 11803 13977 6625 8398 8522 3241 6571 3744 13689 9666 4103 9588 936 8600 6870 4648 7398 9335 3756 8451 4519 4131 10820 5617 14978 2917 12824 3286 7168 5765 9072 7667 10471 3736 5641 8327 3701 1223 5437 3210 3954 6534 3367 10494 3961 6374 2488 2995 10091 4027 913 7907 4389
internal_value=0.00016426 0.0624131 -0.0666417 0.0375633 -0.0310477 -0.105939 0.117818 0.0038944 -0.125108 0.0604206 -0.059546 -0.0652397 0.13609 0.0449197 0.0840587 0.00472057 -0.00743357 -0.0376868 0.0828108 -0.0200321 0.116808 -0.083085 -0.140033 -0.0928977 0.0666084 0.027992 -0.122606 -0.0940109 0.0635924 0.0278399 0.162809 0.0195237 -0.0383985 0.0178649 -0.00994255 -0.0188497 -0.151705 0.0695254 0.153687 0.029171 -0.105707 -0.0668768 -0.111368 0.118028 -0.0287213 -0.0516342 -0.0515229 0.0471989 0.0146634 0.105172 0.0279606 0.00933218 0.00335862 0.0598673 -0.133821 -0.0704698 -0.0204405 0.0535845 -0.0647305 0.0407118 -0.103279 -0.0891674
internal_weight=419773 217298 202475 150016 106244 96231 67282 60662 65417 89354 59131 30814 43653 52802 23629 47113 31470 30661 36552 30439 25359 28470 44701 20716 23261 30223 17935 14871 14747 29541 18294 22825 15943 19497 23054 16927 26766 22932 14163 15643 11115 15796 11358 8882 13865 10326 7385 10044 6127 13620 17354 17605 14238 15764 9660 9358 16684 14739 5250 6296 12674 5325
internal_count=419773 217298 202475 150016 106244 96231 67282 60662 65417 89354 59131 30814 43653 52802 23629 47113 31470 30661 36552 30439 25359 28470 44701 20716 23261 30223 17935 14871 14747 29541 18294 22825 15943 19497 23054 16927 26766 22932 14163 15643 11115 15796 11358 8882 13865 10326 7385 10044 6127 13620 17354 17605 14238 15764 9660 9358 16684 14739 5250 6296 12674 5325
is_linear=0
shrinkage=0.05


Tree=8
num_leaves=63
num_cat=0
split_feature=15 15 15 23 23 0 23 23 0 0 23 0 15 0 23 23 29 23 23 23 23 0 15 15 23 28 15 15 15 55 23 81 28 1 0 55 23 0 23 23 0 35 23 65 28 0 23 2 35 15 23 21 55 57 35 28 55 55 1 28 35 1
split_gain=634575 127798 82477 43071 39303.1 24810 21532.6 14687.8 13990.9 8508.57 8195.44 7486.66 7329.6 7234.11 5446.17 5132.15 4790.36 4251.74 4250.27 3932.22 3234.62 3194.47 3024.22 2860.27 2476.27 2270.32 2231.26 2057.1 2053.64 2043.25 2033.38 1973.19 1909.08 1897.75 1839.91 1712.68 1684.3 1670.31 1666.74 1530.1 1467.53 1399.97 1365.9 1363.58 1340.04 1271.46 1265.3 1240.33 1239.97 1229.46 1165 1121.31 1113.9 1081.96 1034.75 998.331 993.731 950.318 918.809 903.872 901.339 837.001
threshold=6.4585416316986093 8.7585415840148944 4.417708396911622 -0.019999742507934567 -0.080000102519989 10.494999885559084 0.11000037193298341 0.019999988377094272 7.4449999332427987 6.1449999809265146 0.22499990463256839 3.685000061988831 7.4268751144409189 4.3450000286102304 -0.069999814033508287 -0.36999964714050287 5.4739625453948983 0.32000041007995611 -0.27999979257583613 -0.28999997675418848 0.30999995768070226 4.9849998950958261 2.9022916555404668 11.401458263397219 -0.33000063896179194 11.540012359619142 9.7139582633972186 2.7318749427795415 9.7610416412353533 0.71500015258789074 -0.20000022649765012 -0.70950558781623829 8.6291399002075213 8.2049999237060565 8.4949998855590838 0.8449993133544923 -0.29999947547912592 5.7449998855590829 0.39999973773956304 -0.32000011205673212 8.8550000190734881 -0.70710678118654757 0.42000019550323492 30.345000267028812 6.6721434593200692 6.6050000190734872 0.59000039100646984 4.0050001144409189 0.78656609248549303 5.4468750953674325 -0.49999998509883875 -5.40555715560913 0.46000003814697271 1.0000000180025095e-35 0.60355339059327384 1.8090135455131533 0.23000049591064456 -0.29500007629394526 5.6849999427795419 6.5601782798767099 -0.70710678118654757 8.0250000953674334
decision_type=2 2 2 2 2 2 2 2 2 2 2 2 2 2 2 2 2 2 2 2 2 2 2 2 2 2 2 2 2 2 2 2 2 2 2 2 2 2 2 2 2 2 2 2 2 2 2 2 2 2 2 2 2 2 2 2 2 2 2 2 2 2
left_child=2 3 6 8 9 7 13 18 15 24 16 22 20 27 23 53 47 33 34 40 45 31 55 50 43 48 42 -1 -20 37 -29 -12 54 41 -3 -24 -11 -17 -13 -15 57 -14 -9 -4 -18 60 59 -6 -16 -26 -7 -19 -49 -2 -21 -8 -28 -10 -41 -23 -5 -38
right_child=1 5 4 12 10 14 11 26 19 36 21 38 17 39 25 29 44 51 28 32 -22 46 35 -25 49 -27 56 30 -30 -31 -32 -33 -34 -35 -36 -37 61 -39 -40 58 -42 -43 -44 -45 -46 -47 -48 52 -50 -51 -52 -53 -54 -55 -56 -57 -58 -59 -60 -61 -62 -63
leaf_value=-0.15739816204932533 -0.06235530938305487 0.0083007853533306458 -0.11393800801328087 0.024257415744297767 -0.075479829606910576 0.068980898633776475 -0.13634463374112216 0.089789941042400845 -0.021657802570463212 -0.062613782886082978 0.0056671588384287538 -0.059606720188878783 0.063154128212762395 -0.12377255342082408 0.15131557570366017 -0.059522443526979218 -0.02325526961422459 0.10748661469044792 0.062165453242403135 0.031491053805815787 0.0554832236119467 0.004283914014155797 -0.1007294223510819 0.14953366726163461 -0.091298267447985831 0.1820496430836275 0.10830279782077737 -0.14681259205952882 0.095829063700966666 0.010451245757910892 -0.11822611900364087 -0.036707493815081302 0.048904167479858783 0.071701921441419639 0.049441265158225473 -0.060427529336809317 -0.037438963394945117 -0.014893268197936833 -0.021877231271466891 -0.095104901241234746 0.018474609179218681 0.032208728854236972 0.12450275030877203 -0.061727425007067016 0.006875965687303108 0.032289292111765532 0.042611753116558591 -0.060022454313981968 0.11192772895895803 -0.062478256769782262 0.10917519736708337 0.078330328294416871 -0.026170761024245037 -0.022512756386131788 0.0063214727382669283 -0.10204846978408651 0.14205295814579802 0.013562636647308496 -0.06017492214224493 0.035100673805113732 -0.011171051994501843 0.0067603361203758695
leaf_weight=11067 8384 3793 11436 3397 4133 2259 3548 11171 7586 8254 5756 7172 5997 3655 9336 2498 10207 5465 12569 9156 11754 9683 4392 4197 8200 5386 3469 11629 7096 7005 13479 5254 8984 10727 9592 6616 6881 13030 4949 7020 5969 9371 3812 1409 5778 11597 4523 4770 2564 6770 9082 8379 4960 2141 7372 5353 5987 2561 2584 3154 3805 1268
leaf_count=11067 8384 3793 11436 3397 4133 2259 3548 11171 7586 8254 5756 7172 5997 3655 9336 2498 10207 5465 12569 9156 11754 9683 4392 4197 8200 5386 3469 11629 7096 7005 13479 5254 8984 10727 9592 6616 6881 13030 4949 7020 5969 9371 3812 1409 5778 11597 4523 4770 2564 6770 9082 8379 4960 2141 7372 5353 5987 2561 2584 3154 3805 1268
internal_value=1.39926e-05 0.0543647 -0.069584 0.0253127 -0.0397225 0.101065 -0.107132 0.0812597 -0.00114561 -0.0752594 -0.0127304 -0.0751923 0.0533449 -0.127825 0.135748 -0.0254297 -0.0310194 0.0674468 0.0595237 0.0181391 0.0349091 0.00651163 -0.0940544 0.114247 -0.092103 0.155067 0.110651 -0.139408 0.0743173 -0.0119641 -0.131472 -0.0145552 0.0303526 0.0555597 0.0377849 -0.0765154 -0.0466931 -0.0220765 -0.0442053 -0.0962146 -0.00119544 0.0442881 0.0986297 -0.108217 -0.0123639 0.0220426 0.0198729 -0.0525277 0.14284 -0.0782701 0.101176 0.0898472 -0.0427711 -0.0542539 0.020266 -0.115733 0.129685 -0.0127676 -0.0857146 0.011858 0.00554001 -0.0305609
internal_weight=419391 235491 183900 145178 102436 90313 81464 57489 74686 44218 58218 32030 70492 49434 32824 33058 29848 39939 33050 41628 30553 28370 19909 15538 27815 17286 24439 36175 19665 22533 25108 11010 25512 26095 13385 11008 16403 15528 12121 13259 16116 15368 14983 12845 15985 18799 17360 13863 11900 14970 11341 13844 9730 10525 16528 8901 9456 10147 9604 12837 7202 8149
internal_count=419391 235491 183900 145178 102436 90313 81464 57489 74686 44218 58218 32030 70492 49434 32824 33058 29848 39939 33050 41628 30553 28370 19909 15538 27815 17286 24439 36175 19665 22533 25108 11010 25512 26095 13385 11008 16403 15528 12121 13259 16116 15368 14983 12845 15985 18799 17360 13863 11900 14970 11341 13844 9730 10525 16528 8901 9456 10147 9604 12837 7202 8149
is_linear=0
shrinkage=0.05


Tree=9
num_leaves=63
num_cat=0
split_feature=15 15 84 24 24 15 24 15 15 15 15 25 24 24 84 25 24 24 27 15 15 27 55 15 55 24 21 15 15 21 90 27 15 25 15 24 15 21 55 19 84 35 28 65 21 19 2 55 84 25 55 81 28 15 84 27 55 84 22 84 81 84
split_gain=574071 97282.4 96567.6 35337.9 25657.4 24718 23020.7 12564.2 8280.9 8138.43 7330.45 6397.32 6247.51 5519.62 4300.91 4132.74 3845.76 3623.15 3485.8 3397.31 3301.72 3062.66 2717.47 2641.39 2471.24 2402.26 2188.91 1999.08 1951.47 1802.55 1700.14 1651 1590.34 1626.32 1557.17 1540.69 1379.62 1371.11 1333.33 1300.39 1272.67 1264.64 1257.3 1240.44 1233.49 1132.77 1108.79 1223.76 1035.15 1000.78 989.062 936.633 915.652 891.43 888.492 1033.1 875.062 870.973 856.617 783.009 763.813 711.692
threshold=6.8047916889190683 4.8531250953674325 8.8453226089477557 -0.10999977588653563 0.3599997758865357 9.8077082633972186 -0.25999951362609858 8.2212500572204608 3.2193750143051152 8.1689581871032733 3.4931249618530278 -1.4850001335144041 0.27999985218048101 0.86999991536140453 10.881290912628176 -2.1050000190734859 -0.6000002622604369 0.6499997377395631 -0.086051225662231431 5.855208396911622 5.855208396911622 0.02235701680183411 -0.045000076293945306 8.3018746376037615 0.050000190734863288 1.4100005626678469 -7.5303463935852042 9.7139582633972186 5.7956249713897714 2.1812539100646977 0.16806435585021975 -0.080784797668457017 2.4472916126251225 -0.45999997854232783 8.3018746376037615 1.2600000500679018 7.3285417556762704 -4.905698060989379 -0.034999847412109368 -0.91778931021690358 12.018064498901369 -0.70710678118654757 4.1017179489135751 29.904999732971195 -5.40555715560913 -0.79963237047195423 5.7049999237060556 0.50499916076660167 4.1862902641296396 -0.88999962806701649 0.71500015258789074 -1.6983836293220518 7.7374103069305429 2.2714583873748784 5.3269355297088632 -0.15530653297901151 0.23000049591064456 9.9409680366516131 -7.366105079650878 4.4311289787292489 -1.7279761433601377 6.5087096691131601
decision_type=2 2 2 2 2 2 2 2 2 2 2 2 2 2 2 2 2 2 2 2 2 2 2 2 2 2 2 2 2 2 2 2 2 2 2 2 2 2 2 2 2 2 2 2 2 2 2 2 2 2 2 2 2 2 2 2 2 2 2 2 2 2
left_child=1 4 6 11 10 12 7 15 35 17 32 18 23 19 22 31 54 41 43 59 -13 27 57 -4 -11 42 -14 38 -15 48 -16 -2 -1 -34 -28 53 -17 -26 -9 58 -32 61 50 -3 -24 -33 47 -18 -20 -25 -10 -19 -43 -6 55 -12 -38 -7 -23 -5 -21 -8
right_child=2 3 5 13 8 14 9 21 25 24 16 20 26 28 30 36 46 51 29 60 -22 39 44 49 37 -27 34 -29 -30 -31 40 45 33 -35 -36 -37 56 -39 -40 -41 -42 52 -44 -45 -46 -47 -48 -49 -50 -51 -52 -53 -54 -55 -56 -57 -58 -59 -60 -61 -62 -63
leaf_value=-0.15321037069292162 0.0054657998754994415 -0.059689131917516194 0.031955645613951214 -0.052383187841444148 -0.12727479869810682 0.089927319183064278 0.024205080367583624 0.021323123786021327 -0.089489482753503199 0.050444062979809245 -0.073185955863353511 -0.059412976336675055 0.12152072789373319 0.0047395557016229632 0.12726739384835808 -0.016520634894924086 -0.10156773306950924 0.073078290809043794 -0.11176280700413188 0.024872661689670686 -0.025500362414435065 -0.00076804738707558729 0.15078498620570879 0.047412950953649308 0.10375766952382381 -0.020762249449807774 0.065633448973521746 0.069654828549301898 0.034758833787807419 -0.056126468225071779 0.15638955639718943 -0.072085081823418815 -0.13946155496735715 -0.11039746007989147 0.09657548869889282 -0.067950262573760495 -0.00015349592456150106 0.073647534531051467 0.050470878636263317 0.019136850652564361 0.20495416025735791 0.0092528950941008943 -0.040894416548948209 0.0028138101854798046 0.1185997080073392 -0.03230885401939762 -0.057356331614900662 -0.072742386019861646 -0.083602183720292572 0.074942504939093699 -0.054630019057303518 0.047610519469904695 0.031682726784137097 -0.094186770985449919 -0.08939995133762027 -0.1259245483240688 0.025423925031819207 0.11503675112689474 -0.064231472780046775 -0.023362432834534472 -0.0016362813233918882 0.053626460035146539
leaf_weight=7874 1541 1573 7380 2868 2959 7088 3353 9086 3400 7433 1006 13155 5311 10009 4054 9875 8904 5597 4954 3337 15801 1242 6013 4479 6203 7310 6583 5182 11793 4249 6097 3472 10863 8707 10689 4166 11744 9738 6909 4515 1752 10346 7928 1601 5968 3701 3238 6308 9662 12647 5092 10212 8124 6630 2453 12959 4674 6803 929 12278 14612 5325
leaf_count=7874 1541 1573 7380 2868 2959 7088 3353 9086 3400 7433 1006 13155 5311 10009 4054 9875 8904 5597 4954 3337 15801 1242 6013 4479 6203 7310 6583 5182 11793 4249 6097 3472 10863 8707 10689 4166 11744 9738 6909 4515 1752 10346 7928 1601 5968 3701 3238 6308 9662 12647 5092 10212 8124 6630 2453 12959 4674 6803 929 12278 14612 5325
internal_value=-0.000124069 -0.0597756 0.0571934 -0.0263934 -0.0951959 0.0986297 0.0299759 0.00829684 -0.0625058 0.0505232 -0.11486 -0.0563618 0.0744577 0.00144528 0.128759 -0.0116442 -0.0996376 0.0376024 -0.0766617 -0.0114227 -0.0409089 0.0333504 0.117302 0.0569697 0.0742664 -0.0446102 0.0934312 0.0426645 0.0209785 -0.0848182 0.153648 -0.0414837 -0.134195 -0.126537 0.0847871 -0.0933734 -0.00175339 0.0853701 0.0339161 0.00384658 0.167255 0.0265194 -0.0552248 -0.0281694 0.134764 -0.0515701 -0.0839618 -0.0896205 -0.0931544 0.0677461 -0.0685964 0.0566315 0.0191201 -0.10441 -0.117247 -0.122131 0.00712888 0.102232 -0.0279443 -0.0288611 0.00329298 0.0422633
internal_weight=419754 205689 214065 105892 99797 84864 129201 62870 37485 66331 62312 50995 47089 54897 37775 35007 34868 42957 22039 33095 28956 27863 25872 24506 23374 23730 22583 21177 21802 18865 11903 8714 27444 19570 17272 13755 26293 15941 15995 6686 7849 27148 16420 3174 11981 7173 18450 15212 14616 17126 8492 15809 18470 9589 16418 13965 16418 13891 2171 15146 17949 8678
internal_count=419754 205689 214065 105892 99797 84864 129201 62870 37485 66331 62312 50995 47089 54897 37775 35007 34868 42957 22039 33095 28956 27863 25872 24506 23374 23730 22583 21177 21802 18865 11903 8714 27444 19570 17272 13755 26293 15941 15995 6686 7849 27148 16420 3174 11981 7173 18450 15212 14616 17126 8492 15809 18470 9589 16418 13965 16418 13891 2171 15146 17949 8678
is_linear=0
shrinkage=0.05


Tree=10
num_leaves=63
num_cat=0
split_feature=15 15 84 23 23 23 15 0 23 29 0 15 84 23 23 28 23 23 29 84 23 15 23 55 23 15 23 28 15 23 27 28 28 81 21 35 23 28 81 0 0 0 35 23 23 27 35 23 55 0 35 2 0 23 21 21 55 55 28 55 35 2
split_gain=518136 102096 76653.8 36037.5 25147.3 23608.4 20082.3 11702.9 8687.74 7937.45 7607.84 7477.08 7047.05 5604.89 4806.7 4674.24 4487.09 4147.03 3812.04 3789.99 2635.28 2565.03 2453.07 2326.48 2262.26 2126.05 1918.03 1870.37 1828.88 1747.17 1685.94 1632.32 1561.7 1497.21 1477.27 1475.51 1445.18 1377.08 1341.97 1333.15 1313.26 1300.54 1291.22 1220.36 1193.13 1139.08 1094.63 1053.59 1048.38 1026.14 985.615 973.624 971.623 959.996 952.039 934.341 927.892 919.877 908.907 890.548 881.264 866.852
threshold=7.0343749523162851 4.9685416221618661 8.9361290931701678 -0.12000009417533873 0.21000009775161746 -0.15000006556510923 9.7610416412353533 4.8250000476837167 0.15000033378601077 3.4247946739196782 8.2249999046325701 8.4768748283386248 5.5911293029785165 0.10500001907348634 0.17000031471252444 5.9629600048065194 0.05000042915344239 -0.080000102519989 3.0722063779830937 5.8198387622833261 -0.48000000417232508 11.279166698455812 -0.12499999999999999 0.59999942779541027 0.65999990701675426 9.2437500953674334 -0.41000005602836603 9.3689770698547381 3.6264582872390752 0.59000039100646984 -0.1263284087181091 1.9113134741783144 11.419160366058351 -0.70950558781623829 -6.74369192123413 -0.70710678118654757 -0.50999996066093434 7.1896378993988046 -2.274432778358459 6.6349999904632577 7.055000066757203 4.1949999332427987 -0.70710678118654757 0.61000037193298351 -0.56500005722045887 -0.013341307640075682 -0.70710678118654757 -0.27999979257583613 0.14000034332275393 8.2849998474121112 0.78656609248549303 7.6250000000000009 6.0450000762939462 -0.34999978542327875 -5.1031548976898184 -4.4716179370880118 1.0049991607666018 -0.39500045776367182 5.123420476913453 -0.12499999999999999 0.78656609248549303 4.2049999237060556
decision_type=2 2 2 2 2 2 2 2 2 2 2 2 2 2 2 2 2 2 2 2 2 2 2 2 2 2 2 2 2 2 2 2 2 2 2 2 2 2 2 2 2 2 2 2 2 2 2 2 2 2 2 2 2 2 2 2 2 2 2 2 2 2
left_child=1 4 5 12 7 10 13 17 15 24 20 14 30 27 39 42 21 28 -19 33 45 47 52 49 31 44 -14 60 -1 46 -3 -6 50 -10 -15 -22 -32 -28 -16 -7 -37 -38 61 58 -12 -2 -21 -8 -20 -13 -18 -17 -9 -29 -25 -40 -30 -41 59 -11 -4 -5
right_child=2 3 6 8 9 11 16 22 19 43 25 23 26 34 38 51 32 18 48 29 35 -23 -24 54 -26 -27 37 53 56 -31 36 -33 -34 -35 -36 40 41 -39 55 57 -42 -43 -44 -45 -46 -47 -48 -49 -50 -51 -52 -53 -54 -55 -56 -57 -58 -59 -60 -61 -62 -63
leaf_value=-0.13946719979890226 -0.014867305080741317 -0.026352129331709002 0.051092310385714212 -0.055027431616274894 -0.11147467351456014 0.0055556086419515458 0.078687797386121958 -0.097924506670923978 0.01218516622229375 -0.065509067847009411 -0.017137690703784108 0.039399699811642805 -0.058494055607968012 0.116498750167312 0.079193591291859475 -0.0064783596864979144 0.13954518852493644 -0.12145789305405422 -0.096827656244546631 0.043904692119615729 0.02134769337495877 0.1339193550942733 -0.050259106257703072 0.10892157135768331 -0.038350845657535229 0.05014755895196138 -0.040599540886403794 0.045742021460932543 -0.12288930027789198 0.053382860127629189 -0.10686315972803391 -0.072359508092625285 0.16964012015940405 -0.021712224743307973 0.084539536708517826 -0.030407490578896121 -0.10616214413383417 -0.012378712099273178 0.067491602704965153 0.021121978066094303 0.0008655891322517311 -0.066453521182714692 -0.050874794494080736 0.00478370919156265 0.02304425326929279 -0.055311908543553973 0.015393230557606153 0.10631325603929108 -0.068182254750174684 0.070382758370150011 0.096986670490363691 0.021179245451284207 -0.064287580018263332 0.07649867874847914 0.079181031594935503 0.041642898013085322 -0.094187965095469117 0.041401009507602164 -0.0048976318805053175 -0.028532880304334825 0.020094372463610205 -0.0094783995662566459
leaf_weight=16704 3028 1445 7259 1367 3661 5874 5220 6613 7084 2270 2196 4257 8205 5287 5629 14687 9994 11576 6130 4440 4836 6784 8496 4441 3605 7213 10823 3341 10339 5992 4550 9886 4126 6029 11531 5285 2562 7200 5372 10158 9198 10653 8488 3141 11612 4099 13927 10301 6707 7206 1588 4061 3194 10633 6892 10044 3902 12455 2586 5771 3355 4422
leaf_count=16704 3028 1445 7259 1367 3661 5874 5220 6613 7084 2270 2196 4257 8205 5287 5629 14687 9994 11576 6130 4440 4836 6784 8496 4441 3605 7213 10823 3341 10339 5992 4550 9886 4126 6029 11531 5285 2562 7200 5372 10158 9198 10653 8488 3141 11612 4099 13927 10301 6707 7206 1588 4061 3194 10633 6892 10044 3902 12455 2586 5771 3355 4422
internal_value=-9.74016e-05 -0.0528988 0.0583501 -0.0205859 -0.0887194 0.0330962 0.0964419 -0.104605 0.00179441 -0.0508733 0.00569639 0.0510775 -0.0553082 0.0723478 0.0401698 -0.0169022 0.122684 -0.116065 -0.100645 0.0182723 -0.0121498 0.108254 -0.0699373 0.0747753 -0.0735697 0.0281479 -0.0384536 0.0571287 -0.128227 0.0299389 -0.0783168 -0.082938 0.143165 -0.00340002 0.094593 -0.00256225 -0.0825416 -0.0293272 0.0582916 0.0267803 -0.0105473 -0.0741597 -0.0384568 -0.0225948 0.0166526 -0.0381337 0.0222878 0.0970283 -0.081868 0.0588815 0.133719 -0.000486375 -0.0869776 0.0691493 0.0908443 0.0506545 -0.115033 0.032293 -0.0306872 -0.0389788 0.0412974 -0.0202427
internal_weight=419730 220516 199214 115935 104581 119795 79419 73661 70497 30920 47467 72328 45438 41406 49532 33025 38013 55358 24413 37472 26446 22305 18303 22796 17152 21021 26228 24588 30945 24359 19210 13547 15708 13113 16818 19319 17765 18023 21045 28487 14483 13215 14277 13768 13808 7127 18367 15521 12837 11463 11582 18748 9807 13974 11333 15416 14241 22613 10627 8041 10614 5789
internal_count=419730 220516 199214 115935 104581 119795 79419 73661 70497 30920 47467 72328 45438 41406 49532 33025 38013 55358 24413 37472 26446 22305 18303 22796 17152 21021 26228 24588 30945 24359 19210 13547 15708 13113 16818 19319 17765 18023 21045 28487 14483 13215 14277 13768 13808 7127 18367 15521 12837 11463 11582 18748 9807 13974 11333 15416 14241 22613 10627 8041 10614 5789
is_linear=0
shrinkage=0.05


Tree=11
num_leaves=63
num_cat=0
split_feature=15 84 15 24 15 24 25 15 24 15 15 84 24 25 15 15 15 24 24 81 27 24 25 15 15 15 35 25 84 27 27 65 15 27 35 24 25 35 67 24 25 24 15 24 27 65 54 29 84 15 22 24 35 84 25 81 24 84 11 84 84 34
split_gain=466931 96456.8 59873.8 31650.2 29475.4 19778.4 14220.6 10127.7 7807.85 6155.93 6127.1 5879.18 5626.12 3563.31 3399.6 3317.01 3286.83 3247.73 3159.52 3023.67 2743.34 2652.14 2480.89 2477.61 2425.93 2298.98 2274.39 2197.89 2175.38 1690.48 1598.78 1566.57 1481.91 1454.24 1444.43 1351.61 1187.86 1179.31 1078.69 1062.9 1040.25 1031.92 1014.51 1008.52 964.214 960.442 903.966 896.55 889.569 864.59 806.888 804.694 773.936 765.639 756.669 728.725 722.785 720.843 703.688 698.284 695.779 806.11
threshold=6.4327082633972177 8.3317742347717303 4.1685416698455819 -0.10999977588653563 9.5347914695739764 -0.32999968528747553 0.97999966144561779 7.8660416603088388 0.28999999165534979 7.7435417175292978 5.4789583683013925 5.692096710205079 0.025000095367431644 -2.2699998617172237 8.1947913169860858 2.9022916555404668 10.966249942779543 -0.10999977588653563 0.65999990701675426 -1.1172459125518797 -0.040361136198043816 1.0200000405311587 -1.4099996089935301 8.1947913169860858 11.061458110809328 2.789374947547913 -0.70710678118654757 -1.2400001883506773 6.3712904453277597 -0.086051225662231431 -0.1039798855781555 28.554999351501468 5.3852083683013925 -0.065911643207073198 -0.70710678118654757 1.4100005626678469 -0.92999958992004383 0.78656609248549303 28.545000076293949 1.4699998497962954 -1.4099996089935301 0.63000035285949718 7.1793749332427987 1.000000059604645 -0.05226579308509826 30.045000076293949 -1.065000534057617 6.7218379974365243 10.497903347015383 5.4468750953674325 1.5937488675117495 -0.069999814033508287 0.78656609248549303 5.396935462951661 -0.92999958992004383 -1.9584155082702634 0.92999988794326793 3.8933871984481816 6.9758331775665292 12.018064498901369 3.8933871984481816 0.12940952255126045
decision_type=2 2 2 2 2 2 2 2 2 2 2 2 2 2 2 2 2 2 2 2 2 2 2 2 2 2 2 2 2 2 2 2 2 2 2 2 2 2 2 2 2 2 2 2 2 2 2 2 2 2 2 2 2 2 2 2 2 2 2 2 2 2
left_child=2 5 6 10 8 7 15 13 14 18 27 19 16 29 54 51 40 57 34 60 31 32 33 43 37 -8 44 30 -22 -2 45 -9 -13 -12 -7 -27 -16 56 -30 -25 -6 -28 -15 -10 -11 -4 -23 -36 -18 -21 -31 -1 -38 -29 -3 -20 -14 -17 -33 -26 -5 -62
right_child=1 4 3 11 12 9 25 20 23 26 22 21 24 42 36 17 48 -19 55 49 28 46 -24 39 59 35 41 53 38 50 -32 58 -34 -35 47 -37 52 -39 -40 -41 -42 -43 -44 -45 -46 -47 -48 -49 -50 -51 -52 -53 -54 -55 -56 -57 -58 -59 -60 -61 61 -63
leaf_value=-0.13766644450227009 -0.0035838917090550318 -0.0023100571263740886 -0.082288386516628953 -0.033050542595280924 0.058902604163784116 0.029395325831107006 -0.08691693111165337 0.012769304296889314 0.045693359249963393 0.09781533785212744 -0.025678187341277171 -0.029409594995461683 0.11557254153470951 -0.0237036708076576 0.03361761826559672 -0.12021783308517049 0.10293557914722958 -0.080023156134385653 0.059158898648295578 -0.048629470815521603 -0.027753708712112652 0.0054709922257722282 -0.032995822558134068 0.082895767505620041 0.14583177848430703 -0.061518613092420939 0.033942597117262607 -0.076921379648653296 0.02703212286517976 -0.078268570928209921 -0.10028947097960005 0.03663113685431487 0.00055992446452414013 -0.072752840990277109 -0.01444884662596662 -0.02938511486779511 0.068999456118689725 0.089830283939231273 0.002205317264184636 0.11427378127051312 0.087533338273481018 0.06412299016569134 -0.0033388441875017699 0.073483869344286121 0.063012024990060075 -0.0076348786101026536 0.032124074423718396 0.011140687303835372 0.13476064876015245 -0.024897916591237884 -0.041985501621899596 -0.11586889891963936 0.04580385824437793 -0.052604177733667185 0.027144988030543295 0.034427124691902976 0.1398107131828446 -0.10072395178350402 0.082257307332277818 0.18812549120661343 0.0072030004181579095 -0.051192036973921932
leaf_weight=9864 1422 2804 975 1793 4269 8665 6470 2035 6211 2634 1991 6103 9003 13077 5583 13031 4705 11659 4288 12020 3301 5726 13889 12642 4821 10271 11369 7389 10234 3861 13129 1269 12720 9369 4619 4808 9854 3126 7643 3445 12478 3775 11489 6904 8211 772 7160 13208 4168 5645 2549 7532 5681 5786 9795 9785 4736 7545 2547 1245 6410 650
leaf_count=9864 1422 2804 975 1793 4269 8665 6470 2035 6211 2634 1991 6103 9003 13077 5583 13031 4705 11659 4288 12020 3301 5726 13889 12642 4821 10271 11369 7389 10234 3861 13129 1269 12720 9369 4619 4808 9854 3126 7643 3445 12478 3775 11489 6904 8211 772 7160 13208 4168 5645 2549 7532 5681 5786 9795 9785 4736 7545 2547 1245 6410 650
internal_value=1.46916e-05 0.0462507 -0.0600747 -0.0372076 0.0801289 0.0162743 -0.0959025 -0.00469133 0.0575417 0.0349946 -0.0650471 -0.011723 0.109399 -0.0235444 0.0411475 -0.110629 0.0932864 -0.101124 0.0228218 -0.0290961 0.0179066 0.0028062 -0.0471749 0.0764684 0.127395 -0.0619806 0.0539926 -0.0811317 0.00953248 -0.0529103 -0.0943084 0.0482094 -0.0091579 -0.0645058 0.0126503 -0.0512757 0.0534106 0.117622 0.0164189 0.0896223 0.0802393 0.0414698 -0.0141802 0.0603277 0.0714736 -0.0493251 0.0202823 0.00450969 0.117899 -0.041048 -0.0638498 -0.128236 0.0605209 -0.0662473 0.0205895 0.0419668 0.123938 -0.113075 0.0670993 0.154543 -0.00524512 0.00181949
internal_weight=420158 237451 182707 111527 111470 125981 71180 59427 62919 66554 53300 58227 48551 32398 33717 49631 25620 32235 40565 26518 27029 31709 25249 29202 22931 21549 25989 28051 21178 7832 14876 5851 18823 11360 26492 15079 21118 16865 17877 16087 16747 15144 24566 13115 10845 1747 12886 17827 8873 17665 6410 17396 15535 13175 12599 14073 13739 20576 3816 6066 8853 7060
internal_count=420158 237451 182707 111527 111470 125981 71180 59427 62919 66554 53300 58227 48551 32398 33717 49631 25620 32235 40565 26518 27029 31709 25249 29202 22931 21549 25989 28051 21178 7832 14876 5851 18823 11360 26492 15079 21118 16865 17877 16087 16747 15144 24566 13115 10845 1747 12886 17827 8873 17665 6410 17396 15535 13175 12599 14073 13739 20576 3816 6066 8853 7060
is_linear=0
shrinkage=0.05


Tree=12
num_leaves=63
num_cat=0
split_feature=0 0 0 55 23 23 28 30 23 23 82 23 81 30 23 21 27 23 23 28 30 23 28 55 28 55 23 28 23 55 13 0 2 28 27 54 23 77 27 67 30 27 23 23 28 77 23 94 55 54 28 55 55 23 55 23 23 21 23 23 27 28
split_gain=412935 74266.8 63812.8 32478.2 28669.7 21767.3 10812.8 10366.8 9202.63 8108.51 7673.92 7409.41 6771.95 6734.97 4858.05 4472.8 4354.07 3937.28 3809.61 3131.54 2888.48 2860.26 2516.7 2510.14 2411.19 2362.76 2229.59 2680.26 2030.3 2003.27 1821.3 1800.72 1757.5 1736.46 1573.22 1571.07 1531.98 1430.53 1303.56 1290.32 1289.52 1217.67 1209.09 1201.74 1191.72 1112.12 1101.74 1077.52 1046.84 1040.58 1029.36 1002.76 999.726 992.743 952.553 928.714 914.346 889.961 874.167 859.835 851.117 842.83
threshold=6.7550001144409189 9.4449996948242205 4.4949998855590829 0.27999973297119146 0.030000448226928714 0.23000000417232516 10.793376445770265 7.7712538242340097 -0.13000008463859555 -0.080000102519989 2.1717983484268193 0.12999975681304934 -0.70950558781623829 7.9894855022430429 -0.38999962806701655 2.023382425308228 -0.11934400349855422 -0.28999990224838251 -0.2300000116229057 5.5334150791168222 5.6335768699646005 0.40000021457672125 5.9629600048065194 0.34999942779541021 2.7416508197784428 0.64000034332275402 -0.16000056266784665 2.9277546405792241 -0.16000056266784665 -0.014999389648437498 3.651250004768372 5.5450000762939462 3.304999947547913 12.215489387512209 -0.083401560783386217 -0.13500022888183591 -0.42499995231628412 28.3841667175293 -0.015294842422008513 26.954999923706058 3.4267972707748418 -0.030700296163558956 0.15999990701675418 -0.23999983072280881 8.4192891120910662 28.961667060852054 -0.26000016927719111 0.099291130900383009 0.07000064849853517 -1.9399995803833006 7.2419338226318368 -0.27999973297119135 -0.43499946594238276 0.27999979257583624 -0.075000762939453111 0.15999990701675418 0.64499998092651378 4.0235342979431161 -0.65999960899353016 0.55000042915344249 -0.099552646279335008 7.4487702846527108
decision_type=2 2 2 2 2 2 2 2 2 2 2 2 2 2 2 2 2 2 2 2 2 2 2 2 2 2 2 2 2 2 2 2 2 2 2 2 2 2 2 2 2 2 2 2 2 2 2 2 2 2 2 2 2 2 2 2 2 2 2 2 2 2
left_child=2 4 5 8 7 10 9 18 15 36 26 22 30 21 38 31 40 -8 52 53 59 35 43 44 45 -15 -1 -28 -18 -11 56 -4 -30 42 -24 50 -3 -22 -9 -31 -12 -25 -19 60 -16 -14 -36 -27 61 -23 -6 -26 57 -10 -38 -21 -7 -2 -40 -13 -5 -20
right_child=1 6 3 11 13 12 17 14 19 29 16 20 24 25 23 -17 28 33 48 55 37 49 34 41 51 47 27 -29 32 39 -32 -33 -34 -35 46 -37 54 -39 58 -41 -42 -43 -44 -45 -46 -47 -48 -49 -50 -51 -52 -53 -54 -55 -56 -57 -58 -59 -60 -61 -62 -63
leaf_value=-0.12330110576461027 -0.041915353140147181 0.02856974631793224 -0.097415145498907785 0.00045807436396968251 0.0054263283711339485 -0.042490510621944401 0.08305951805902223 0.019850398206463407 -0.058281432179891249 0.077159823029641264 -0.088214659025993292 -0.0055145761957742373 -0.099509593898346169 0.058291655231751921 0.01213342970255109 -0.038969409004990359 -0.10364840019812688 0.11097376643020376 -0.01508062907315947 -0.024069747446152617 0.018800237701630584 0.026577350168748418 0.049088578656693214 0.077820381169500033 -0.072663936791343545 0.062329490394696277 -0.11875541487722217 -0.084289004801224893 -0.092215965653498114 0.081444535389536971 0.013811060369025671 -0.068699114978880968 -0.052621596696191576 0.16007496233260796 -0.033476174509314616 0.045936572509516854 0.051127520912935154 0.050428942656910905 -0.046661622586401712 0.11423159463225613 -0.010053504577510879 0.041739724909922504 0.14163550902289188 -0.02140506643680827 0.034027852416935185 -0.063419449911879061 0.0053180952061016237 0.098093541719393176 0.020798500476421899 0.067044449050904925 0.031700681555831445 -0.035566998865988721 -0.0071113181450165978 -0.0261724404041868 0.078567152935267878 0.0016380785189823183 0.0035312410587672936 -0.0090749638251961355 -0.0065263466050256005 0.022763042703514594 -0.064848981607136452 0.0085134532748112092
leaf_weight=19121 10127 5355 9961 590 6248 3996 6566 3870 8893 10648 642 8077 4469 11480 10488 8503 7843 10144 7757 11441 6243 1885 1508 3590 2487 2731 10441 12310 5121 4119 4163 12122 6206 3476 2600 10823 9984 8372 1760 11200 2946 6725 4742 9279 15263 4106 6174 9327 6215 10179 9244 6826 4210 3305 4640 5069 1478 2592 5913 4028 3224 7390
leaf_count=19121 10127 5355 9961 590 6248 3996 6566 3870 8893 10648 642 8077 4469 11480 10488 8503 7843 10144 7757 11441 6243 1885 1508 3590 2487 2731 10441 12310 5121 4119 4163 12122 6206 3476 2600 10823 9984 8372 1760 11200 2946 6725 4742 9279 15263 4106 6174 9327 6215 10179 9244 6826 4210 3305 4640 5069 1478 2592 5913 4028 3224 7390
internal_value=0.000139834 0.0477208 -0.0514892 -0.0256655 0.0275445 -0.0821416 0.0898 0.00884915 -0.0507073 0.0754112 -0.0980001 0.00397511 -0.0449026 0.0534807 0.0244265 -0.0697909 -0.0746228 0.116316 -0.0105189 -0.0303733 0.0219603 0.0405643 -0.0165836 0.0334621 -0.0631053 0.0745383 -0.110704 -0.100111 -0.0840843 0.0938364 -0.0111115 -0.0816561 -0.0705294 0.128203 0.00192963 0.0313197 0.0514599 0.0369209 -0.00380518 0.105422 -0.0240609 0.0543039 0.12075 -0.0311216 0.0251116 -0.0822384 -0.00617975 0.0899996 0.00352061 0.0607246 0.0211055 -0.0454809 -0.0282342 -0.0495849 0.0598389 -0.0161769 -0.0300652 -0.0352245 -0.0157379 0.00389563 -0.0547476 -0.00356929
internal_weight=420235 218691 201544 109389 147817 92155 70874 85900 59294 45946 64630 50095 27525 61917 47609 30586 22758 24928 38291 28708 26720 38379 23375 36066 17888 23538 41872 22751 19170 25967 9637 22083 11327 18362 10282 26315 19979 14615 11543 15319 3588 10315 14886 13093 25751 8575 8774 12058 21362 12064 15492 9313 16929 12198 14624 16510 5474 12719 7673 12105 3814 15147
internal_count=420235 218691 201544 109389 147817 92155 70874 85900 59294 45946 64630 50095 27525 61917 47609 30586 22758 24928 38291 28708 26720 38379 23375 36066 17888 23538 41872 22751 19170 25967 9637 22083 11327 18362 10282 26315 19979 14615 11543 15319 3588 10315 14886 13093 25751 8575 8774 12058 21362 12064 15492 9313 16929 12198 14624 16510 5474 12719 7673 12105 3814 15147
is_linear=0
shrinkage=0.05


Tree=13
num_leaves=63
num_cat=0
split_feature=15 84 15 23 15 23 23 23 84 55 15 29 23 84 84 0 28 15 15 21 23 25 23 55 23 21 0 27 55 21 23 28 15 28 48 25 25 1 23 48 1 27 22 84 21 91 55 84 1 35 28 23 21 15 23 23 84 25 0 21 45 21
split_gain=382621 78770.5 49642.1 26696 24193.9 20925.4 12907.7 7813.43 7495.7 6186.61 5850.53 5056.3 4579.58 4550.96 4027.27 3670.31 3473.83 3017.92 2895.12 2806.75 2371.13 2350.76 2224.62 2161.08 1988.46 1979.61 1696.79 1675.81 1498.62 1439.82 1303.78 1280.7 1246.07 1209.88 1206.68 1171.39 1137.2 1107.68 1094.86 1090.38 1088.83 1073.37 1048.68 1047.78 1029.14 1023.45 1023.25 1008.25 998.478 1266.12 996.773 996.36 987.299 973.15 983.401 875.277 866.589 812.106 803.056 753.195 725.124 717.757
threshold=6.4327082633972177 8.3317742347717303 4.2935416698455819 0.030000448226928714 9.6664586067199725 -0.17999958992004392 0.065000057220458998 0.089999794960021987 5.2188706398010263 0.41000080108642584 7.9897916316986093 2.5465279817581181 0.11999991536140443 5.1887094974517831 6.5087096691131601 4.0450000762939462 7.8955864906311044 8.2212500572204608 10.966249942779543 -2.7669053077697749 -0.21999955177307126 -2.2699998617172237 0.34000039100646978 1.0299997329711916 0.44000017642974859 -6.74369192123413 5.9749999046325692 0.021297633647918705 0.89000034332275402 1.2046769857406618 0.52000004053115856 11.297258853912355 8.1439585685729998 6.8671703338623056 -0.0099983215332031233 -0.90999960899353016 -0.84999966621398915 7.6649999618530282 -0.40999960899353022 1.0000000180025095e-35 4.0650000572204599 -0.045272052288055413 1.5937488675117495 10.313709735870363 1.7889337539672854 0.2377433776855469 0.23000049591064456 3.4395160675048833 6.9449999332427987 -0.5 4.1017179489135751 0.11999991536140443 4.6653981208801278 2.5231249332427983 -0.26999999582767481 -0.41000005602836603 3.8933871984481816 -0.61000037193298329 8.2550001144409197 -3.101229071617126 1.0000000180025095e-35 -2.3279416561126705
decision_type=2 2 2 2 2 2 2 2 2 2 2 2 2 2 2 2 2 2 2 2 2 2 2 2 2 2 2 2 2 2 2 2 2 2 2 2 2 2 2 2 2 2 2 2 2 2 2 2 2 2 2 2 2 2 2 2 2 2 2 2 2 2
left_child=2 5 6 8 7 10 15 17 23 16 21 30 18 28 34 53 26 57 35 45 37 41 40 29 48 -9 -7 46 -5 55 -8 -14 -27 -22 60 -6 -19 -10 -17 -21 -13 -2 -43 -20 -29 -16 58 -25 49 -15 -24 -28 -23 -1 -55 -4 -30 -3 -12 -26 -11 -48
right_child=1 4 3 13 12 9 11 25 20 14 27 22 31 24 19 38 -18 36 43 39 33 52 50 47 59 32 51 44 56 -31 -32 -33 -34 -35 -36 -37 -38 -39 -40 -41 -42 42 -44 -45 -46 -47 61 -49 -50 -51 -52 -53 -54 54 -56 -57 -58 -59 -60 -61 -62 -63
leaf_value=-0.12936107391185198 -0.017746243375122813 0.00032088709658271682 -0.10851495036642783 -0.044236183248442466 0.060318529848699176 -0.027433636969011351 -0.098768960675885531 0.095161228779577722 -0.05940749306142025 0.03753395940118532 -0.0080336079603395994 -0.07204584601391506 0.11531081038229474 0.012894672421109622 0.049776252906409107 -0.11117021188998588 0.035764583487047474 0.031655590628560208 0.091482859944248804 0.050922509988377655 -0.032957876882460567 -0.024011669440985428 -0.040118536813936338 -0.075084112246277548 0.040305424461779114 0.050306542889991868 0.0014076839733732 -0.031651111234852147 -0.031388699556988517 -0.061885669623798968 -0.059727129439172889 0.1494473806356123 0.075779341187027949 -0.0021117726977618908 -0.0019912052097620513 0.086695886227491289 0.056403257591844835 -0.028295840396430679 -0.075108658086607202 0.025384287167958847 -0.041572032555812023 -0.081956264180717622 -0.036017963061342022 0.12301831439200538 0.016718299813109249 0.082303903771668976 0.053522258214418299 -0.037964312861758581 0.020580488703155 -0.0170914541251048 -0.0042148225862862557 0.025491114454626956 0.0014819080176943973 -0.12164887460712355 -0.099655692496430234 -0.082100347271904184 -0.0025992014507238148 0.027760637831486714 0.022767154265690759 0.012769325328010842 0.005227489708708245 0.016262257671990698
leaf_weight=7313 1747 3549 4903 6232 6238 3722 8629 7763 11832 7878 4013 8591 10917 5259 3434 2611 13042 6303 4432 10916 11527 15990 6680 2899 4724 8130 12897 3227 4226 5843 2852 3696 11767 4390 4014 13029 17677 3778 10994 6780 4459 3033 2109 6571 1667 8234 2807 4971 4069 10642 2721 6438 4980 8344 13175 8802 6851 11229 4475 5239 2229 2398
leaf_count=7313 1747 3549 4903 6232 6238 3722 8629 7763 11832 7878 4013 8591 10917 5259 3434 2611 13042 6303 4432 10916 11527 15990 6680 2899 4724 8130 12897 3227 4226 5843 2852 3696 11767 4390 4014 13029 17677 3778 10994 6780 4459 3033 2109 6571 1667 8234 2807 4971 4069 10642 2721 6438 4980 8344 13175 8802 6851 11229 4475 5239 2229 2398
internal_value=8.87934e-05 0.0419497 -0.0543321 -0.03222 0.0726017 0.0148795 -0.085077 0.0534368 -0.0546636 0.0304437 -0.0117894 -0.0620852 0.10096 -0.00421587 0.0431453 -0.103459 0.0151424 0.0389473 0.0898553 0.0536973 -0.0380337 -0.026284 -0.0482785 -0.0737835 0.00758497 0.0737376 0.00347637 0.00993565 -0.024623 -0.0826925 -0.089077 0.123955 0.0653743 -0.0244513 0.0212004 0.0781596 0.0499003 -0.0518803 -0.0820374 0.0411401 -0.0616377 -0.0516232 -0.0631262 0.110326 -0.0151744 0.0727362 0.018911 -0.0516462 -0.00151749 -0.00717352 -0.0297287 0.00942794 -0.0179574 -0.113564 -0.108189 -0.0915578 -0.013585 0.0211717 0.00820519 0.0258289 0.0304108 0.0363636
internal_weight=419887 237331 182556 106187 111301 126030 76369 66418 58945 79584 46446 33932 44883 47242 43485 42437 36099 38758 30270 29364 31527 27859 22451 27418 29933 27660 23057 18587 17309 19548 11481 14613 19897 15917 14121 19267 23980 15610 13605 17696 13050 6889 5142 11003 4894 11668 13693 7870 19970 15901 9401 19335 20970 28832 21519 13705 11077 14778 8488 9963 10107 5205
internal_count=419887 237331 182556 106187 111301 126030 76369 66418 58945 79584 46446 33932 44883 47242 43485 42437 36099 38758 30270 29364 31527 27859 22451 27418 29933 27660 23057 18587 17309 19548 11481 14613 19897 15917 14121 19267 23980 15610 13605 17696 13050 6889 5142 11003 4894 11668 13693 7870 19970 15901 9401 19335 20970 28832 21519 13705 11077 14778 8488 9963 10107 5205
is_linear=0
shrinkage=0.05


Tree=14
num_leaves=63
num_cat=0
split_feature=15 15 15 23 23 23 25 28 0 0 23 21 0 15 15 28 28 23 15 81 55 23 23 23 23 55 23 55 23 23 28 23 28 28 55 55 23 23 0 28 23 27 35 15 27 23 35 55 23 28 27 0 91 0 23 23 35 23 27 0 0 30
split_gain=345942 68114.8 51846.7 23210 22067.5 19401.4 8182.27 7818.2 7476.99 7095.86 6053.28 5241.76 4089.79 3546.46 3026.53 2880.38 2877.05 2586.41 2507.31 2379.32 2311.88 1974.13 1952.6 1906.24 1836.39 1730.03 1577.93 1409.03 1397.27 1386.23 1355.31 1353.27 1335.25 1234.63 1231.26 1230.36 1191.47 1150.65 1136.38 1111.47 1102.67 1050.57 1048.91 954.776 949.009 922.867 891.765 876.169 865.172 891.495 848.714 838.853 812.344 811.823 795.766 740.9 738.911 728.303 723.537 715.841 708.009 705.032
threshold=7.0093750953674325 5.1122918128967294 9.4485416412353533 -0.13999962806701657 -0.059999704360961907 0.10500001907348634 -0.61000037193298329 3.3003985881805424 4.9049999713897714 8.0749998092651385 0.20499992370605472 -4.7589411735534659 6.5450000762939462 10.721041679382326 10.49104166030884 6.1168248653411874 8.0562791824340838 -0.48000000417232508 3.5360416173934941 -0.64944979548454274 0.8449993133544923 0.21999984979629519 0.52000004053115856 -0.37000024318695063 -0.27999979257583613 -0.35499954223632807 0.59000039100646984 0.8150005340576173 0.57000041007995617 -0.42499995231628412 6.2679903507232675 -0.41000005602836603 5.0463418960571298 9.707590579986574 0.94499969482421886 -0.25999927520751948 -0.38999962806701655 -0.44000004231929774 6.0450000762939462 7.7100310325622567 -0.55500006675720204 -0.056342707946896546 -0.70710678118654757 11.883541584014894 -0.14313481748104093 0.3799999356269837 0.78656609248549303 1.0750007629394533 -0.19999986886978147 2.6066457033157353 -0.019955564290285107 4.9849998950958261 0.1987113952636719 6.3849999904632577 0.47499990463256841 0.15999990701675418 0.78656609248549303 0.61999997496604931 -0.050958216190338128 9.1949996948242205 8.1949996948242205 2.4036324024200444
decision_type=2 2 2 2 2 2 2 2 2 2 2 2 2 2 2 2 2 2 2 2 2 2 2 2 2 2 2 2 2 2 2 2 2 2 2 2 2 2 2 2 2 2 2 2 2 2 2 2 2 2 2 2 2 2 2 2 2 2 2 2 2 2
left_child=1 5 4 12 9 8 14 19 18 17 15 25 29 21 36 34 20 50 48 54 -13 56 32 -11 44 59 30 38 61 41 42 -10 35 46 -5 -9 -4 -16 -19 -27 -14 -3 -12 55 -20 -18 -25 51 -1 -50 -2 -31 -22 -33 -7 -15 -8 -41 -29 -6 -42 -21
right_child=2 3 6 10 11 7 13 22 31 23 26 16 40 43 37 -17 45 27 24 28 52 -23 -24 33 -26 39 -28 58 -30 47 -32 53 -34 -35 -36 -37 -38 -39 -40 57 60 -43 -44 -45 -46 -47 -48 -49 49 -51 -52 -53 -54 -55 -56 -57 -58 -59 -60 -61 -62 -63
leaf_value=-0.1198416607412765 -0.012112634514100917 -0.039763517848375736 0.022968423171621871 -0.037481028335905713 0.033957873774857733 -0.053800182953582687 0.086055739215798621 -0.064926114314873981 -0.088303287444808976 0.0081747682428830633 0.018027852874951983 0.014814848355504574 -0.055890568362125283 0.10494970843226013 0.052023025891729524 0.0024528602078030589 0.049161339347493324 -0.042210937728452226 -0.0493205529760182 -0.10245767172618546 0.026287845492833757 0.11044442775258481 -0.00072977563409769991 0.036019742058894688 -0.075050269502058217 0.061076626173296768 0.038590423631263443 0.04222104885168558 -0.049401522263551774 -0.07661383896599179 0.028115259199369143 -0.059795043215718297 -0.011381022490778644 0.056672947220954339 -0.01061761744793438 -0.031849119020816448 0.056744570266985012 0.093299870001801594 -0.0025721152428113091 0.080945325501164747 -0.026645481052853911 -0.08358017860642615 -0.0099659595238333343 0.14752619208527959 -0.10734285781171587 0.076543356730131254 0.013570955513839031 -0.027337874535386116 -0.11450050168299056 -0.089741761034593609 -0.049346742691980298 -0.047199285305011912 0.051662244055501141 -0.032159275270842967 -0.013903852736769163 0.13301255408914769 0.06148925467206811 0.11643198709190108 0.0080751341270255319 0.065867535055581294 0.00053838623154332983 -0.076922759029673854
leaf_weight=10509 2484 1719 3677 9615 4145 3371 11243 4105 3293 10645 6132 13605 2674 6652 2182 19551 18054 2026 766 4129 4650 7636 5871 12411 14559 7050 7979 2326 3412 3466 8641 10252 4785 4670 7669 8936 9027 7542 16748 9109 11398 6763 7363 2901 9233 3715 6878 3464 6701 8034 3991 8102 9835 3594 1988 3681 4227 1727 4658 3058 3032 7930
leaf_count=10509 2484 1719 3677 9615 4145 3371 11243 4105 3293 10645 6132 13605 2674 6652 2182 19551 18054 2026 766 4129 4650 7636 5871 12411 14559 7050 7979 2326 3412 3466 8641 10252 4785 4670 7669 8936 9027 7542 16748 9109 11398 6763 7363 2901 9233 3715 6878 3464 6701 8034 3991 8102 9835 3594 1988 3681 4227 1727 4658 3058 3032 7930
internal_value=-0.000131086 -0.0435737 0.0473151 -0.0151898 0.0309476 -0.070964 0.0868025 -0.0453853 -0.0879771 0.010059 0.00290067 0.0495752 -0.0450076 0.101461 0.0630483 -0.0106932 0.0401935 -0.00682101 -0.0977809 -0.0677318 0.0296179 0.0896292 -0.0257402 0.0257822 -0.086395 0.0682167 0.019528 0.000280426 -0.0776785 -0.0585393 0.0126552 -0.059485 -0.0339767 0.0336044 -0.0255632 -0.0422655 0.0469715 0.0840444 -0.00685203 0.076551 -0.026402 -0.0747064 0.00275419 0.122109 -0.102904 0.0538378 0.0280164 -0.0494121 -0.108853 -0.101009 -0.0350675 -0.0560188 0.0435192 -0.0526248 -0.0390063 0.114959 0.079348 0.0866117 0.0194525 0.0475129 -0.0209337 -0.0856741
internal_weight=419589 219036 200553 107568 141785 111468 58768 44527 66941 66837 66950 74948 40618 36340 22428 36835 49859 32233 49802 20830 28090 23106 23697 34604 24558 25089 30115 25758 15471 23514 22136 17139 17826 23959 17284 13041 12704 9724 18774 17886 17104 8482 13495 13234 9999 21769 19289 15032 25244 14735 6475 11568 14485 13846 5359 10333 15470 10836 6984 7203 14430 12059
internal_count=419589 219036 200553 107568 141785 111468 58768 44527 66941 66837 66950 74948 40618 36340 22428 36835 49859 32233 49802 20830 28090 23106 23697 34604 24558 25089 30115 25758 15471 23514 22136 17139 17826 23959 17284 13041 12704 9724 18774 17886 17104 8482 13495 13234 9999 21769 19289 15032 25244 14735 6475 11568 14485 13846 5359 10333 15470 10836 6984 7203 14430 12059
is_linear=0
shrinkage=0.05


Tree=15
num_leaves=63
num_cat=0
split_feature=28 28 84 23 55 55 62 23 55 23 84 28 28 28 55 23 20 84 81 23 35 81 28 28 94 2 81 23 20 23 23 23 23 23 84 84 82 35 23 23 35 35 42 28 91 93 28 27 30 84 23 97 62 42 42 65 27 20 84 35 67 23
split_gain=303639 54206.9 53862.3 25577.1 24944.5 12614.3 11138.9 10000.1 7792.62 7481.08 6757.79 4731.7 4622.86 4325.01 4262.23 4260.49 3863.08 3260.45 2936.07 2839.67 2575 2457.04 2387.46 2041.5 1929.9 1776.62 1738.11 1469.21 1425.16 1398.63 1386.74 1386.12 1311.92 1269.41 1252.87 1226.59 1219.76 1176.73 1142.75 1086.59 1012.64 1010.96 994.972 978.601 977.514 943.512 877.211 858.753 853.28 822.859 818.982 794.956 760.021 746.268 697.526 682.484 633.018 630.535 622.484 607.893 593.555 593.289
threshold=6.8393023014068612 9.2931723594665545 4.6366128921508798 -0.13999962806701657 -0.12499999999999999 0.27999973297119146 99.774997711181655 -0.13000008463859555 0.050000190734863288 0.10500001907348634 3.0041935443878178 10.940461635589601 5.1918673515319833 10.793376445770265 -0.25999927520751948 -0.15000033378601071 -0.28501930832862848 3.2300001382827763 -0.78601297736167897 -0.46000002324581141 0.78656609248549303 -0.4715548157691955 8.0004000663757342 8.1636900901794451 0.099291130900383009 4.5050001144409189 0.38889077305793768 0.19000017642974856 0.4131839275360108 0.32000041007995611 -0.50000005960464466 -0.31000004708766932 0.28999997675418859 0.61999997496604931 7.0846776962280282 6.1614513397216806 3.0092002153396611 -0.5 -0.57999980449676503 -0.0099998712539672834 0.78656609248549303 0.91597561503675351 0.55618622899055492 12.490896224975588 -0.41048431396484369 -0.75418809056282032 12.490896224975588 -0.037727236747741692 3.9367291927337651 7.2145164012908944 0.15000033378601077 27.500000000000004 100.32500076293947 0.30618621408939367 0.30618621408939367 29.085000038146976 -0.19165997207164762 0.4131839275360108 5.692096710205079 0.91597561503675351 29.515000343322757 -0.53999984264373768
decision_type=2 2 2 2 2 2 2 2 2 2 2 2 2 2 2 2 2 2 2 2 2 2 2 2 2 2 2 2 2 2 2 2 2 2 2 2 2 2 2 2 2 2 2 2 2 2 2 2 2 2 2 2 2 2 2 2 2 2 2 2 2 2
left_child=2 3 5 14 12 17 48 13 22 25 27 20 39 30 19 28 24 -1 36 49 32 29 54 42 -10 -8 -27 55 61 51 -3 -19 -9 -26 47 -20 -11 50 -15 -4 -32 -24 -21 59 -23 -33 -40 -16 -6 57 -18 -12 -41 -17 -5 -7 -57 -2 -55 -13 -47 -14
